svm_type c_svc
kernel_type rbf
gamma 10.0
nr_class 2
total_sv 4
rho 0.0
label 1 -1
probA 3.2950351477218236
probB -5.942233334551922E-12
nr_sv 2 2
SV
1.0000908039844314 1:0.0 2:1.0 
1.0000908060456788 1:1.0 2:0.0 
-1.0000908039844314 1:0.0 2:0.0 
-1.0000908060456788 1:1.0 2:1.0 
