svm_type c_svc
kernel_type rbf
gamma 0.0
nr_class 2
total_sv 4
rho 0.0
label 2 1
nr_sv 2 2
SV
10.0 1:9.2 2:9.3 3:9.0 4:9.0 5:9.4 6:8.9 
10.0 1:9.2 2:9.3 3:9.0 4:9.0 5:8.4 6:8.9 
-10.0 1:1.2 2:1.3 3:1.0 4:1.0 5:1.4 6:0.9 
-10.0 1:1.0 2:1.1 3:1.2 4:1.0 5:0.8 6:0.9 
