svm_type c_svc
kernel_type rbf
gamma 10.0
nr_class 2
total_sv 4
rho -5.032734929707655E-13
label 1 -1
probA 3.2952345933839675
probB -3.714271396351978E-12
nr_sv 2 2
SV
1.0000907818124394 1:0.0 2:1.0 
1.0000454019922158 1:1.0 2:2.0 
-1.0000908261544106 1:1.0 2:1.0 
-1.0000453576502446 1:0.0 2:0.0 
