svm_type c_svc
kernel_type rbf
gamma 10.0
nr_class 2
total_sv 183
rho -0.3359878671247509
label 1 0
probA -3.154542631411087
probB -0.011947552192957619
nr_sv 97 86
SV
1.709468219630552 1:0.0 2:0.0 3:0.0 4:0.0 5:0.0 6:0.0 7:0.0 8:0.0 9:0.14184397163120568 10:0.2916666666666667 11:0.0 12:0.0 13:0.0 14:0.0 15:0.0 16:0.0 17:0.0 18:0.0 19:0.0 20:0.0 21:0.0 22:0.14184397163120568 23:0.0 24:0.15 25:0.0 26:0.0 27:0.0 28:0.0 29:0.0 30:0.0 31:0.0 32:0.06482977985572366 33:0.15 34:0.0 35:0.0 36:0.0 37:0.0 38:0.0 39:0.0 40:0.0 41:0.0 42:0.0 43:0.0 44:0.0 45:0.0 46:0.0 47:0.0 48:0.0 49:0.0 50:0.0 
0.3899355899706684 1:0.0 2:0.0 3:0.0 4:0.14184397163120568 5:0.0 6:0.15 7:0.2918439716312057 8:0.0 9:0.0 10:0.0 11:0.0 12:0.0 13:0.0 14:0.0 15:0.0 16:0.0 17:0.15 18:0.0 19:0.0 20:0.0 21:0.0 22:0.0 23:0.0 24:0.0 25:0.0 26:0.0 27:0.0 28:0.14184397163120568 29:0.0 30:0.0 31:0.0 32:0.0 33:0.0 34:0.0 35:0.0 36:0.0 37:0.0 38:0.0 39:0.0 40:0.0 41:0.0 42:0.0 43:0.0 44:0.08186876722269398 45:0.0 46:0.0 47:0.0 48:0.0 49:0.0 50:0.0 
0.9433888347530427 1:0.0 2:0.0 3:0.0 4:0.0 5:0.0 6:0.0 7:0.0 8:0.0 9:0.2920761981963724 10:0.0 11:0.0 12:0.0 13:0.0 14:0.0 15:0.14184397163120568 16:0.0 17:0.0 18:0.0 19:0.0 20:0.0 21:0.12862861970395875 22:0.0 23:0.0 24:0.0 25:0.0 26:0.0 27:0.0 28:0.0 29:0.13380281690140844 30:0.0 31:0.0 32:0.0 33:0.0 34:0.0 35:0.0 36:0.13380281690140844 37:0.0 38:0.0 39:0.0 40:0.0 41:0.0 42:0.0 43:0.0 44:0.0 45:0.0 46:0.0 47:0.0 48:0.1258741258741259 49:0.0 50:0.0 
1.99998702730991 1:0.0 2:0.0 3:0.0 4:0.09287402723634652 5:0.0 6:0.0 7:0.0 8:0.0 9:0.0 10:0.0 11:0.0 12:0.0 13:0.0 14:0.14184397163120568 15:0.0 16:0.0 17:0.0 18:0.0 19:0.0 20:0.15 21:0.0 22:0.0 23:0.0 24:0.0 25:0.0 26:0.0 27:0.0 28:0.0 29:0.0 30:0.0 31:0.0 32:0.14184397163120568 33:0.0 34:0.0 35:0.0 36:0.0 37:0.0 38:0.0 39:0.0 40:0.0 41:0.0 42:0.0 43:0.0 44:0.14184397163120568 45:0.14184397163120568 46:0.15 47:0.0 48:0.0 49:0.0 50:0.0 
0.40954925338616494 1:0.0 2:0.15 3:0.0 4:0.0 5:0.0 6:0.0 7:0.0 8:0.0 9:0.0 10:0.15 11:0.0 12:0.0 13:0.14184397163120568 14:0.0 15:0.0 16:0.0 17:0.0 18:0.0 19:0.14184397163120568 20:0.0 21:0.0 22:0.0 23:0.0 24:0.0 25:0.0 26:0.0 27:0.0 28:0.0 29:0.0 30:0.10110249139591224 31:0.0 32:0.0 33:0.0 34:0.0 35:0.0 36:0.0 37:0.15827338129496402 38:0.0 39:0.0 40:0.0 41:0.0 42:0.14184397163120568 43:0.0 44:0.0 45:0.0 46:0.0 47:0.0 48:0.0 49:0.0 50:0.0 
0.2908769495907548 1:0.0 2:0.0 3:0.0 4:0.0 5:0.0 6:0.0 7:0.0 8:0.0 9:0.14184397163120568 10:0.0 11:0.0 12:0.0 13:0.0 14:0.0 15:0.14184397163120568 16:0.0 17:0.14184397163120568 18:0.0 19:0.0 20:0.0 21:0.0 22:0.0 23:0.0 24:0.0 25:0.0 26:0.0 27:0.0 28:0.0 29:0.14184397163120568 30:0.0 31:0.0 32:0.0 33:0.0 34:0.0 35:0.0 36:0.0 37:0.0 38:0.0 39:0.0 40:0.0 41:0.0 42:0.0 43:0.0 44:0.14184397163120568 45:0.27564678853261415 46:0.0 47:0.0 48:0.0 49:0.0 50:0.0 
0.778063400107369 1:0.0 2:0.0918386695717785 3:0.0 4:0.0 5:0.0 6:0.0 7:0.0 8:0.14184397163120568 9:0.0 10:0.15 11:0.0 12:0.0 13:0.0 14:0.0 15:0.0 16:0.0 17:0.0 18:0.0 19:0.0 20:0.0 21:0.0 22:0.0 23:0.0 24:0.0 25:0.0 26:0.0 27:0.0 28:0.0 29:0.0 30:0.0 31:0.14184397163120568 32:0.0 33:0.0 34:0.0 35:0.0 36:0.14184397163120568 37:0.0 38:0.0 39:0.0 40:0.13380281690140844 41:0.0 42:0.14184397163120568 43:0.0 44:0.0 45:0.0 46:0.0 47:0.0 48:0.0 49:0.0 50:0.0 
0.2067440941848384 1:0.0 2:0.0 3:0.0 4:0.0 5:0.0 6:0.0 7:0.0 8:0.0 9:0.0 10:0.0 11:0.1258741258741259 12:0.0 13:0.0 14:0.0 15:0.0 16:0.0 17:0.0 18:0.0 19:0.0 20:0.0 21:0.0 22:0.0 23:0.0 24:0.14184397163120568 25:0.0 26:0.0 27:0.15827338129496402 28:0.14184397163120568 29:0.0 30:0.0 31:0.0 32:0.0 33:0.0 34:0.0 35:0.0 36:0.0 37:0.0 38:0.0 39:0.0 40:0.0 41:0.0 42:0.14184397163120568 43:0.0 44:0.14330240910863765 45:0.0 46:0.0 47:0.0 48:0.0 49:0.13380281690140844 50:0.0 
1.0060066262529666 1:0.0 2:0.15827338129496402 3:0.0 4:0.0 5:0.07846503183270437 6:0.0 7:0.15 8:0.0 9:0.15 10:0.0 11:0.0 12:0.0 13:0.0 14:0.0 15:0.0 16:0.0 17:0.0 18:0.0 19:0.0 20:0.0 21:0.0 22:0.0 23:0.0 24:0.0 25:0.0 26:0.0 27:0.0 28:0.0 29:0.0 30:0.0 31:0.0 32:0.0 33:0.14184397163120568 34:0.0 35:0.0 36:0.0 37:0.2918439716312057 38:0.0 39:0.0 40:0.0 41:0.0 42:0.0 43:0.0 44:0.0 45:0.0 46:0.0 47:0.0 48:0.0 49:0.0 50:0.0 
0.025218843423361257 1:0.0 2:0.0 3:0.0 4:0.14184397163120568 5:0.0 6:0.0 7:0.0 8:0.0 9:0.0 10:0.0 11:0.14184397163120568 12:0.0 13:0.0 14:0.0 15:0.0 16:0.0 17:0.0 18:0.0 19:0.0 20:0.0 21:0.0 22:0.0 23:0.0 24:0.0 25:0.0 26:0.0 27:0.0 28:0.0 29:0.0 30:0.0 31:0.0 32:0.0 33:0.0 34:0.13380281690140844 35:0.0 36:0.0 37:0.0 38:0.0 39:0.28368794326241137 40:0.0 41:0.0 42:0.14184397163120568 43:0.0 44:0.14184397163120568 45:0.0 46:0.0 47:0.0 48:0.0 49:0.0 50:0.0 
0.28959681745583843 1:0.0 2:0.0 3:0.0 4:0.0 5:0.13380281690140844 6:0.0 7:0.0 8:0.0 9:0.0 10:0.14184397163120568 11:0.0 12:0.0 13:0.0 14:0.0 15:0.0 16:0.0 17:0.0 18:0.0 19:0.0 20:0.0 21:0.14184397163120568 22:0.13380281690140844 23:0.0 24:0.0 25:0.0 26:0.0 27:0.0 28:0.07400841013624113 29:0.10709237899571375 30:0.0 31:0.0 32:0.0 33:0.0 34:0.0 35:0.0 36:0.0 37:0.0 38:0.0 39:0.13380281690140844 40:0.0 41:0.0 42:0.0 43:0.0 44:0.0 45:0.13380281690140844 46:0.0 47:0.0 48:0.0 49:0.0 50:0.0 
1.0319939696136282 1:0.0 2:0.0 3:0.0 4:0.0 5:0.0 6:0.0 7:0.14184397163120568 8:0.0 9:0.14184397163120568 10:0.0 11:0.0 12:0.0 13:0.0 14:0.0 15:0.0 16:0.0 17:0.0 18:0.0 19:0.0 20:0.0 21:0.0 22:0.0 23:0.14184397163120568 24:0.0 25:0.0 26:0.0 27:0.0 28:0.06783556149496456 29:0.0 30:0.0 31:0.0 32:0.0 33:0.0 34:0.14184397163120568 35:0.0 36:0.0 37:0.08110060871780142 38:0.0 39:0.0 40:0.0 41:0.0 42:0.0 43:0.0 44:0.0 45:0.0 46:0.14184397163120568 47:0.0 48:0.14184397163120568 49:0.0 50:0.0 
0.5861160175837313 1:0.0 2:0.0 3:0.13380281690140844 4:0.0 5:0.0 6:0.0 7:0.0 8:0.0 9:0.0 10:0.0 11:0.14184397163120568 12:0.0 13:0.13380281690140844 14:0.0 15:0.0 16:0.0 17:0.14184397163120568 18:0.0 19:0.0 20:0.0 21:0.0 22:0.0 23:0.0 24:0.0 25:0.0 26:0.0 27:0.0 28:0.0 29:0.0 30:0.0 31:0.0 32:0.0 33:0.0 34:0.0 35:0.0 36:0.0 37:0.1069179539693457 38:0.0 39:0.0 40:0.0 41:0.0 42:0.0 43:0.0 44:0.15 45:0.0 46:0.19178846896542598 47:0.0 48:0.0 49:0.0 50:0.0 
0.8392769148133797 1:0.1258741258741259 2:0.0 3:0.0 4:0.0 5:0.0 6:0.0 7:0.14184397163120568 8:0.0 9:0.1411334282241656 10:0.0 11:0.0 12:0.0 13:0.13380281690140844 14:0.0 15:0.0 16:0.0 17:0.0 18:0.0 19:0.0 20:0.0 21:0.0 22:0.0 23:0.0 24:0.15734565736909434 25:0.0 26:0.0 27:0.15 28:0.0 29:0.0 30:0.0 31:0.0 32:0.0 33:0.0 34:0.0 35:0.0 36:0.15 37:0.0 38:0.0 39:0.0 40:0.0 41:0.0 42:0.0 43:0.0 44:0.0 45:0.0 46:0.0 47:0.0 48:0.0 49:0.0 50:0.0 
0.5296326094940741 1:0.0 2:0.0 3:0.1258741258741259 4:0.0 5:0.0 6:0.0 7:0.0 8:0.0 9:0.0 10:0.0 11:0.14730158891325215 12:0.0 13:0.0 14:0.0 15:0.0 16:0.0 17:0.0 18:0.0 19:0.0 20:0.0 21:0.0 22:0.0 23:0.0 24:0.0 25:0.15 26:0.0 27:0.0 28:0.0 29:0.0 30:0.0 31:0.0 32:0.0 33:0.0 34:0.0 35:0.0 36:0.0 37:0.0 38:0.2918439716312057 39:0.15827338129496402 40:0.0 41:0.0 42:0.0 43:0.0 44:0.0 45:0.0 46:0.0 47:0.0 48:0.1258741258741259 49:0.0 50:0.0 
1.3620473079334747 1:0.0 2:0.15 3:0.0 4:0.0 5:0.0 6:0.0 7:0.0 8:0.0 9:0.0 10:0.0 11:0.0 12:0.3159435597288034 13:0.0 14:0.15 15:0.0 16:0.08405644027119658 17:0.0 18:0.0 19:0.0 20:0.0 21:0.0 22:0.0 23:0.0 24:0.0 25:0.0 26:0.0 27:0.15 28:0.0 29:0.0 30:0.0 31:0.0 32:0.0 33:0.0 34:0.0 35:0.0 36:0.0 37:0.15 38:0.0 39:0.0 40:0.0 41:0.0 42:0.0 43:0.0 44:0.0 45:0.0 46:0.0 47:0.0 48:0.0 49:0.0 50:0.0 
0.46735865017650896 1:0.0 2:0.0 3:0.0 4:0.0 5:0.0 6:0.0 7:0.0 8:0.0 9:0.13696482141331284 10:0.0 11:0.0 12:0.0 13:0.0 14:0.26805555555555555 15:0.0 16:0.14184397163120568 17:0.0 18:0.0 19:0.0 20:0.0 21:0.0 22:0.0 23:0.0 24:0.0 25:0.0 26:0.0 27:0.2222222222222222 28:0.0 29:0.0 30:0.0 31:0.0 32:0.0 33:0.0 34:0.0 35:0.0 36:0.0 37:0.16944770813751459 38:0.0 39:0.0 40:0.0 41:0.0 42:0.0 43:0.0 44:0.0 45:0.0 46:0.0 47:0.0 48:0.0 49:0.0 50:0.0 
0.12160468540654201 1:0.0 2:0.14184397163120568 3:0.0 4:0.0 5:0.28396986512316813 6:0.0 7:0.0 8:0.0 9:0.0 10:0.0 11:0.0 12:0.0 13:0.14184397163120568 14:0.0 15:0.0 16:0.0 17:0.0 18:0.0 19:0.0 20:0.0 21:0.0 22:0.0 23:0.14184397163120568 24:0.0 25:0.0 26:0.0 27:0.0 28:0.0 29:0.0 30:0.0 31:0.0 32:0.0 33:0.0 34:0.0 35:0.0 36:0.0 37:0.0 38:0.0 39:0.0 40:0.0 41:0.14184397163120568 42:0.0 43:0.0 44:0.0 45:0.14184397163120568 46:0.0 47:0.0 48:0.0 49:0.0 50:0.0 
1.6802944428802984 1:0.0 2:0.0 3:0.0 4:0.0 5:0.15 6:0.0 7:0.0 8:0.0 9:0.0 10:0.0 11:0.0 12:0.15827338129496402 13:0.2333358844839022 14:0.0 15:0.0 16:0.0 17:0.0 18:0.0 19:0.0 20:0.0 21:0.0 22:0.0 23:0.0 24:0.0 25:0.0 26:0.0 27:0.0 28:0.0 29:0.0 30:0.0 31:0.0 32:0.14184397163120568 33:0.15827338129496402 34:0.0 35:0.0 36:0.0 37:0.0 38:0.0 39:0.0 40:0.0 41:0.15827338129496402 42:0.0 43:0.0 44:0.0 45:0.0 46:0.0 47:0.0 48:0.0 49:0.0 50:0.0 
1.668093078417058 1:0.0 2:0.0 3:0.0 4:0.0 5:0.0 6:0.0 7:0.0 8:0.0 9:0.0 10:0.0 11:0.14184397163120568 12:0.0 13:0.1258741258741259 14:0.14184397163120568 15:0.0 16:0.0 17:0.0 18:0.2698193514085341 19:0.0 20:0.0 21:0.0 22:0.0 23:0.0 24:0.0 25:0.0 26:0.0 27:0.0 28:0.0 29:0.0 30:0.0 31:0.0 32:0.14184397163120568 33:0.0 34:0.0 35:0.0 36:0.0 37:0.0 38:0.0 39:0.0 40:0.0 41:0.0 42:0.0 43:0.15 44:0.0 45:0.0 46:0.0 47:0.0 48:0.0 49:0.0 50:0.0 
0.3914975097639851 1:0.0 2:0.0 3:0.0 4:0.0 5:0.0 6:0.0 7:0.15 8:0.0 9:0.0 10:0.15 11:0.0 12:0.0 13:0.0 14:0.0 15:0.0 16:0.14184397163120568 17:0.0 18:0.0 19:0.0 20:0.0 21:0.0 22:0.0 23:0.0 24:0.1317780564152907 25:0.15 26:0.0 27:0.0 28:0.0 29:0.0 30:0.0 31:0.1345340003222979 32:0.0 33:0.0 34:0.0 35:0.0 36:0.0 37:0.0 38:0.0 39:0.14184397163120568 40:0.0 41:0.0 42:0.0 43:0.0 44:0.0 45:0.0 46:0.0 47:0.0 48:0.0 49:0.0 50:0.0 
0.7766269240273331 1:0.0 2:0.0 3:0.0 4:0.0 5:0.0 6:0.0 7:0.0 8:0.0 9:0.15 10:0.0 11:0.0 12:0.0 13:0.0 14:0.0 15:0.0 16:0.0 17:0.15 18:0.0 19:0.0 20:0.0 21:0.0 22:0.0 23:0.0 24:0.0 25:0.0 26:0.0 27:0.0 28:0.0 29:0.15 30:0.0 31:0.0 32:0.0 33:0.0 34:0.0 35:0.0 36:0.0 37:0.0 38:0.0 39:0.0 40:0.0 41:0.0 42:0.0 43:0.0 44:0.0 45:0.0 46:0.4749400479616307 47:0.0 48:0.0 49:0.0 50:0.0 
0.7886074283771588 1:0.0 2:0.0 3:0.0 4:0.0 5:0.14167111603925622 6:0.0 7:0.15 8:0.0 9:0.15827338129496402 10:0.0 11:0.0 12:0.0 13:0.0 14:0.0 15:0.0 16:0.0 17:0.0 18:0.0 19:0.0 20:0.0 21:0.0 22:0.0 23:0.0 24:0.15 25:0.0 26:0.0 27:0.0 28:0.0 29:0.0 30:0.0 31:0.0 32:0.0 33:0.0 34:0.0 35:0.0 36:0.0 37:0.14184397163120568 38:0.15 39:0.0 40:0.0 41:0.0 42:0.0 43:0.0 44:0.0 45:0.0 46:0.10821153103457401 47:0.0 48:0.0 49:0.0 50:0.0 
0.15386955297406352 1:0.0 2:0.0 3:0.0 4:0.0 5:0.0 6:0.0 7:0.0 8:0.0 9:0.0 10:0.0 11:0.0 12:0.0 13:0.28368794326241137 14:0.0 15:0.0 16:0.0 17:0.2918439716312057 18:0.0 19:0.0 20:0.0 21:0.0 22:0.0 23:0.0 24:0.0 25:0.0 26:0.0 27:0.0 28:0.0 29:0.0 30:0.0 31:0.0 32:0.0 33:0.0 34:0.0 35:0.0 36:0.12793046264193003 37:0.0 38:0.0 39:0.0 40:0.0 41:0.0 42:0.0 43:0.0 44:0.14184397163120568 45:0.0 46:0.0 47:0.0 48:0.0 49:0.13380281690140844 50:0.0 
2.3990198958896256 1:0.0 2:0.0 3:0.0 4:0.0 5:0.0 6:0.0 7:0.0 8:0.0 9:0.0 10:0.11567406341127509 11:0.0 12:0.0 13:0.0 14:0.0 15:0.15 16:0.0 17:0.0 18:0.15 19:0.0 20:0.0 21:0.0 22:0.0 23:0.0 24:0.0 25:0.0 26:0.0 27:0.0 28:0.0 29:0.0 30:0.0 31:0.0 32:0.15827338129496402 33:0.0 34:0.0 35:0.0 36:0.0 37:0.0 38:0.0 39:0.0 40:0.0 41:0.0 42:0.13380281690140844 43:0.15 44:0.0 45:0.0 46:0.0 47:0.0 48:0.0 49:0.0 50:0.13380281690140844 
0.40591389776755243 1:0.0 2:0.0 3:0.0 4:0.0 5:0.0 6:0.0 7:0.0 8:0.0 9:0.0 10:0.15 11:0.0 12:0.0 13:0.0 14:0.0 15:0.0 16:0.0 17:0.0 18:0.0 19:0.14184397163120568 20:0.0 21:0.0 22:0.0 23:0.15 24:0.0 25:0.0 26:0.13380281690140844 27:0.15 28:0.0 29:0.11294688700907801 30:0.0 31:0.0 32:0.0 33:0.0 34:0.0 35:0.0 36:0.0 37:0.0 38:0.0 39:0.0 40:0.0 41:0.0 42:0.0 43:0.0 44:0.0 45:0.0 46:0.0 47:0.0 48:0.0 49:0.0 50:0.14184397163120568 
0.8308615955898513 1:0.0 2:0.14184397163120568 3:0.0 4:0.0 5:0.14184397163120568 6:0.0 7:0.0 8:0.0 9:0.0 10:0.0 11:0.0 12:0.0 13:0.0 14:0.0 15:0.0 16:0.0 17:0.0 18:0.0 19:0.13380281690140844 20:0.0 21:0.0 22:0.0 23:0.0 24:0.0 25:0.0 26:0.0 27:0.15 28:0.15827338129496402 29:0.0 30:0.0 31:0.0 32:0.0 33:0.0 34:0.0 35:0.0 36:0.0 37:0.17676998929306567 38:0.0 39:0.0 40:0.0 41:0.0 42:0.0 43:0.0 44:0.0 45:0.0 46:0.0 47:0.0 48:0.0 49:0.0 50:0.0 
0.8755102669688893 1:0.0 2:0.0 3:0.0 4:0.0 5:0.0 6:0.0 7:0.0 8:0.0 9:0.0 10:0.0 11:0.0 12:0.27564678853261415 13:0.0 14:0.0 15:0.0 16:0.0 17:0.0 18:0.0 19:0.0 20:0.0 21:0.0 22:0.0 23:0.15827338129496402 24:0.0 25:0.0 26:0.15 27:0.0 28:0.0 29:0.0 30:0.0 31:0.0 32:0.08517022014427633 33:0.0 34:0.0 35:0.0 36:0.0 37:0.0 38:0.0 39:0.0 40:0.0 41:0.0 42:0.0 43:0.0 44:0.0 45:0.2918439716312057 46:0.0 47:0.0 48:0.0 49:0.0 50:0.0 
1.0478095909554763 1:0.0 2:0.0 3:0.0 4:0.0 5:0.0 6:0.07410469039873538 7:0.0 8:0.0 9:0.0 10:0.0 11:0.0 12:0.0 13:0.0 14:0.0 15:0.0 16:0.0 17:0.14184397163120568 18:0.15 19:0.0 20:0.0 21:0.0 22:0.0 23:0.0 24:0.0 25:0.0 26:0.0 27:0.0 28:0.15827338129496402 29:0.0 30:0.0 31:0.0 32:0.0 33:0.0 34:0.308273381294964 35:0.0 36:0.0 37:0.0 38:0.0 39:0.0 40:0.0 41:0.0 42:0.0 43:0.0 44:0.0 45:0.0 46:0.0 47:0.0 48:0.0 49:0.0 50:0.15 
2.283150749952337 1:0.0 2:0.0 3:0.0 4:0.0 5:0.0 6:0.0 7:0.0 8:0.0 9:0.0 10:0.0 11:0.15 12:0.0 13:0.0 14:0.0 15:0.0 16:0.0 17:0.15 18:0.0 19:0.0 20:0.0 21:0.0 22:0.0 23:0.0 24:0.0 25:0.0 26:0.0 27:0.0 28:0.15 29:0.0 30:0.0 31:0.0 32:0.15 33:0.0 34:0.0 35:0.15 36:0.0 37:0.0 38:0.0 39:0.0 40:0.0 41:0.0 42:0.0 43:0.15 44:0.06813123277730601 45:0.0 46:0.0 47:0.0 48:0.0 49:0.0 50:0.0 
0.2334781723811519 1:0.0 2:0.15827338129496402 3:0.0 4:0.0 5:0.0 6:0.0 7:0.2210480760683715 8:0.0 9:0.0 10:0.0 11:0.15 12:0.0 13:0.0 14:0.0 15:0.14184397163120568 16:0.0 17:0.0 18:0.0 19:0.0 20:0.0 21:0.0 22:0.0 23:0.0 24:0.0 25:0.0 26:0.14184397163120568 27:0.0 28:0.0 29:0.0 30:0.0 31:0.0 32:0.0 33:0.0 34:0.0 35:0.0 36:0.0 37:0.0 38:0.0 39:0.14184397163120568 40:0.0 41:0.0 42:0.0 43:0.0 44:0.0 45:0.0 46:0.0 47:0.0 48:0.0 49:0.0 50:0.0 
0.28883895827745976 1:0.0 2:0.0 3:0.0 4:0.0 5:0.0 6:0.0 7:0.13291500659732688 8:0.0 9:0.0 10:0.0 11:0.0 12:0.0 13:0.15 14:0.0 15:0.0 16:0.0 17:0.0 18:0.0 19:0.0 20:0.0 21:0.0 22:0.0 23:0.0 24:0.14184397163120568 25:0.0 26:0.0 27:0.0 28:0.0 29:0.0 30:0.0 31:0.13339705014026168 32:0.0 33:0.0 34:0.0 35:0.0 36:0.0 37:0.0 38:0.0 39:0.0 40:0.0 41:0.0 42:0.0 43:0.0 44:0.15 45:0.15 46:0.14184397163120568 47:0.0 48:0.0 49:0.0 50:0.0 
0.27336640807528445 1:0.0 2:0.06009255733468147 3:0.0 4:0.15 5:0.0 6:0.0 7:0.0 8:0.0 9:0.0 10:0.0 11:0.15827338129496402 12:0.0 13:0.15827338129496402 14:0.0 15:0.0 16:0.0 17:0.0 18:0.0 19:0.0 20:0.0 21:0.0 22:0.0 23:0.0 24:0.0 25:0.0 26:0.0 27:0.0 28:0.15 29:0.0 30:0.0 31:0.0 32:0.0 33:0.0 34:0.0 35:0.0 36:0.0 37:0.0 38:0.0 39:0.0 40:0.0 41:0.0 42:0.15 43:0.15827338129496402 44:0.0 45:0.0 46:0.0 47:0.0 48:0.0 49:0.0 50:0.0 
0.5204644565581307 1:0.0 2:0.0 3:0.0 4:0.0 5:0.0 6:0.0 7:0.0 8:0.0 9:0.0 10:0.0 11:0.0 12:0.0 13:0.0 14:0.0 15:0.0 16:0.0 17:0.15827338129496402 18:0.0 19:0.0 20:0.0 21:0.0 22:0.0 23:0.0 24:0.0 25:0.0 26:0.0 27:0.0 28:0.15 29:0.0 30:0.0 31:0.0 32:0.0 33:0.0 34:0.0 35:0.0 36:0.0 37:0.15 38:0.0 39:0.15 40:0.0 41:0.0 42:0.0 43:0.0 44:0.0 45:0.0 46:0.0 47:0.0 48:0.0 49:0.23814445389541136 50:0.14184397163120568 
1.1832918165101984 1:0.0 2:0.0 3:0.0 4:0.0 5:0.0 6:0.0 7:0.0 8:0.0 9:0.0 10:0.0 11:0.15 12:0.0 13:0.0 14:0.0 15:0.15 16:0.0 17:0.0 18:0.15 19:0.0 20:0.0 21:0.14184397163120568 22:0.0 23:0.0 24:0.0 25:0.0 26:0.0 27:0.0 28:0.0 29:0.0 30:0.0 31:0.0 32:0.0 33:0.0 34:0.0 35:0.0 36:0.0 37:0.0 38:0.0 39:0.0 40:0.0 41:0.0 42:0.0 43:0.0 44:0.0 45:0.0 46:0.0 47:0.0 48:0.15 49:0.0 50:0.15 
0.09032350588045836 1:0.0 2:0.0 3:0.0 4:0.0 5:0.0 6:0.0 7:0.22895192393162847 8:0.0 9:0.0 10:0.0 11:0.0 12:0.0 13:0.14184397163120568 14:0.0 15:0.0 16:0.0 17:0.0 18:0.0 19:0.0 20:0.0 21:0.0 22:0.14184397163120568 23:0.0 24:0.0 25:0.0 26:0.0 27:0.14184397163120568 28:0.0 29:0.14184397163120568 30:0.0 31:0.0 32:0.0 33:0.0 34:0.0 35:0.0 36:0.0 37:0.0 38:0.0 39:0.0 40:0.0 41:0.0 42:0.0 43:0.0 44:0.0 45:0.0 46:0.0 47:0.0 48:0.0 49:0.0 50:0.15 
2.025592176645705 1:0.0 2:0.0 3:0.0 4:0.0 5:0.0 6:0.0 7:0.0 8:0.0 9:0.0 10:0.0 11:0.0 12:0.15 13:0.0 14:0.0 15:0.14895508773021462 16:0.0 17:0.0 18:0.0 19:0.0 20:0.0 21:0.0 22:0.0 23:0.0 24:0.0 25:0.0 26:0.14184397163120568 27:0.0 28:0.0 29:0.0 30:0.13355415210596547 31:0.0 32:0.0 33:0.0 34:0.0 35:0.15 36:0.0 37:0.0 38:0.0 39:0.0 40:0.0 41:0.0 42:0.0 43:0.0 44:0.14184397163120568 45:0.0 46:0.0 47:0.0 48:0.0 49:0.0 50:0.13380281690140844 
1.448529860385338 1:0.0 2:0.08175141429652422 3:0.0 4:0.0 5:0.0 6:0.0 7:0.0 8:0.0 9:0.0 10:0.0 11:0.0 12:0.0 13:0.0 14:0.0 15:0.0 16:0.0 17:0.0 18:0.0 19:0.14184397163120568 20:0.0 21:0.0 22:0.0 23:0.0 24:0.0 25:0.0 26:0.0 27:0.0 28:0.0 29:0.0 30:0.0 31:0.0 32:0.15 33:0.0 34:0.0 35:0.0 36:0.15 37:0.0 38:0.0 39:0.0 40:0.0 41:0.0 42:0.0 43:0.0 44:0.0 45:0.15 46:0.0 47:0.0 48:0.15 49:0.0 50:0.15 
0.941007673542185 1:0.0 2:0.0 3:0.0 4:0.0 5:0.0 6:0.14184397163120568 7:0.0 8:0.0 9:0.0 10:0.2727272727272727 11:0.0 12:0.0 13:0.0 14:0.0 15:0.0 16:0.0 17:0.0 18:0.0 19:0.0 20:0.0 21:0.0 22:0.0 23:0.0 24:0.0 25:0.14671772717365975 26:0.0 27:0.0 28:0.0 29:0.0 30:0.15 31:0.0 32:0.15 33:0.0 34:0.0 35:0.0 36:0.0 37:0.0 38:0.0 39:0.0 40:0.0 41:0.0 42:0.0 43:0.1387110284678619 44:0.0 45:0.0 46:0.0 47:0.0 48:0.0 49:0.0 50:0.0 
1.237758051147515 1:0.0 2:0.375 3:0.14184397163120568 4:0.0 5:0.0 6:0.0 7:0.0 8:0.0 9:0.0 10:0.0 11:0.0 12:0.0 13:0.0 14:0.0 15:0.14184397163120568 16:0.0 17:0.0 18:0.0 19:0.0 20:0.0 21:0.0 22:0.0 23:0.0 24:0.17800292971589407 25:0.0 26:0.0 27:0.0 28:0.0 29:0.0 30:0.0 31:0.0 32:0.0 33:0.0 34:0.15 35:0.0 36:0.0 37:0.0 38:0.0 39:0.0 40:0.0 41:0.0 42:0.0 43:0.0 44:0.0 45:0.0 46:0.0 47:0.0 48:0.0 49:0.0 50:0.0 
0.562846365015322 1:0.0 2:0.0 3:0.15 4:0.0 5:0.0 6:0.0 7:0.0 8:0.0 9:0.0 10:0.0 11:0.0 12:0.0 13:0.19519640897504018 14:0.0 15:0.0 16:0.0 17:0.0 18:0.0 19:0.0 20:0.0 21:0.0 22:0.0 23:0.0 24:0.0 25:0.0 26:0.0 27:0.0 28:0.0 29:0.0 30:0.0 31:0.0 32:0.0 33:0.0 34:0.0 35:0.308273381294964 36:0.0 37:0.0 38:0.0 39:0.0 40:0.0 41:0.0 42:0.0 43:0.0 44:0.3 45:0.0 46:0.0 47:0.0 48:0.0 49:0.0 50:0.0 
0.5240585527738897 1:0.0 2:0.0 3:0.0 4:0.0 5:0.0 6:0.0 7:0.15 8:0.0 9:0.0 10:0.15 11:0.0 12:0.0 13:0.0 14:0.0 15:0.21908275988831585 16:0.0 17:0.0 18:0.0 19:0.0 20:0.0 21:0.0 22:0.0 23:0.0 24:0.11407326848047838 25:0.0 26:0.0 27:0.0 28:0.0 29:0.0 30:0.15 31:0.0 32:0.0 33:0.0 34:0.0 35:0.0 36:0.0 37:0.0 38:0.0 39:0.15 40:0.0 41:0.0 42:0.0 43:0.0 44:0.0 45:0.0 46:0.0 47:0.0 48:0.0 49:0.0 50:0.0 
0.632526643178062 1:0.14184397163120568 2:0.13380281690140844 3:0.0 4:0.0 5:0.0 6:0.0 7:0.0 8:0.0 9:0.1589839247020041 10:0.0 11:0.0 12:0.0 13:0.0 14:0.0 15:0.15 16:0.0 17:0.0 18:0.0 19:0.0 20:0.0 21:0.0 22:0.0 23:0.15 24:0.0 25:0.0 26:0.0 27:0.0 28:0.0 29:0.0 30:0.0 31:0.0 32:0.0 33:0.0 34:0.0 35:0.0 36:0.12352531513417606 37:0.0 38:0.0 39:0.0 40:0.0 41:0.0 42:0.0 43:0.0 44:0.0 45:0.14184397163120568 46:0.0 47:0.0 48:0.0 49:0.0 50:0.0 
1.3536778176197806 1:0.0 2:0.14759653861660657 3:0.0 4:0.0 5:0.0 6:0.0 7:0.0 8:0.0 9:0.0 10:0.15 11:0.0 12:0.0 13:0.0 14:0.0 15:0.0 16:0.0 17:0.13491270121957358 18:0.0 19:0.0 20:0.0 21:0.0 22:0.0 23:0.0 24:0.0 25:0.0 26:0.0 27:0.0 28:0.0 29:0.0 30:0.0 31:0.0 32:0.0 33:0.0 34:0.0 35:0.0 36:0.0 37:0.0 38:0.0 39:0.14184397163120568 40:0.0 41:0.0 42:0.0 43:0.15 44:0.14184397163120568 45:0.0 46:0.0 47:0.0 48:0.0 49:0.13380281690140844 50:0.0 
0.011989357948353712 1:0.14184397163120568 2:0.0 3:0.0 4:0.0 5:0.0 6:0.0 7:0.0 8:0.0 9:0.0 10:0.0 11:0.0 12:0.0 13:0.13380281690140844 14:0.0 15:0.14184397163120568 16:0.0 17:0.0 18:0.0 19:0.0 20:0.0 21:0.0 22:0.0 23:0.0 24:0.0 25:0.0 26:0.0 27:0.0 28:0.0 29:0.14184397163120568 30:0.0 31:0.1258741258741259 32:0.0 33:0.0 34:0.0 35:0.0 36:0.0 37:0.10343726881665641 38:0.0 39:0.0 40:0.0 41:0.0 42:0.0 43:0.0 44:0.14184397163120568 45:0.0 46:0.0 47:0.0 48:0.0 49:0.0 50:0.0 
0.6456396606352203 1:0.0 2:0.0 3:0.0 4:0.0 5:0.0 6:0.14184397163120568 7:0.0 8:0.0 9:0.0 10:0.0 11:0.27564678853261415 12:0.0 13:0.0 14:0.0 15:0.0 16:0.0 17:0.0 18:0.12715813832518977 19:0.28368794326241137 20:0.0 21:0.0 22:0.0 23:0.0 24:0.0 25:0.0 26:0.0 27:0.0 28:0.0 29:0.0 30:0.0 31:0.0 32:0.0 33:0.1258741258741259 34:0.0 35:0.0 36:0.0 37:0.0 38:0.0 39:0.0 40:0.0 41:0.0 42:0.0 43:0.0 44:0.0 45:0.0 46:0.0 47:0.0 48:0.0 49:0.0 50:0.0 
0.4561773032767243 1:0.0 2:0.0 3:0.2918439716312057 4:0.0 5:0.0 6:0.0 7:0.27564678853261415 8:0.0 9:0.0 10:0.0 11:0.0 12:0.0 13:0.0 14:0.0 15:0.0 16:0.0 17:0.0 18:0.0 19:0.0 20:0.0 21:0.14184397163120568 22:0.0 23:0.0 24:0.0 25:0.0 26:0.0 27:0.0 28:0.0 29:0.0 30:0.0 31:0.0 32:0.0 33:0.0 34:0.0 35:0.0 36:0.15827338129496402 37:0.0 38:0.0 39:0.0 40:0.0 41:0.0 42:0.0 43:0.0 44:0.13239188691001053 45:0.0 46:0.0 47:0.0 48:0.0 49:0.0 50:0.0 
0.06711882228983805 1:0.0 2:0.14184397163120568 3:0.0 4:0.0 5:0.0 6:0.14184397163120568 7:0.0 8:0.0 9:0.0 10:0.0 11:0.15 12:0.0 13:0.14184397163120568 14:0.0 15:0.0 16:0.0 17:0.0 18:0.0 19:0.0 20:0.0 21:0.0 22:0.0 23:0.0 24:0.0 25:0.0 26:0.0 27:0.0 28:0.0 29:0.0 30:0.14184397163120568 31:0.0 32:0.0 33:0.0 34:0.0 35:0.0 36:0.0 37:0.0 38:0.0 39:0.0 40:0.0 41:0.0 42:0.0 43:0.0 44:0.15 45:0.09787252083968534 46:0.0 47:0.0 48:0.0 49:0.0 50:0.0 
0.40121203613279033 1:0.0 2:0.0 3:0.13380281690140844 4:0.0 5:0.14184397163120568 6:0.0 7:0.0 8:0.0 9:0.0 10:0.0 11:0.14184397163120568 12:0.0 13:0.16666666666666666 14:0.0 15:0.0 16:0.0 17:0.0 18:0.0 19:0.0 20:0.0 21:0.0 22:0.0 23:0.0 24:0.0 25:0.0 26:0.0 27:0.14184397163120568 28:0.0 29:0.0 30:0.0 31:0.0 32:0.0 33:0.0 34:0.0 35:0.0 36:0.0 37:0.0 38:0.0 39:0.0 40:0.0 41:0.0 42:0.0 43:0.0 44:0.0 45:0.0 46:0.1322046166803089 47:0.0 48:0.0 49:0.0 50:0.14179398485799913 
0.2798311895907504 1:0.0 2:0.0 3:0.0 4:0.15 5:0.0 6:0.0 7:0.0 8:0.0 9:0.0 10:0.0 11:0.14184397163120568 12:0.0 13:0.0 14:0.0 15:0.0 16:0.0 17:0.0 18:0.0 19:0.0 20:0.0 21:0.0 22:0.0 23:0.0 24:0.0 25:0.0 26:0.0 27:0.14184397163120568 28:0.0 29:0.0 30:0.14184397163120568 31:0.11416326088795256 32:0.14184397163120568 33:0.0 34:0.13380281690140844 35:0.0 36:0.0 37:0.0 38:0.0 39:0.0 40:0.0 41:0.0 42:0.0 43:0.0 44:0.0 45:0.0 46:0.0 47:0.0 48:0.0 49:0.0 50:0.0 
0.8094630561273177 1:0.0 2:0.1442474330145991 3:0.0 4:0.0 5:0.0 6:0.0 7:0.13380281690140844 8:0.0 9:0.0 10:0.0 11:0.0 12:0.14184397163120568 13:0.0 14:0.0 15:0.0 16:0.0 17:0.0 18:0.0 19:0.0 20:0.0 21:0.0 22:0.0 23:0.13826180682158115 24:0.0 25:0.0 26:0.0 27:0.0 28:0.0 29:0.0 30:0.15 31:0.0 32:0.0 33:0.0 34:0.15 35:0.0 36:0.0 37:0.0 38:0.0 39:0.0 40:0.0 41:0.0 42:0.0 43:0.14184397163120568 44:0.0 45:0.0 46:0.0 47:0.0 48:0.0 49:0.0 50:0.0 
0.6511986614169691 1:0.0 2:0.0 3:0.0 4:0.0 5:0.0 6:0.0 7:0.0 8:0.0 9:0.0 10:0.0 11:0.0 12:0.0 13:0.0 14:0.0 15:0.0 16:0.14184397163120568 17:0.0 18:0.0 19:0.0 20:0.0 21:0.0 22:0.0 23:0.0 24:0.41666666666666663 25:0.0 26:0.0 27:0.14184397163120568 28:0.0 29:0.0 30:0.0 31:0.0 32:0.0 33:0.0 34:0.0 35:0.15827338129496402 36:0.0 37:0.0 38:0.0 39:0.0 40:0.0 41:0.0 42:0.0 43:0.0 44:0.14137200877595804 45:0.0 46:0.0 47:0.0 48:0.0 49:0.0 50:0.0 
0.40408902718020423 1:0.0 2:0.0 3:0.0 4:0.15 5:0.0 6:0.0 7:0.0 8:0.0 9:0.0 10:0.0 11:0.14184397163120568 12:0.0 13:0.0 14:0.0 15:0.0 16:0.0 17:0.0 18:0.0 19:0.15 20:0.0 21:0.0 22:0.0 23:0.0 24:0.0 25:0.0 26:0.0 27:0.0 28:0.0 29:0.15 30:0.0 31:0.0 32:0.0 33:0.1209531376993668 34:0.0 35:0.0 36:0.0 37:0.0 38:0.0 39:0.14184397163120568 40:0.1258741258741259 41:0.0 42:0.0 43:0.0 44:0.0 45:0.0 46:0.0 47:0.0 48:0.0 49:0.0 50:0.0 
1.3757991877298852 1:0.0 2:0.0 3:0.0 4:0.0 5:0.0 6:0.0 7:0.0 8:0.0 9:0.0 10:0.0 11:0.0 12:0.0 13:0.0 14:0.0 15:0.0 16:0.0 17:0.0 18:0.15 19:0.0 20:0.0 21:0.0 22:0.0 23:0.15 24:0.0 25:0.0 26:0.0 27:0.0 28:0.0 29:0.0 30:0.14184397163120568 31:0.0 32:0.0 33:0.0 34:0.0 35:0.0 36:0.0 37:0.0 38:0.0 39:0.0 40:0.0 41:0.3 42:0.0 43:0.12566060374892515 44:0.0 45:0.1324954246198691 46:0.0 47:0.0 48:0.0 49:0.0 50:0.0 
0.7997391487259582 1:0.0 2:0.0 3:0.1258741258741259 4:0.0 5:0.0 6:0.0 7:0.0 8:0.0 9:0.0 10:0.0 11:0.0 12:0.0 13:0.0 14:0.0 15:0.0 16:0.0 17:0.0 18:0.15 19:0.0 20:0.0 21:0.13380281690140844 22:0.0 23:0.0 24:0.0 25:0.0 26:0.1258741258741259 27:0.13380281690140844 28:0.0 29:0.13380281690140844 30:0.0 31:0.0 32:0.0 33:0.0 34:0.0 35:0.0 36:0.0 37:0.0 38:0.0 39:0.0 40:0.0 41:0.0 42:0.13380281690140844 43:0.0 44:0.0 45:0.0 46:0.0 47:0.0 48:0.0 49:0.0 50:0.0 
0.3530697718425658 1:0.0 2:0.0 3:0.14184397163120568 4:0.0 5:0.0 6:0.0 7:0.11617826558114278 8:0.14184397163120568 9:0.0 10:0.0 11:0.0 12:0.0 13:0.0 14:0.14184397163120568 15:0.0 16:0.0 17:0.0 18:0.0 19:0.0 20:0.0 21:0.0 22:0.0 23:0.0 24:0.0 25:0.0 26:0.0 27:0.15 28:0.0 29:0.0 30:0.0 31:0.0 32:0.0 33:0.0 34:0.15 35:0.0 36:0.15 37:0.0 38:0.0 39:0.0 40:0.0 41:0.0 42:0.0 43:0.0 44:0.0 45:0.0 46:0.0 47:0.0 48:0.0 49:0.0 50:0.0 
0.7121761482035678 1:0.0 2:0.0 3:0.0 4:0.0 5:0.0 6:0.0 7:0.0 8:0.0 9:0.13301728906573412 10:0.15 11:0.0 12:0.0 13:0.0 14:0.0 15:0.15827338129496402 16:0.0 17:0.0 18:0.0 19:0.0 20:0.0 21:0.0 22:0.0 23:0.0 24:0.0 25:0.0 26:0.0 27:0.15 28:0.0 29:0.0 30:0.0 31:0.0 32:0.0 33:0.0 34:0.1258741258741259 35:0.0 36:0.0 37:0.0 38:0.0 39:0.0 40:0.15 41:0.0 42:0.0 43:0.0 44:0.0 45:0.0 46:0.0 47:0.0 48:0.0 49:0.0 50:0.1328352037651759 
1.5180764775901263 1:0.0 2:0.13380281690140844 3:0.0 4:0.0 5:0.0 6:0.0 7:0.0 8:0.0 9:0.0 10:0.0 11:0.15 12:0.0 13:0.0 14:0.0 15:0.0 16:0.0 17:0.0 18:0.0 19:0.0 20:0.0 21:0.0 22:0.0 23:0.0 24:0.0 25:0.0 26:0.0 27:0.0 28:0.0 29:0.0 30:0.0 31:0.0 32:0.0 33:0.14139645162586398 34:0.13380281690140844 35:0.0 36:0.0 37:0.0 38:0.0 39:0.0 40:0.0 41:0.14184397163120568 42:0.0 43:0.0 44:0.0 45:0.0 46:0.0 47:0.0 48:0.0 49:0.15 50:0.14184397163120568 
0.4568038958251951 1:0.0 2:0.0 3:0.0 4:0.0 5:0.0 6:0.0 7:0.0 8:0.0 9:0.0 10:0.0 11:0.0 12:0.0 13:0.0 14:0.0 15:0.0 16:0.0 17:0.22985775615816098 18:0.0 19:0.0 20:0.0 21:0.0 22:0.0 23:0.0 24:0.0 25:0.0 26:0.0 27:0.0 28:0.0 29:0.0 30:0.1781809192844636 31:0.15827338129496402 32:0.0 33:0.0 34:0.0 35:0.0 36:0.0 37:0.0 38:0.0 39:0.14184397163120568 40:0.0 41:0.0 42:0.0 43:0.14184397163120568 44:0.0 45:0.0 46:0.0 47:0.0 48:0.15 49:0.0 50:0.0 
0.761949247242398 1:0.0 2:0.0 3:0.0 4:0.0 5:0.0 6:0.0 7:0.1589289650338788 8:0.0 9:0.0 10:0.0 11:0.0 12:0.0 13:0.09071642503704325 14:0.0 15:0.2918439716312057 16:0.0 17:0.15 18:0.0 19:0.0 20:0.0 21:0.0 22:0.0 23:0.0 24:0.0 25:0.0 26:0.0 27:0.0 28:0.0 29:0.0 30:0.0 31:0.0 32:0.0 33:0.0 34:0.0 35:0.0 36:0.0 37:0.0 38:0.0 39:0.0 40:0.0 41:0.0 42:0.0 43:0.0 44:0.30851063829787234 45:0.0 46:0.0 47:0.0 48:0.0 49:0.0 50:0.0 
0.781340263672563 1:0.14184397163120568 2:0.0 3:0.1258741258741259 4:0.0 5:0.0 6:0.0 7:0.0 8:0.0 9:0.0 10:0.0 11:0.0 12:0.0 13:0.0 14:0.0 15:0.15 16:0.0 17:0.13380281690140844 18:0.0 19:0.0 20:0.0 21:0.0 22:0.11805555555555555 23:0.0 24:0.0 25:0.0 26:0.14184397163120568 27:0.0 28:0.15 29:0.0 30:0.0 31:0.0 32:0.0 33:0.0 34:0.0 35:0.0 36:0.0 37:0.0 38:0.0 39:0.0 40:0.0 41:0.0 42:0.0 43:0.0 44:0.0 45:0.0 46:0.0 47:0.0 48:0.0 49:0.0 50:0.0 
0.9594199831829783 1:0.0 2:0.0 3:0.11585249283091001 4:0.0 5:0.1258741258741259 6:0.0 7:0.0 8:0.0 9:0.0 10:0.0 11:0.0 12:0.15 13:0.0 14:0.0 15:0.0 16:0.0 17:0.0 18:0.0 19:0.0 20:0.0 21:0.0 22:0.0 23:0.0 24:0.0 25:0.0 26:0.0 27:0.0 28:0.0 29:0.15 30:0.0 31:0.0 32:0.0 33:0.0 34:0.0 35:0.15827338129496402 36:0.0 37:0.0 38:0.0 39:0.15 40:0.0 41:0.0 42:0.0 43:0.0 44:0.15 45:0.0 46:0.0 47:0.0 48:0.0 49:0.0 50:0.0 
0.8205756433434324 1:0.0 2:0.0 3:0.0 4:0.0 5:0.0 6:0.0 7:0.14184397163120568 8:0.0 9:0.15827338129496402 10:0.0 11:0.0 12:0.0 13:0.14184397163120568 14:0.0 15:0.0 16:0.0 17:0.0 18:0.0 19:0.0 20:0.0 21:0.0 22:0.0 23:0.14184397163120568 24:0.15 25:0.0 26:0.0 27:0.0 28:0.0 29:0.0 30:0.0 31:0.0 32:0.0 33:0.0 34:0.0 35:0.0 36:0.0 37:0.08342194251515145 38:0.0 39:0.0 40:0.0 41:0.0 42:0.0 43:0.0 44:0.13380281690140844 45:0.0 46:0.0 47:0.0 48:0.0 49:0.0 50:0.0 
0.7203633441564086 1:0.0 2:0.0 3:0.0 4:0.0 5:0.0 6:0.0 7:0.0 8:0.0 9:0.0 10:0.0 11:0.0 12:0.0 13:0.0 14:0.0 15:0.0 16:0.0 17:0.0 18:0.0 19:0.06581382942516192 20:0.0 21:0.0 22:0.0 23:0.0 24:0.0 25:0.0 26:0.0 27:0.0 28:0.0 29:0.0 30:0.0 31:0.0 32:0.0 33:0.0 34:0.14184397163120568 35:0.0 36:0.2838028169014084 37:0.06657805748484855 38:0.0 39:0.0 40:0.0 41:0.15827338129496402 42:0.14184397163120568 43:0.0 44:0.14184397163120568 45:0.0 46:0.0 47:0.0 48:0.0 49:0.0 50:0.0 
0.051651126368800204 1:0.0 2:0.0 3:0.0 4:0.0 5:0.0 6:0.0 7:0.0 8:0.0 9:0.0 10:0.0 11:0.0 12:0.0 13:0.0 14:0.0 15:0.14184397163120568 16:0.0 17:0.0 18:0.0 19:0.13380281690140844 20:0.0 21:0.0 22:0.0 23:0.0 24:0.0 25:0.0 26:0.14184397163120568 27:0.0 28:0.0 29:0.0 30:0.0 31:0.14184397163120568 32:0.0 33:0.0 34:0.0 35:0.0 36:0.0 37:0.14184397163120568 38:0.0 39:0.0 40:0.0 41:0.0 42:0.1278347372268344 43:0.0 44:0.0 45:0.0 46:0.0 47:0.0 48:0.13380281690140844 49:0.0 50:0.0 
0.3425840203452613 1:0.0 2:0.0 3:0.0 4:0.0 5:0.0 6:0.0 7:0.15827338129496402 8:0.0 9:0.0 10:0.0 11:0.2945423827179535 12:0.0 13:0.0 14:0.0 15:0.0 16:0.0 17:0.1053402643558767 18:0.14184397163120568 19:0.0 20:0.0 21:0.0 22:0.0 23:0.0 24:0.0 25:0.0 26:0.0 27:0.0 28:0.0 29:0.0 30:0.0 31:0.0 32:0.0 33:0.0 34:0.0 35:0.0 36:0.15 37:0.0 38:0.15 39:0.0 40:0.0 41:0.0 42:0.0 43:0.0 44:0.0 45:0.0 46:0.0 47:0.0 48:0.0 49:0.0 50:0.0 
0.7093169142271218 1:0.0 2:0.0 3:0.0 4:0.13380281690140844 5:0.0 6:0.0 7:0.0 8:0.0 9:0.0 10:0.0 11:0.0 12:0.0 13:0.0 14:0.0 15:0.0 16:0.0 17:0.0 18:0.0 19:0.0 20:0.0 21:0.0 22:0.0 23:0.0 24:0.0 25:0.0 26:0.0 27:0.0 28:0.0 29:0.2838028169014084 30:0.0 31:0.0 32:0.15 33:0.0 34:0.0 35:0.0 36:0.15 37:0.0 38:0.0 39:0.0 40:0.0 41:0.0 42:0.0 43:0.0 44:0.14854156252256803 45:0.0 46:0.0 47:0.0 48:0.0 49:0.0 50:0.133852803674615 
0.46261034476723895 1:0.0 2:0.15 3:0.0 4:0.12080909771516599 5:0.0 6:0.0 7:0.0 8:0.0 9:0.0 10:0.0 11:0.0 12:0.0 13:0.0 14:0.0 15:0.0 16:0.0 17:0.14184397163120568 18:0.0 19:0.0 20:0.0 21:0.0 22:0.0 23:0.2841475071690899 24:0.0 25:0.0 26:0.0 27:0.0 28:0.13380281690140844 29:0.0 30:0.0 31:0.0 32:0.0 33:0.0 34:0.14184397163120568 35:0.0 36:0.0 37:0.0 38:0.0 39:0.0 40:0.0 41:0.0 42:0.0 43:0.0 44:0.0 45:0.0 46:0.0 47:0.0 48:0.0 49:0.0 50:0.0 
1.0017586672464676 1:0.0 2:0.0 3:0.15827338129496402 4:0.0 5:0.0 6:0.0 7:0.0 8:0.0 9:0.0 10:0.0 11:0.0 12:0.0 13:0.0 14:0.0 15:0.0 16:0.0 17:0.0 18:0.0 19:0.15 20:0.118131232777306 21:0.0 22:0.0 23:0.0 24:0.0 25:0.0 26:0.0 27:0.0 28:0.12359538592772992 29:0.0 30:0.15 31:0.0 32:0.0 33:0.0 34:0.0 35:0.0 36:0.0 37:0.15 38:0.0 39:0.15 40:0.0 41:0.0 42:0.0 43:0.0 44:0.0 45:0.0 46:0.0 47:0.0 48:0.0 49:0.0 50:0.0 
1.2427360352652534 1:0.0 2:0.0 3:0.0 4:0.0 5:0.0 6:0.14184397163120568 7:0.0 8:0.0 9:0.0 10:0.0 11:0.0 12:0.0 13:0.0 14:0.0 15:0.0 16:0.13380281690140844 17:0.0 18:0.0 19:0.0 20:0.0 21:0.0 22:0.0 23:0.0 24:0.0 25:0.1258741258741259 26:0.0 27:0.13380281690140844 28:0.15 29:0.0 30:0.0 31:0.0 32:0.14184397163120568 33:0.0 34:0.0 35:0.0 36:0.0 37:0.0 38:0.0 39:0.0 40:0.0 41:0.0 42:0.0 43:0.0 44:0.0 45:0.0 46:0.0 47:0.0 48:0.0 49:0.0 50:0.11429133667928143 
0.30410422603560244 1:0.0 2:0.0 3:0.14184397163120568 4:0.0 5:0.0 6:0.0 7:0.0 8:0.0 9:0.0 10:0.0 11:0.0 12:0.0 13:0.0 14:0.0 15:0.0 16:0.0 17:0.0 18:0.0 19:0.0 20:0.0 21:0.0 22:0.0 23:0.0 24:0.0 25:0.0 26:0.14184397163120568 27:0.0 28:0.15 29:0.0 30:0.0 31:0.0 32:0.0 33:0.0 34:0.0 35:0.0 36:0.0 37:0.0 38:0.0 39:0.0 40:0.0 41:0.0 42:0.0 43:0.0 44:0.14184397163120568 45:0.14882129657376883 46:0.0 47:0.0 48:0.0 49:0.14184397163120568 50:0.13380281690140844 
0.29635871990324325 1:0.0 2:0.0 3:0.09589964345871316 4:0.13380281690140844 5:0.0 6:0.08486134462921527 7:0.0 8:0.0 9:0.14184397163120568 10:0.0 11:0.0 12:0.0 13:0.0 14:0.0 15:0.0 16:0.0 17:0.0 18:0.0 19:0.1258741258741259 20:0.0 21:0.0 22:0.0 23:0.0 24:0.0 25:0.0 26:0.0 27:0.0 28:0.0 29:0.0 30:0.0 31:0.0 32:0.0 33:0.0 34:0.0 35:0.0 36:0.0 37:0.0 38:0.0 39:0.0 40:0.0 41:0.0 42:0.14184397163120568 43:0.0 44:0.0 45:0.0 46:0.15 47:0.0 48:0.0 49:0.1258741258741259 50:0.0 
1.3633090673015784 1:0.15 2:0.0 3:0.0 4:0.0 5:0.0 6:0.0 7:0.0 8:0.0 9:0.0 10:0.0 11:0.14184397163120568 12:0.0 13:0.0 14:0.0 15:0.0 16:0.0 17:0.0 18:0.0 19:0.0 20:0.0 21:0.0 22:0.0 23:0.0 24:0.0 25:0.0 26:0.0 27:0.10699376317283926 28:0.15827338129496402 29:0.0 30:0.0 31:0.0 32:0.14184397163120568 33:0.0 34:0.0 35:0.0 36:0.15 37:0.0 38:0.0 39:0.0 40:0.0 41:0.15 42:0.0 43:0.0 44:0.0 45:0.0 46:0.0 47:0.0 48:0.0 49:0.0 50:0.0 
1.366105567484926 1:0.0 2:0.0 3:0.14184397163120568 4:0.0 5:0.0 6:0.0 7:0.0 8:0.0 9:0.15 10:0.0 11:0.0 12:0.0 13:0.0 14:0.0 15:0.0 16:0.0 17:0.0 18:0.0 19:0.0 20:0.0 21:0.0 22:0.0 23:0.0 24:0.2385413155193638 25:0.0 26:0.0 27:0.0 28:0.0 29:0.0 30:0.0 31:0.0 32:0.0 33:0.0 34:0.0 35:0.0 36:0.16831865649702962 37:0.0 38:0.0 39:0.0 40:0.0 41:0.15 42:0.0 43:0.0 44:0.0 45:0.0 46:0.14184397163120568 47:0.0 48:0.0 49:0.0 50:0.0 
0.38736975844253807 1:0.0 2:0.0 3:0.0 4:0.0 5:0.0 6:0.0 7:0.14184397163120568 8:0.0 9:0.0 10:0.0 11:0.0 12:0.0 13:0.14184397163120568 14:0.0 15:0.15 16:0.0 17:0.0 18:0.0 19:0.0 20:0.0 21:0.0 22:0.0 23:0.0 24:0.0 25:0.0 26:0.0 27:0.0 28:0.0 29:0.0 30:0.0 31:0.0 32:0.0 33:0.0 34:0.0 35:0.0 36:0.0 37:0.0 38:0.0 39:0.14184397163120568 40:0.13380281690140844 41:0.14184397163120568 42:0.0 43:0.0 44:0.0 45:0.0 46:0.0 47:0.0 48:0.0 49:0.12675175921569898 50:0.0 
0.5905758168323254 1:0.0 2:0.0 3:0.0 4:0.0 5:0.14184397163120568 6:0.0 7:0.15827338129496402 8:0.0 9:0.0 10:0.0 11:0.0 12:0.0 13:0.0 14:0.0 15:0.0 16:0.0 17:0.14184397163120568 18:0.0 19:0.0 20:0.0 21:0.0 22:0.0 23:0.0 24:0.0 25:0.0 26:0.0 27:0.0 28:0.0 29:0.0 30:0.13380281690140844 31:0.0 32:0.0 33:0.0 34:0.0 35:0.0 36:0.11852329505613321 37:0.0 38:0.0 39:0.0 40:0.0 41:0.0 42:0.0 43:0.0 44:0.0 45:0.0 46:0.0 47:0.0 48:0.14184397163120568 49:0.0 50:0.14184397163120568 
0.8803330876118443 1:0.0 2:0.0 3:0.0 4:0.0 5:0.0 6:0.15827338129496402 7:0.0 8:0.0 9:0.1752560922292299 10:0.0 11:0.0 12:0.0 13:0.0 14:0.0 15:0.0 16:0.0 17:0.0 18:0.0 19:0.14184397163120568 20:0.15827338129496402 21:0.0 22:0.0 23:0.0 24:0.0 25:0.0 26:0.0 27:0.0 28:0.0 29:0.0 30:0.0 31:0.0 32:0.0 33:0.0 34:0.0 35:0.0 36:0.14184397163120568 37:0.0 38:0.1258741258741259 39:0.0 40:0.0 41:0.0 42:0.08202836141600742 43:0.0 44:0.0 45:0.0 46:0.0 47:0.0 48:0.0 49:0.0 50:0.0 
0.40895061611636 1:0.0 2:0.0 3:0.0 4:0.0 5:0.0 6:0.0 7:0.0 8:0.0 9:0.0 10:0.0 11:0.0 12:0.0 13:0.0 14:0.0 15:0.0 16:0.0 17:0.0 18:0.0 19:0.0 20:0.0 21:0.0 22:0.0 23:0.0 24:0.14386873211732343 25:0.0 26:0.0 27:0.0 28:0.0 29:0.15 30:0.0 31:0.0 32:0.0 33:0.0 34:0.13380281690140844 35:0.0 36:0.0 37:0.13380281690140844 38:0.0 39:0.0 40:0.0 41:0.0 42:0.0 43:0.0 44:0.0 45:0.14184397163120568 46:0.14184397163120568 47:0.0 48:0.0 49:0.13380281690140844 50:0.0 
1.2014075498038634 1:0.0 2:0.0 3:0.0 4:0.0 5:0.0 6:0.0 7:0.0 8:0.0 9:0.0 10:0.14184397163120568 11:0.0 12:0.0 13:0.0 14:0.0 15:0.0 16:0.06594355972880342 17:0.2918439716312057 18:0.15827338129496402 19:0.0 20:0.0 21:0.0 22:0.0 23:0.0 24:0.3 25:0.0 26:0.0 27:0.0 28:0.0 29:0.0 30:0.0 31:0.0 32:0.0 33:0.0 34:0.0 35:0.0 36:0.0 37:0.0 38:0.0 39:0.0 40:0.0 41:0.0 42:0.0 43:0.0 44:0.0 45:0.0 46:0.0 47:0.0 48:0.0 49:0.0 50:0.0 
0.5351381463184733 1:0.0 2:0.0 3:0.0 4:0.0 5:0.06337893979850132 6:0.0 7:0.15 8:0.0 9:0.0 10:0.0 11:0.0 12:0.0 13:0.0 14:0.0 15:0.14184397163120568 16:0.0 17:0.0 18:0.0 19:0.0 20:0.0 21:0.0 22:0.0 23:0.0 24:0.0 25:0.0 26:0.0 27:0.0 28:0.14184397163120568 29:0.0 30:0.0 31:0.15 32:0.0 33:0.0 34:0.0 35:0.0 36:0.0 37:0.0 38:0.0 39:0.0 40:0.0 41:0.0 42:0.15 43:0.0 44:0.15827338129496402 45:0.0 46:0.0 47:0.0 48:0.0 49:0.0 50:0.0 
0.7597296650402743 1:0.0 2:0.0 3:0.0 4:0.0 5:0.0 6:0.0 7:0.0 8:0.0 9:0.0 10:0.0 11:0.15 12:0.0 13:0.0 14:0.0 15:0.0 16:0.0 17:0.0 18:0.0 19:0.0 20:0.0 21:0.0 22:0.0 23:0.0 24:0.2918439716312057 25:0.0 26:0.0 27:0.0 28:0.15827338129496402 29:0.0 30:0.0 31:0.0 32:0.0 33:0.0 34:0.0 35:0.0 36:0.15 37:0.0 38:0.0 39:0.0 40:0.0 41:0.0 42:0.16666666666666666 43:0.0 44:0.0 45:0.0 46:0.0 47:0.0 48:0.0 49:0.0 50:0.0 
0.7600270383980823 1:0.0 2:0.0 3:0.0 4:0.0 5:0.0 6:0.14184397163120568 7:0.0 8:0.0 9:0.0 10:0.12361534560914758 11:0.0 12:0.0 13:0.0 14:0.0 15:0.14184397163120568 16:0.0 17:0.0 18:0.15 19:0.0 20:0.0 21:0.0 22:0.0 23:0.0 24:0.0 25:0.0 26:0.0 27:0.14184397163120568 28:0.0 29:0.0 30:0.14184397163120568 31:0.15 32:0.0 33:0.0 34:0.0 35:0.0 36:0.0 37:0.0 38:0.0 39:0.0 40:0.0 41:0.0 42:0.0 43:0.0 44:0.0 45:0.0 46:0.0 47:0.0 48:0.0 49:0.0 50:0.0 
1.509767775053937 1:0.0 2:0.0 3:0.0 4:0.0 5:0.0 6:0.0 7:0.0 8:0.0 9:0.0 10:0.13380281690140844 11:0.0 12:0.0 13:0.13380281690140844 14:0.0 15:0.13380281690140844 16:0.0 17:0.0 18:0.0 19:0.0 20:0.0 21:0.0 22:0.13380281690140844 23:0.0 24:0.0 25:0.0 26:0.0 27:0.0 28:0.0 29:0.0 30:0.0 31:0.0 32:0.15 33:0.0 34:0.0 35:0.0 36:0.0 37:0.15 38:0.0 39:0.0 40:0.0 41:0.0 42:0.0 43:0.0 44:0.0 45:0.0 46:0.12404725215907281 47:0.0 48:0.0 49:0.0 50:0.0 
0.7994786390524503 1:0.0 2:0.0 3:0.0 4:0.1258741258741259 5:0.0 6:0.0 7:0.0 8:0.0 9:0.0 10:0.15 11:0.2061368866496275 12:0.0 13:0.0 14:0.0 15:0.0 16:0.0 17:0.0 18:0.0 19:0.0 20:0.0 21:0.0 22:0.15 23:0.0 24:0.0 25:0.0 26:0.0 27:0.0 28:0.0 29:0.0 30:0.15 31:0.0 32:0.13380281690140844 33:0.0 34:0.0 35:0.0 36:0.0 37:0.0 38:0.0 39:0.0 40:0.0 41:0.0 42:0.0 43:0.0 44:0.0 45:0.0 46:0.0 47:0.0 48:0.0 49:0.0 50:0.0 
0.8531107527094757 1:0.0 2:0.0 3:0.0 4:0.0 5:0.0 6:0.0 7:0.0 8:0.0 9:0.0 10:0.15 11:0.0 12:0.0 13:0.0 14:0.0 15:0.0 16:0.0 17:0.0 18:0.0 19:0.0 20:0.15 21:0.0 22:0.0 23:0.0 24:0.13380281690140844 25:0.0 26:0.0 27:0.14184397163120568 28:0.0 29:0.0 30:0.0 31:0.0 32:0.0 33:0.0 34:0.0 35:0.0 36:0.0 37:0.0 38:0.0 39:0.2838028169014084 40:0.0 41:0.0 42:0.09381785951234844 43:0.0 44:0.0 45:0.0 46:0.0 47:0.0 48:0.0 49:0.0 50:0.0 
2.9018514551903185 1:0.0 2:0.0 3:0.0 4:0.0 5:0.0 6:0.0 7:0.0 8:0.0 9:0.0 10:0.0 11:0.0 12:0.1340564402711966 13:0.0 14:0.0 15:0.0 16:0.0 17:0.0 18:0.0 19:0.0 20:0.0 21:0.0 22:0.0 23:0.0 24:0.15827338129496402 25:0.0 26:0.0 27:0.0 28:0.0 29:0.0 30:0.0 31:0.0 32:0.15 33:0.0 34:0.0 35:0.308273381294964 36:0.0 37:0.0 38:0.0 39:0.0 40:0.0 41:0.0 42:0.0 43:0.0 44:0.0 45:0.0 46:0.15827338129496402 47:0.0 48:0.0 49:0.0 50:0.0 
0.49487618098513436 1:0.1258741258741259 2:0.0 3:0.0 4:0.0 5:0.0 6:0.0 7:0.0 8:0.0 9:0.0 10:0.0 11:0.0 12:0.0 13:0.0 14:0.14184397163120568 15:0.0 16:0.0 17:0.2918439716312057 18:0.0 19:0.0 20:0.0 21:0.0 22:0.0 23:0.0 24:0.0 25:0.0 26:0.0 27:0.0 28:0.0 29:0.14184397163120568 30:0.0 31:0.0 32:0.0 33:0.0 34:0.1407198527242195 35:0.0 36:0.0 37:0.0 38:0.0 39:0.0 40:0.0 41:0.0 42:0.0 43:0.15 44:0.0 45:0.0 46:0.0 47:0.0 48:0.0 49:0.0 50:0.0 
0.9127901619964363 1:0.0 2:0.0 3:0.0 4:0.0 5:0.0 6:0.07589530960126462 7:0.0 8:0.0 9:0.0 10:0.0 11:0.0 12:0.0 13:0.0 14:0.0 15:0.0 16:0.0 17:0.0 18:0.0 19:0.0 20:0.0 21:0.0 22:0.0 23:0.0 24:0.0 25:0.0 26:0.0 27:0.0 28:0.14184397163120568 29:0.0 30:0.0 31:0.0 32:0.0 33:0.0 34:0.0 35:0.0 36:0.0 37:0.15827338129496402 38:0.0 39:0.0 40:0.0 41:0.0 42:0.0 43:0.15827338129496402 44:0.0 45:0.308273381294964 46:0.0 47:0.0 48:0.0 49:0.0 50:0.15744057488263766 
3.630591575907128 1:0.0 2:0.0 3:0.0 4:0.0 5:0.0 6:0.0 7:0.0 8:0.0 9:0.13669087297830548 10:0.15 11:0.0 12:0.0 13:0.0 14:0.0 15:0.0 16:0.0 17:0.0 18:0.0 19:0.0 20:0.0 21:0.0 22:0.0 23:0.0 24:0.0 25:0.0 26:0.0 27:0.0 28:0.0 29:0.0 30:0.0 31:0.0 32:0.0 33:0.0 34:0.0 35:0.0 36:0.0 37:0.0 38:0.0 39:0.15 40:0.0 41:0.16666666666666666 42:0.0 43:0.08836907906006372 44:0.0 45:0.0 46:0.15827338129496402 47:0.0 48:0.0 49:0.0 50:0.15 
2.018424348847481 1:0.0 2:0.0 3:0.0 4:0.0 5:0.0 6:0.0 7:0.0 8:0.0 9:0.0 10:0.0 11:0.0 12:0.15827338129496402 13:0.0 14:0.0 15:0.0 16:0.0 17:0.0 18:0.0 19:0.1258741258741259 20:0.15827338129496402 21:0.0 22:0.0 23:0.0 24:0.0 25:0.15 26:0.0 27:0.0 28:0.0 29:0.0 30:0.0 31:0.0 32:0.0 33:0.0 34:0.0 35:0.0 36:0.0 37:0.0 38:0.0 39:0.14184397163120568 40:0.0 41:0.15827338129496402 42:0.0 43:0.0 44:0.0 45:0.0 46:0.0 47:0.0 48:0.0 49:0.0 50:0.0 
0.42072019670088734 1:0.0 2:0.0 3:0.0 4:0.0 5:0.0 6:0.1032674649463711 7:0.0 8:0.0 9:0.0 10:0.0 11:0.0 12:0.0 13:0.0 14:0.0 15:0.0 16:0.0 17:0.0 18:0.0 19:0.0 20:0.0 21:0.0 22:0.0 23:0.0 24:0.0 25:0.0 26:0.1258741258741259 27:0.15827338129496402 28:0.14184397163120568 29:0.0 30:0.0 31:0.0 32:0.0 33:0.0 34:0.14184397163120568 35:0.0 36:0.15 37:0.0 38:0.0 39:0.0 40:0.0 41:0.0 42:0.0 43:0.0 44:0.14184397163120568 45:0.0 46:0.0 47:0.0 48:0.0 49:0.0 50:0.0 
1.3670186440632024 1:0.0 2:0.14184397163120568 3:0.0 4:0.0 5:0.0 6:0.0 7:0.15 8:0.0 9:0.0 10:0.0 11:0.0 12:0.0 13:0.0 14:0.0 15:0.0 16:0.0 17:0.0 18:0.0 19:0.0 20:0.0 21:0.0 22:0.13380281690140844 23:0.0 24:0.0 25:0.0 26:0.0 27:0.0 28:0.0 29:0.13380281690140844 30:0.0 31:0.0 32:0.0 33:0.0 34:0.0 35:0.0 36:0.0 37:0.0 38:0.0 39:0.0 40:0.0 41:0.0 42:0.0 43:0.15827338129496402 44:0.0 45:0.0 46:0.15827338129496402 47:0.0 48:0.0 49:0.0 50:0.0 
0.9687096215257587 1:0.0 2:0.15 3:0.0 4:0.0 5:0.0 6:0.14184397163120568 7:0.0 8:0.0 9:0.0 10:0.0 11:0.0 12:0.12235917846710961 13:0.0 14:0.0 15:0.14184397163120568 16:0.0 17:0.0 18:0.0 19:0.0 20:0.0 21:0.0 22:0.0 23:0.0 24:0.0 25:0.0 26:0.0 27:0.0 28:0.0 29:0.0 30:0.0 31:0.0 32:0.0 33:0.0 34:0.0 35:0.0 36:0.15 37:0.0 38:0.0 39:0.0 40:0.0 41:0.0 42:0.14184397163120568 43:0.0 44:0.0 45:0.0 46:0.0 47:0.0 48:0.14184397163120568 49:0.0 50:0.0 
0.6131629206407063 1:0.0 2:0.0 3:0.0 4:0.0 5:0.0 6:0.0 7:0.0 8:0.0 9:0.0 10:0.0 11:0.13380281690140844 12:0.15 13:0.0 14:0.0 15:0.15827338129496402 16:0.0 17:0.0 18:0.0 19:0.0 20:0.0 21:0.0 22:0.0 23:0.0 24:0.0 25:0.0 26:0.0 27:0.0 28:0.0 29:0.0 30:0.0 31:0.14184397163120568 32:0.0 33:0.0 34:0.11306936380748264 35:0.0 36:0.0 37:0.0 38:0.14184397163120568 39:0.13380281690140844 40:0.0 41:0.0 42:0.0 43:0.0 44:0.0 45:0.0 46:0.0 47:0.0 48:0.0 49:0.0 50:0.0 
0.03662715209279704 1:0.0 2:0.0 3:0.0 4:0.0 5:0.0 6:0.14184397163120568 7:0.0 8:0.0 9:0.0 10:0.0 11:0.0 12:0.0 13:0.0 14:0.0 15:0.13380281690140844 16:0.0 17:0.0 18:0.0 19:0.0 20:0.0 21:0.0 22:0.0 23:0.0 24:0.0 25:0.0 26:0.0 27:0.0 28:0.0 29:0.14184397163120568 30:0.13380281690140844 31:0.0 32:0.0 33:0.0 34:0.0 35:0.0 36:0.0 37:0.15 38:0.0 39:0.0 40:0.0 41:0.0 42:0.0 43:0.0 44:0.0 45:0.13380281690140844 46:0.0 47:0.0 48:0.13503369491040215 49:0.0 50:0.0 
1.0322398456156088 1:0.0 2:0.0 3:0.0 4:0.0 5:0.0 6:0.0 7:0.14184397163120568 8:0.0 9:0.0 10:0.0 11:0.15 12:0.0 13:0.0 14:0.0 15:0.0 16:0.0 17:0.0 18:0.10346979027000427 19:0.0 20:0.0 21:0.0 22:0.0 23:0.15456888517262038 24:0.0 25:0.0 26:0.0 27:0.0 28:0.0 29:0.0 30:0.0 31:0.0 32:0.0 33:0.0 34:0.0 35:0.0 36:0.0 37:0.0 38:0.0 39:0.0 40:0.0 41:0.308273381294964 42:0.0 43:0.14184397163120568 44:0.0 45:0.0 46:0.0 47:0.0 48:0.0 49:0.0 50:0.0 
0.7359670939752684 1:0.0 2:0.0 3:0.0 4:0.0 5:0.0 6:0.0 7:0.0 8:0.0 9:0.0 10:0.0 11:0.0 12:0.0 13:0.2269255567127908 14:0.0 15:0.0 16:0.0 17:0.13380281690140844 18:0.0 19:0.0 20:0.0 21:0.0 22:0.0 23:0.0 24:0.0 25:0.0 26:0.14184397163120568 27:0.0 28:0.0 29:0.0 30:0.0 31:0.0 32:0.0 33:0.15 34:0.0 35:0.0 36:0.0 37:0.0 38:0.0 39:0.15 40:0.0 41:0.0 42:0.0 43:0.14184397163120568 44:0.0 45:0.0 46:0.0 47:0.0 48:0.0 49:0.0 50:0.0 
-1.023262124676239 1:0.0 2:0.0 3:0.0 4:0.0 5:0.0 6:0.0 7:0.0 8:0.0 9:0.0 10:0.17518248175182483 11:0.0 12:0.0 13:0.0 14:0.0 15:0.0 16:0.0 17:0.0 18:0.17518248175182483 19:0.0 20:0.0 21:0.0 22:0.0 23:0.0 24:0.0 25:0.0 26:0.0 27:0.0 28:0.0 29:0.0 30:0.0 31:0.0 32:0.0 33:0.0 34:0.0 35:0.0 36:0.0 37:0.0 38:0.0 39:0.0 40:0.0 41:0.18382352941176472 42:0.0 43:0.1207381998931445 44:0.0 45:0.0 46:0.17518248175182483 47:0.0 48:0.0 49:0.0 50:0.16666666666666666 
-0.046582501582153005 1:0.0 2:0.0 3:0.15 4:0.0 5:0.0 6:0.0 7:0.0 8:0.0 9:0.0 10:0.0 11:0.0 12:0.16666666666666666 13:0.0 14:0.0 15:0.0 16:0.0 17:0.0 18:0.0 19:0.0 20:0.12861156057199769 21:0.0 22:0.0 23:0.0 24:0.0 25:0.0 26:0.0 27:0.0 28:0.17518248175182483 29:0.0 30:0.0 31:0.0 32:0.0 33:0.0 34:0.0 35:0.0 36:0.0 37:0.0 38:0.0 39:0.0 40:0.0 41:0.18382352941176472 42:0.0 43:0.15 44:0.0 45:0.0 46:0.04571576159774601 47:0.0 48:0.0 49:0.0 50:0.0 
-0.962885573402353 1:0.0 2:0.0 3:0.0 4:0.0 5:0.0 6:0.0 7:0.0 8:0.0 9:0.0 10:0.15050184549925757 11:0.0 12:0.0 13:0.0 14:0.0 15:0.0 16:0.0 17:0.0 18:0.16666666666666666 19:0.0 20:0.0 21:0.0 22:0.0 23:0.0 24:0.0 25:0.0 26:0.0 27:0.0 28:0.15827338129496402 29:0.15827338129496402 30:0.15827338129496402 31:0.0 32:0.0 33:0.0 34:0.0 35:0.0 36:0.0 37:0.0 38:0.0 39:0.0 40:0.0 41:0.15827338129496402 42:0.0 43:0.0 44:0.0 45:0.0 46:0.0 47:0.0 48:0.0 49:0.0 50:0.04973796265421959 
-0.30076625263769646 1:0.0 2:0.0 3:0.0 4:0.0 5:0.0 6:0.0 7:0.0 8:0.14248823464543423 9:0.0 10:0.0 11:0.0 12:0.0 13:0.0 14:0.0 15:0.0 16:0.0 17:0.0 18:0.0 19:0.0 20:0.2322119306765712 21:0.0 22:0.0 23:0.0 24:0.0 25:0.0 26:0.0 27:0.0 28:0.14184397163120568 29:0.0 30:0.0 31:0.0 32:0.0 33:0.0 34:0.0 35:0.0 36:0.0 37:0.15 38:0.0 39:0.0 40:0.0 41:0.17518248175182483 42:0.0 43:0.0 44:0.0 45:0.0 46:0.15827338129496402 47:0.0 48:0.0 49:0.0 50:0.0 
-0.6570694023534018 1:0.0 2:0.16666666666666666 3:0.0 4:0.0 5:0.0 6:0.0 7:0.0 8:0.0 9:0.15827338129496402 10:0.0 11:0.0 12:0.0 13:0.0 14:0.15 15:0.0 16:0.0 17:0.0 18:0.16666666666666666 19:0.0 20:0.0 21:0.0 22:0.0 23:0.0 24:0.0 25:0.0 26:0.0 27:0.0 28:0.0 29:0.0 30:0.0 31:0.0 32:0.09845905741351102 33:0.0 34:0.0 35:0.0 36:0.09326756129152505 37:0.0 38:0.0 39:0.0 40:0.0 41:0.0 42:0.0 43:0.16666666666666666 44:0.0 45:0.0 46:0.0 47:0.0 48:0.0 49:0.0 50:0.0 
-1.1888360069494863 1:0.0 2:0.0 3:0.0 4:0.0 5:0.0 6:0.0 7:0.0 8:0.0 9:0.0 10:0.0 11:0.0 12:0.31666666666666665 13:0.0 14:0.0 15:0.0 16:0.0 17:0.0 18:0.0 19:0.0 20:0.0 21:0.0 22:0.0 23:0.0 24:0.0 25:0.0 26:0.0 27:0.0 28:0.0 29:0.0 30:0.0 31:0.0 32:0.0 33:0.0 34:0.0 35:0.16182236419187554 36:0.0 37:0.0 38:0.0 39:0.0 40:0.15827338129496402 41:0.0 42:0.0 43:0.16666666666666666 44:0.15 45:0.0 46:0.0 47:0.0 48:0.0 49:0.0 50:0.0 
-0.674416193623046 1:0.0 2:0.16666666666666666 3:0.0 4:0.0 5:0.0 6:0.0 7:0.0 8:0.0 9:0.0 10:0.0 11:0.0 12:0.16666666666666666 13:0.0 14:0.0 15:0.16666666666666666 16:0.0 17:0.0 18:0.0 19:0.0 20:0.16666666666666666 21:0.0 22:0.0 23:0.0 24:0.0 25:0.0 26:0.0 27:0.0 28:0.0 29:0.0 30:0.0 31:0.0 32:0.0 33:0.0 34:0.0 35:0.0 36:0.12731175001382575 37:0.0 38:0.0 39:0.0 40:0.0 41:0.0 42:0.0 43:0.0 44:0.17518248175182483 45:0.0 46:0.0 47:0.0 48:0.0 49:0.0 50:0.0 
-1.4982475264092974 1:0.0 2:0.0 3:0.0 4:0.0 5:0.0 6:0.0 7:0.0 8:0.0 9:0.0 10:0.14184397163120568 11:0.0 12:0.15827338129496402 13:0.0 14:0.0 15:0.0 16:0.0 17:0.0 18:0.0 19:0.0 20:0.0 21:0.0 22:0.0 23:0.0 24:0.0 25:0.0 26:0.0 27:0.0 28:0.06638422011633488 29:0.0 30:0.0 31:0.0 32:0.15 33:0.0 34:0.0 35:0.0 36:0.0 37:0.15827338129496402 38:0.0 39:0.0 40:0.0 41:0.0 42:0.0 43:0.0 44:0.0 45:0.15827338129496402 46:0.0 47:0.0 48:0.0 49:0.0 50:0.15 
-0.9656492163289295 1:0.0 2:0.0 3:0.0 4:0.0 5:0.0 6:0.0 7:0.15827338129496402 8:0.0 9:0.0 10:0.0 11:0.0 12:0.0 13:0.0 14:0.0 15:0.0 16:0.0 17:0.0 18:0.0 19:0.0 20:0.0 21:0.0 22:0.0 23:0.0 24:0.0 25:0.0 26:0.0 27:0.0 28:0.0 29:0.0 30:0.0 31:0.0 32:0.19172661870503607 33:0.0 34:0.0 35:0.16666666666666666 36:0.16666666666666666 37:0.0 38:0.15 39:0.0 40:0.0 41:0.0 42:0.0 43:0.0 44:0.0 45:0.0 46:0.16666666666666666 47:0.0 48:0.0 49:0.0 50:0.0 
-0.3765122960435072 1:0.0 2:0.0 3:0.0 4:0.0 5:0.0 6:0.0 7:0.0 8:0.0 9:0.0 10:0.0 11:0.0 12:0.0 13:0.0 14:0.0 15:0.0 16:0.0 17:0.0 18:0.0 19:0.0 20:0.0 21:0.0 22:0.0 23:0.0 24:0.0 25:0.0 26:0.0 27:0.0 28:0.17518248175182483 29:0.0 30:0.0 31:0.15827338129496402 32:0.0 33:0.0 34:0.0 35:0.18382352941176472 36:0.0 37:0.0 38:0.0 39:0.0 40:0.0 41:0.17518248175182483 42:0.0 43:0.16666666666666666 44:0.0 45:0.0 46:0.1381077678140187 47:0.0 48:0.0 49:0.0 50:0.0 
-1.3548541433065229 1:0.0 2:0.0 3:0.0 4:0.0 5:0.0 6:0.15 7:0.0 8:0.0 9:0.0 10:0.0 11:0.16666666666666666 12:0.0 13:0.0 14:0.0 15:0.0 16:0.0 17:0.0 18:0.19164313069333352 19:0.0 20:0.0 21:0.0 22:0.0 23:0.0 24:0.0 25:0.0 26:0.0 27:0.0 28:0.0 29:0.0 30:0.0 31:0.0 32:0.14184397163120568 33:0.0 34:0.0 35:0.3333333333333333 36:0.0 37:0.0 38:0.0 39:0.0 40:0.0 41:0.0 42:0.0 43:0.0 44:0.0 45:0.0 46:0.0 47:0.0 48:0.0 49:0.0 50:0.0 
-2.171743729388442 1:0.0 2:0.0 3:0.0 4:0.0 5:0.0 6:0.0 7:0.15 8:0.0 9:0.0 10:0.0 11:0.0 12:0.15 13:0.08555756740633594 14:0.0 15:0.0 16:0.0 17:0.0 18:0.0 19:0.0 20:0.0 21:0.0 22:0.0 23:0.0 24:0.15 25:0.0 26:0.0 27:0.0 28:0.0 29:0.0 30:0.0 31:0.0 32:0.0 33:0.0 34:0.0 35:0.0 36:0.16666666666666666 37:0.0 38:0.0 39:0.15 40:0.0 41:0.0 42:0.0 43:0.0 44:0.0 45:0.0 46:0.1477757659269974 47:0.0 48:0.0 49:0.0 50:0.0 
-1.5372231446475662 1:0.0 2:0.0 3:0.0 4:0.0 5:0.0 6:0.0 7:0.0 8:0.0 9:0.0 10:0.14971829831114788 11:0.13861945254080218 12:0.0 13:0.0 14:0.0 15:0.15827338129496402 16:0.0 17:0.0 18:0.05338886785308594 19:0.0 20:0.0 21:0.0 22:0.0 23:0.0 24:0.0 25:0.0 26:0.0 27:0.0 28:0.16666666666666666 29:0.0 30:0.0 31:0.0 32:0.0 33:0.0 34:0.0 35:0.0 36:0.0 37:0.16666666666666666 38:0.0 39:0.0 40:0.0 41:0.0 42:0.0 43:0.0 44:0.0 45:0.0 46:0.16666666666666666 47:0.0 48:0.0 49:0.0 50:0.0 
-1.1760384928022833 1:0.0 2:0.0 3:0.0 4:0.0 5:0.0 6:0.0 7:0.0 8:0.0 9:0.17518248175182483 10:0.0 11:0.0 12:0.0 13:0.0 14:0.0 15:0.0 16:0.0 17:0.0 18:0.0 19:0.0 20:0.0 21:0.0 22:0.0 23:0.0 24:0.13582756509898375 25:0.0 26:0.0 27:0.0 28:0.17195832297887517 29:0.0 30:0.0 31:0.0 32:0.16666666666666666 33:0.0 34:0.0 35:0.17518248175182483 36:0.0 37:0.17518248175182483 38:0.0 39:0.0 40:0.0 41:0.0 42:0.0 43:0.0 44:0.0 45:0.0 46:0.0 47:0.0 48:0.0 49:0.0 50:0.0 
-0.781696124477704 1:0.0 2:0.0 3:0.0 4:0.15827338129496402 5:0.0 6:0.0 7:0.0 8:0.0 9:0.0 10:0.0 11:0.0 12:0.0 13:0.0 14:0.0 15:0.15827338129496402 16:0.0 17:0.0 18:0.0 19:0.0 20:0.1 21:0.0 22:0.0 23:0.0 24:0.0 25:0.0 26:0.0 27:0.0 28:0.0 29:0.0 30:0.0 31:0.0 32:0.0 33:0.0 34:0.0 35:0.17518248175182483 36:0.0 37:0.0 38:0.0 39:0.0 40:0.0 41:0.17518248175182483 42:0.15827338129496402 43:0.0 44:0.0 45:0.0 46:0.0719984623585628 47:0.0 48:0.0 49:0.0 50:0.0 
-0.31220916358200584 1:0.0 2:0.3 3:0.0 4:0.0 5:0.0 6:0.0 7:0.15 8:0.0 9:0.0 10:0.0 11:0.0 12:0.15 13:0.0 14:0.0 15:0.0 16:0.0 17:0.0 18:0.16666666666666666 19:0.0 20:0.0 21:0.0 22:0.0 23:0.0 24:0.0 25:0.0 26:0.0 27:0.0 28:0.0 29:0.0 30:0.0 31:0.0 32:0.0 33:0.15827338129496402 34:0.0 35:0.0 36:0.0 37:0.0 38:0.0 39:0.0 40:0.0 41:0.05433673047084986 42:0.0 43:0.0 44:0.0 45:0.0 46:0.0 47:0.0 48:0.0 49:0.0 50:0.0 
-0.6853911448376231 1:0.0 2:0.0 3:0.0 4:0.0 5:0.0 6:0.0 7:0.0 8:0.0 9:0.0 10:0.0 11:0.0 12:0.0 13:0.0 14:0.0 15:0.0 16:0.0 17:0.0 18:0.0 19:0.0 20:0.0 21:0.0 22:0.0 23:0.0 24:0.0 25:0.0 26:0.0 27:0.16666666666666666 28:0.0 29:0.0 30:0.0 31:0.0 32:0.0 33:0.0 34:0.0 35:0.24624683523604438 36:0.0 37:0.0 38:0.0 39:0.0 40:0.0 41:0.26214645013565835 42:0.0 43:0.0 44:0.0 45:0.0 46:0.16666666666666666 47:0.0 48:0.0 49:0.0 50:0.15827338129496402 
-1.4195034413298933 1:0.0 2:0.0 3:0.0 4:0.0 5:0.0 6:0.0 7:0.0 8:0.0 9:0.0 10:0.17518248175182483 11:0.15827338129496402 12:0.0 13:0.0 14:0.0 15:0.15827338129496402 16:0.0 17:0.0 18:0.0 19:0.0 20:0.0 21:0.0 22:0.0 23:0.0 24:0.0 25:0.0 26:0.0 27:0.0 28:0.0 29:0.0 30:0.0 31:0.0 32:0.15 33:0.0 34:0.0 35:0.0 36:0.0 37:0.0 38:0.0 39:0.0 40:0.0 41:0.15827338129496402 42:0.0 43:0.15827338129496402 44:0.0 45:0.0 46:0.0 47:0.0 48:0.0 49:0.0 50:0.0 
-1.2325007747304375 1:0.0 2:0.31654676258992803 3:0.0 4:0.0 5:0.0 6:0.0 7:0.0 8:0.0 9:0.0 10:0.0 11:0.0 12:0.1340977983688925 13:0.0 14:0.0 15:0.0 16:0.0 17:0.0 18:0.0 19:0.0 20:0.0 21:0.0 22:0.0 23:0.0 24:0.15827338129496402 25:0.0 26:0.0 27:0.0 28:0.0 29:0.0 30:0.0 31:0.0 32:0.0 33:0.07441539107954875 34:0.0 35:0.0 36:0.0 37:0.0 38:0.0 39:0.0 40:0.0 41:0.0 42:0.0 43:0.16666666666666666 44:0.0 45:0.15 46:0.0 47:0.0 48:0.0 49:0.0 50:0.0 
-0.22337256589710433 1:0.0 2:0.0 3:0.0 4:0.0 5:0.0 6:0.0 7:0.0 8:0.0 9:0.0 10:0.0 11:0.0 12:0.17518248175182483 13:0.0 14:0.0 15:0.0 16:0.0 17:0.0 18:0.0 19:0.0 20:0.35900601116358954 21:0.0 22:0.0 23:0.0 24:0.0 25:0.0 26:0.0 27:0.0 28:0.17518248175182483 29:0.0 30:0.0 31:0.0 32:0.18382352941176472 33:0.0 34:0.0 35:0.0 36:0.0 37:0.0 38:0.0 39:0.0 40:0.0 41:0.0 42:0.0 43:0.0 44:0.0 45:0.0 46:0.0 47:0.0 48:0.0 49:0.0 50:0.0 
-0.9806021326840781 1:0.0 2:0.0 3:0.0 4:0.0 5:0.0 6:0.0 7:0.0 8:0.0 9:0.0 10:0.0 11:0.0 12:0.0 13:0.0 14:0.0 15:0.0 16:0.0 17:0.07511629427279576 18:0.29225135007326586 19:0.0 20:0.0 21:0.0 22:0.0 23:0.0 24:0.16666666666666666 25:0.0 26:0.0 27:0.0 28:0.0 29:0.0 30:0.0 31:0.0 32:0.0 33:0.0 34:0.0 35:0.15827338129496402 36:0.0 37:0.0 38:0.0 39:0.0 40:0.0 41:0.0 42:0.0 43:0.3076923076923077 44:0.0 45:0.0 46:0.0 47:0.0 48:0.0 49:0.0 50:0.0 
-0.6690132279628268 1:0.0 2:0.0 3:0.0 4:0.0 5:0.0 6:0.0 7:0.0 8:0.0 9:0.0 10:0.0 11:0.0 12:0.02732156392428145 13:0.0 14:0.0 15:0.0 16:0.0 17:0.0 18:0.0 19:0.0 20:0.0 21:0.0 22:0.0 23:0.0 24:0.0 25:0.0 26:0.0 27:0.0 28:0.0 29:0.1549102135374092 30:0.0 31:0.0 32:0.0 33:0.23076923076923078 34:0.0 35:0.3076923076923077 36:0.0 37:0.0 38:0.0 39:0.0 40:0.0 41:0.1037539103232534 42:0.0 43:0.0 44:0.0 45:0.13458638719889549 46:0.0 47:0.0 48:0.0 49:0.0 50:0.0 
-1.0447045948896654 1:0.0 2:0.0 3:0.0 4:0.0 5:0.0 6:0.0 7:0.0 8:0.0 9:0.0 10:0.0 11:0.0 12:0.11739873295359382 13:0.0 14:0.0 15:0.0 16:0.0 17:0.0 18:0.0 19:0.15827338129496402 20:0.34184914841849146 21:0.0 22:0.0 23:0.0 24:0.0 25:0.0 26:0.0 27:0.0 28:0.0 29:0.0 30:0.15827338129496402 31:0.0 32:0.0 33:0.0 34:0.0 35:0.0 36:0.0 37:0.0 38:0.0 39:0.0 40:0.0 41:0.0 42:0.0 43:0.0 44:0.0 45:0.0 46:0.17518248175182483 47:0.0 48:0.0 49:0.0 50:0.0 
-0.5989340789168067 1:0.0 2:0.0 3:0.0 4:0.0 5:0.0 6:0.0 7:0.0 8:0.0 9:0.0 10:0.0 11:0.0 12:0.0 13:0.0 14:0.0 15:0.0 16:0.0 17:0.0 18:0.0 19:0.0 20:0.1925925925925926 21:0.0 22:0.0 23:0.0 24:0.0 25:0.0 26:0.0 27:0.0 28:0.0 29:0.0 30:0.0 31:0.0 32:0.0 33:0.1420456279738657 34:0.16666666666666666 35:0.0 36:0.17518248175182483 37:0.0 38:0.0 39:0.0 40:0.0 41:0.13968910160328554 42:0.0 43:0.18382352941176472 44:0.0 45:0.0 46:0.0 47:0.0 48:0.0 49:0.0 50:0.0 
-0.3719169562422474 1:0.0 2:0.3249400479616307 3:0.0 4:0.0 5:0.0 6:0.0 7:0.0 8:0.0 9:0.0 10:0.0 11:0.0 12:0.15827338129496402 13:0.0 14:0.0 15:0.0 16:0.15 17:0.0 18:0.1416902026399998 19:0.0 20:0.0 21:0.0 22:0.0 23:0.0 24:0.0 25:0.0 26:0.0 27:0.0 28:0.0 29:0.0 30:0.0 31:0.0 32:0.0 33:0.14184397163120568 34:0.0 35:0.0 36:0.0 37:0.0 38:0.0 39:0.0 40:0.0 41:0.0 42:0.0 43:0.0 44:0.0 45:0.0 46:0.0 47:0.0 48:0.0 49:0.0 50:0.0 
-0.5484450299857998 1:0.0 2:0.0 3:0.0 4:0.0 5:0.0 6:0.0 7:0.16666666666666666 8:0.0 9:0.10823074289810955 10:0.0 11:0.0 12:0.15 13:0.0 14:0.0 15:0.15827338129496402 16:0.0 17:0.0 18:0.0 19:0.0 20:0.15827338129496402 21:0.0 22:0.0 23:0.0 24:0.0 25:0.0 26:0.0 27:0.0 28:0.09188916117862914 29:0.0 30:0.0 31:0.0 32:0.0 33:0.0 34:0.0 35:0.0 36:0.0 37:0.0 38:0.0 39:0.0 40:0.0 41:0.16666666666666666 42:0.0 43:0.0 44:0.0 45:0.0 46:0.0 47:0.0 48:0.0 49:0.0 50:0.0 
-0.6800666302950809 1:0.0 2:0.0 3:0.0 4:0.0 5:0.0 6:0.0 7:0.0 8:0.0 9:0.0 10:0.0 11:0.0 12:0.0 13:0.15 14:0.0 15:0.0 16:0.0 17:0.1390854571095551 18:0.16666666666666666 19:0.0 20:0.16666666666666666 21:0.0 22:0.0 23:0.0 24:0.0 25:0.0 26:0.0 27:0.0 28:0.0 29:0.0 30:0.0 31:0.0 32:0.0 33:0.3333333333333333 34:0.0 35:0.0 36:0.0 37:0.0 38:0.0 39:0.0 40:0.0 41:0.0 42:0.0 43:0.0 44:0.0 45:0.0 46:0.0 47:0.0 48:0.0 49:0.0 50:0.0 
-1.6273384393909989 1:0.0 2:0.0 3:0.0 4:0.0 5:0.0603018170985582 6:0.0 7:0.0 8:0.0 9:0.16666666666666666 10:0.0 11:0.0 12:0.16666666666666666 13:0.0 14:0.0 15:0.16666666666666666 16:0.0 17:0.0 18:0.0 19:0.0 20:0.0 21:0.0 22:0.0 23:0.0 24:0.0 25:0.0 26:0.0 27:0.0 28:0.0 29:0.0 30:0.0 31:0.0 32:0.0 33:0.0 34:0.0 35:0.0 36:0.0 37:0.0 38:0.0 39:0.0 40:0.0 41:0.0 42:0.0 43:0.0 44:0.16666666666666666 45:0.0 46:0.0 47:0.0 48:0.08853427895981084 49:0.0 50:0.15827338129496402 
-2.035679712031875 1:0.0 2:0.0 3:0.15 4:0.0 5:0.09090909090909091 6:0.0 7:0.0 8:0.0 9:0.18181818181818182 10:0.02670245191826487 11:0.0 12:0.0 13:0.0 14:0.0 15:0.0 16:0.0 17:0.0 18:0.15919170087729637 19:0.0 20:0.0 21:0.0 22:0.0 23:0.0 24:0.0 25:0.0 26:0.0 27:0.09090909090909091 28:0.0 29:0.0 30:0.13380281690140844 31:0.0 32:0.0 33:0.0 34:0.0 35:0.0 36:0.0 37:0.0 38:0.0 39:0.16666666666666666 40:0.0 41:0.0 42:0.0 43:0.0 44:0.0 45:0.0 46:0.0 47:0.0 48:0.0 49:0.0 50:0.0 
-1.0738920816262447 1:0.0 2:0.0 3:0.0 4:0.0 5:0.0 6:0.0 7:0.0 8:0.0 9:0.0 10:0.15827338129496402 11:0.0 12:0.0 13:0.0 14:0.0 15:0.0 16:0.0 17:0.0 18:0.0 19:0.0 20:0.0 21:0.0 22:0.0 23:0.0 24:0.0 25:0.0 26:0.15827338129496402 27:0.0 28:0.0 29:0.0 30:0.0 31:0.0 32:0.0 33:0.15 34:0.0 35:0.0 36:0.15827338129496402 37:0.0 38:0.0 39:0.0 40:0.0 41:0.16666666666666666 42:0.0 43:0.0 44:0.0 45:0.0 46:0.0 47:0.0 48:0.0 49:0.0 50:0.15 
-0.9935775435629287 1:0.0 2:0.0 3:0.0 4:0.0 5:0.0 6:0.0 7:0.0 8:0.0 9:0.0 10:0.0 11:0.0 12:0.0 13:0.0 14:0.0 15:0.308273381294964 16:0.0 17:0.0 18:0.0 19:0.0 20:0.15 21:0.0 22:0.0 23:0.0 24:0.13293863615796966 25:0.0 26:0.0 27:0.0 28:0.0 29:0.0 30:0.0 31:0.0 32:0.0 33:0.0 34:0.0 35:0.2505146012521022 36:0.0 37:0.0 38:0.0 39:0.0 40:0.0 41:0.0 42:0.0 43:0.0 44:0.0 45:0.0 46:0.15827338129496402 47:0.0 48:0.0 49:0.0 50:0.0 
-1.1627773977502742 1:0.0 2:0.14184397163120568 3:0.0 4:0.0 5:0.0 6:0.0 7:0.0 8:0.0 9:0.15827338129496402 10:0.0 11:0.14184397163120568 12:0.0 13:0.0 14:0.0 15:0.0 16:0.0 17:0.0 18:0.10933669813232164 19:0.0 20:0.0 21:0.0 22:0.0 23:0.0 24:0.0 25:0.0 26:0.0 27:0.0 28:0.15827338129496402 29:0.0 30:0.0 31:0.0 32:0.0 33:0.0 34:0.0 35:0.0 36:0.0 37:0.0 38:0.0 39:0.0 40:0.0 41:0.0 42:0.0 43:0.0 44:0.13215521472037492 45:0.0 46:0.0 47:0.0 48:0.0 49:0.0 50:0.15827338129496402 
-1.9612969210754565 1:0.0 2:0.0 3:0.0 4:0.0 5:0.0 6:0.0 7:0.0 8:0.0 9:0.0 10:0.0 11:0.0 12:0.0 13:0.0 14:0.0 15:0.0 16:0.0 17:0.15 18:0.0 19:0.0 20:0.0 21:0.0 22:0.0 23:0.0 24:0.0 25:0.0 26:0.0 27:0.0 28:0.19256281127836458 29:0.0 30:0.0 31:0.0 32:0.0 33:0.0 34:0.15827338129496402 35:0.0 36:0.0 37:0.0 38:0.0 39:0.0 40:0.0 41:0.0 42:0.0 43:0.15827338129496402 44:0.15827338129496402 45:0.0 46:0.15827338129496402 47:0.0 48:0.0 49:0.0 50:0.0 
-1.1841062363180184 1:0.0 2:0.0 3:0.0 4:0.0 5:0.0 6:0.0 7:0.0 8:0.0 9:0.0 10:0.0 11:0.15 12:0.0 13:0.0 14:0.0 15:0.0 16:0.0 17:0.0 18:0.0 19:0.0 20:0.0 21:0.0 22:0.0 23:0.0 24:0.0 25:0.0 26:0.0 27:0.0 28:0.0 29:0.0 30:0.0 31:0.0 32:0.0 33:0.15827338129496402 34:0.0 35:0.0 36:0.0 37:0.0 38:0.0 39:0.0 40:0.0 41:0.0 42:0.0 43:0.3249400479616307 44:0.0 45:0.0 46:0.0 47:0.14184397163120568 48:0.0 49:0.0 50:0.15 
-1.5127562267099413 1:0.0 2:0.0 3:0.0 4:0.0 5:0.0 6:0.0 7:0.0 8:0.0 9:0.0 10:0.0 11:0.0 12:0.0 13:0.15827338129496402 14:0.0 15:0.0 16:0.0 17:0.0 18:0.16666666666666666 19:0.0 20:0.0 21:0.0 22:0.0 23:0.0 24:0.0 25:0.0 26:0.0 27:0.0 28:0.0 29:0.0 30:0.0 31:0.0 32:0.3249400479616307 33:0.0 34:0.0 35:0.0 36:0.0 37:0.0 38:0.0 39:0.0 40:0.0 41:0.0 42:0.0 43:0.0 44:0.13245181331619646 45:0.0 46:0.2176680907605422 47:0.0 48:0.0 49:0.0 50:0.0 
-0.42565688381552286 1:0.0 2:0.0 3:0.0 4:0.0 5:0.0 6:0.0 7:0.16666666666666666 8:0.0 9:0.0 10:0.0 11:0.0 12:0.0 13:0.0 14:0.0 15:0.0 16:0.0 17:0.0 18:0.0 19:0.0 20:0.35900601116358954 21:0.0 22:0.0 23:0.16666666666666666 24:0.0 25:0.0 26:0.0 27:0.0 28:0.0 29:0.0 30:0.0 31:0.0 32:0.0 33:0.17518248175182483 34:0.0 35:0.08720902781074447 36:0.0 37:0.0 38:0.0 39:0.0 40:0.0 41:0.0 42:0.0 43:0.0 44:0.0 45:0.0 46:0.0 47:0.0 48:0.0 49:0.0 50:0.0 
-0.5759729395159511 1:0.0 2:0.0 3:0.0 4:0.0 5:0.0 6:0.0 7:0.0 8:0.0 9:0.0 10:0.0 11:0.0 12:0.16666666666666666 13:0.0 14:0.0 15:0.0 16:0.0 17:0.0 18:0.0 19:0.0 20:0.0 21:0.0 22:0.0 23:0.15 24:0.0 25:0.0 26:0.0 27:0.0 28:0.0 29:0.0 30:0.0 31:0.0 32:0.0 33:0.22558460892045124 34:0.0 35:0.29108205774621543 36:0.0 37:0.0 38:0.0 39:0.0 40:0.0 41:0.0 42:0.0 43:0.16666666666666666 44:0.0 45:0.0 46:0.0 47:0.0 48:0.0 49:0.0 50:0.0 
-0.840389325205819 1:0.0 2:0.0 3:0.0 4:0.0 5:0.0 6:0.0 7:0.15827338129496402 8:0.0 9:0.0 10:0.0 11:0.0 12:0.0 13:0.0 14:0.0 15:0.0 16:0.0 17:0.0 18:0.0 19:0.0 20:0.0 21:0.0 22:0.0 23:0.0 24:0.0 25:0.0 26:0.0 27:0.0 28:0.0 29:0.0 30:0.0 31:0.0 32:0.0 33:0.0 34:0.0 35:0.18406230309661983 36:0.17518248175182483 37:0.0 38:0.0 39:0.0 40:0.0 41:0.0 42:0.0 43:0.15827338129496402 44:0.0 45:0.0 46:0.31654676258992803 47:0.0 48:0.0 49:0.0 50:0.0 
-2.2083143511220045 1:0.0 2:0.0 3:0.0 4:0.0 5:0.0 6:0.0 7:0.0 8:0.0 9:0.16422435844018687 10:0.18382352941176472 11:0.0 12:0.0 13:0.0 14:0.0 15:0.0 16:0.0 17:0.0 18:0.0 19:0.0 20:0.0 21:0.0 22:0.0 23:0.0 24:0.0 25:0.0 26:0.0 27:0.0 28:0.0 29:0.0 30:0.0 31:0.0 32:0.0 33:0.0 34:0.0 35:0.0 36:0.0 37:0.0 38:0.0 39:0.15827338129496402 40:0.0 41:0.29999999999999993 42:0.0 43:0.17518248175182483 44:0.0 45:0.0 46:0.0 47:0.0 48:0.0 49:0.0 50:0.0 
-2.047974100982469 1:0.0 2:0.15 3:0.0 4:0.0 5:0.0 6:0.0 7:0.0 8:0.0 9:0.0 10:0.0 11:0.0 12:0.0 13:0.0 14:0.14184397163120568 15:0.15 16:0.0 17:0.0 18:0.0 19:0.15 20:0.0 21:0.0 22:0.0 23:0.0 24:0.0 25:0.0 26:0.0 27:0.0 28:0.0 29:0.0 30:0.0 31:0.0 32:0.15 33:0.0 34:0.0 35:0.0 36:0.10339535591092322 37:0.0 38:0.0 39:0.0 40:0.0 41:0.0 42:0.0 43:0.0 44:0.15 45:0.0 46:0.0 47:0.0 48:0.0 49:0.0 50:0.0 
-1.7024229509440167 1:0.0 2:0.0 3:0.0 4:0.0 5:0.0 6:0.15827338129496402 7:0.0 8:0.0 9:0.0 10:0.0 11:0.0 12:0.0 13:0.0 14:0.0 15:0.0 16:0.0 17:0.16666666666666666 18:0.0 19:0.0 20:0.0 21:0.0 22:0.0 23:0.0 24:0.0 25:0.15 26:0.0 27:0.0 28:0.0 29:0.0 30:0.0 31:0.0 32:0.0 33:0.0 34:0.0 35:0.0 36:0.0 37:0.0 38:0.0 39:0.0 40:0.0 41:0.0 42:0.0 43:0.0 44:0.0 45:0.0 46:0.15827338129496402 47:0.0 48:0.0 49:0.0 50:0.3 
-2.0768667485178 1:0.0 2:0.17518248175182483 3:0.15 4:0.0 5:0.0 6:0.0 7:0.0 8:0.0 9:0.0 10:0.0 11:0.0 12:0.0 13:0.0 14:0.0 15:0.0 16:0.0 17:0.2754616322901078 18:0.0 19:0.0 20:0.0 21:0.0 22:0.14184397163120568 23:0.0 24:0.0 25:0.0 26:0.0 27:0.0 28:0.09084524766019494 29:0.0 30:0.0 31:0.0 32:0.0 33:0.0 34:0.0 35:0.0 36:0.0 37:0.0 38:0.0 39:0.16666666666666666 40:0.0 41:0.0 42:0.0 43:0.0 44:0.0 45:0.0 46:0.0 47:0.0 48:0.0 49:0.0 50:0.0 
-1.0690636596531842 1:0.0 2:0.0 3:0.0 4:0.0 5:0.0 6:0.0 7:0.0 8:0.0 9:0.0 10:0.0 11:0.0 12:0.0 13:0.0 14:0.0 15:0.29132434256411355 16:0.0 17:0.0 18:0.0 19:0.0 20:0.14184397163120568 21:0.0 22:0.0 23:0.0 24:0.15827338129496402 25:0.0 26:0.0 27:0.0 28:0.0 29:0.0 30:0.0 31:0.0 32:0.0 33:0.0 34:0.0 35:0.0 36:0.0 37:0.0 38:0.0 39:0.0 40:0.0 41:0.0 42:0.0 43:0.16712783619258434 44:0.15827338129496402 45:0.0 46:0.0 47:0.0 48:0.0 49:0.0 50:0.0 
-1.3197529109277355 1:0.0 2:0.0 3:0.0 4:0.0 5:0.0 6:0.0 7:0.0 8:0.0 9:0.0 10:0.0 11:0.0 12:0.0 13:0.0 14:0.0 15:0.0 16:0.0 17:0.0 18:0.09559138632063804 19:0.0 20:0.0 21:0.0 22:0.0 23:0.0 24:0.3 25:0.0 26:0.0 27:0.0 28:0.0 29:0.0 30:0.0 31:0.0 32:0.0 33:0.21654676258992803 34:0.15 35:0.0 36:0.0 37:0.0 38:0.0 39:0.0 40:0.0 41:0.0 42:0.14184397163120568 43:0.0 44:0.0 45:0.0 46:0.0 47:0.0 48:0.0 49:0.0 50:0.0 
-0.21622337314295828 1:0.0 2:0.15827338129496402 3:0.0 4:0.0 5:0.0 6:0.0 7:0.0 8:0.0 9:0.0 10:0.16666666666666666 11:0.0 12:0.0 13:0.0 14:0.0 15:0.0 16:0.0 17:0.0 18:0.15 19:0.0 20:0.0 21:0.0 22:0.0 23:0.0 24:0.0 25:0.0 26:0.0 27:0.0 28:0.17518248175182483 29:0.0 30:0.0 31:0.0 32:0.2080334986553388 33:0.0 34:0.0 35:0.0 36:0.0 37:0.14184397163120568 38:0.0 39:0.0 40:0.0 41:0.0 42:0.0 43:0.0 44:0.0 45:0.0 46:0.0 47:0.0 48:0.0 49:0.0 50:0.0 
-0.03725104845428394 1:0.0 2:0.0 3:0.0 4:0.0 5:0.0 6:0.0 7:0.0 8:0.0 9:0.0 10:0.0 11:0.0 12:0.0 13:0.0 14:0.0 15:0.0 16:0.0 17:0.0 18:0.16666666666666666 19:0.0 20:0.18382352941176472 21:0.0 22:0.0 23:0.0 24:0.0 25:0.0 26:0.0 27:0.0 28:0.0 29:0.0 30:0.0 31:0.0 32:0.0 33:0.2120173977196186 34:0.0 35:0.08363904236596381 36:0.0 37:0.0 38:0.0 39:0.0 40:0.0 41:0.0 42:0.0 43:0.35049019607843135 44:0.0 45:0.0 46:0.0 47:0.0 48:0.0 49:0.0 50:0.0 
-0.7480150486024281 1:0.0 2:0.15827338129496402 3:0.0 4:0.0 5:0.0 6:0.0 7:0.0 8:0.0 9:0.0 10:0.0 11:0.0 12:0.22543183520815702 13:0.15 14:0.0 15:0.0 16:0.0 17:0.0 18:0.16666666666666666 19:0.0 20:0.0 21:0.0 22:0.0 23:0.0 24:0.0 25:0.0 26:0.0 27:0.0 28:0.0 29:0.0 30:0.0 31:0.0 32:0.15 33:0.0 34:0.0 35:0.0 36:0.0 37:0.0 38:0.0 39:0.0 40:0.0 41:0.0 42:0.0 43:0.0 44:0.0 45:0.0 46:0.0 47:0.0 48:0.0 49:0.0 50:0.1496281168302123 
-1.5548024835969774 1:0.0 2:0.0 3:0.0 4:0.0 5:0.0 6:0.0 7:0.0 8:0.0 9:0.0 10:0.13157092937669915 11:0.0 12:0.0 13:0.0 14:0.0 15:0.0 16:0.0 17:0.0 18:0.15827338129496402 19:0.14184397163120568 20:0.0 21:0.0 22:0.0 23:0.0 24:0.0 25:0.0 26:0.0 27:0.0 28:0.0 29:0.0 30:0.0 31:0.0 32:0.15 33:0.0 34:0.0 35:0.0 36:0.0 37:0.0 38:0.0 39:0.0 40:0.0 41:0.16666666666666666 42:0.15827338129496402 43:0.0 44:0.0 45:0.09337166973550051 46:0.0 47:0.0 48:0.0 49:0.0 50:0.0 
-0.9647227808501758 1:0.0 2:0.0 3:0.0 4:0.0 5:0.0 6:0.0 7:0.0 8:0.0 9:0.0 10:0.0 11:0.0 12:0.15827338129496402 13:0.0 14:0.0 15:0.09949560335017354 16:0.0 17:0.0 18:0.0 19:0.0 20:0.0 21:0.0 22:0.0 23:0.0 24:0.0 25:0.0 26:0.0 27:0.0 28:0.0 29:0.0 30:0.15827338129496402 31:0.0 32:0.15827338129496402 33:0.14184397163120568 34:0.0 35:0.0 36:0.0 37:0.0 38:0.0 39:0.0 40:0.0 41:0.0 42:0.0 43:0.0 44:0.13384028113372873 45:0.0 46:0.0 47:0.0 48:0.0 49:0.0 50:0.15 
-0.15127263025862803 1:0.0 2:0.0 3:0.0 4:0.0 5:0.0 6:0.0 7:0.0 8:0.0 9:0.0 10:0.0 11:0.0 12:0.21428571428571427 13:0.0 14:0.0 15:0.0 16:0.0 17:0.0 18:0.0 19:0.0 20:0.14285714285714285 21:0.0 22:0.0 23:0.0 24:0.0 25:0.0 26:0.15827338129496402 27:0.0 28:0.17518248175182483 29:0.0 30:0.0 31:0.0 32:0.0 33:0.07142857142857142 34:0.0 35:0.14285714285714285 36:0.0 37:0.0 38:0.0 39:0.0 40:0.0 41:0.07142857142857142 42:0.0 43:0.0 44:0.0 45:0.0 46:0.0 47:0.0 48:0.0 49:0.0 50:0.0 
-0.25935559857348495 1:0.0 2:0.0 3:0.0 4:0.0 5:0.0 6:0.0 7:0.15827338129496402 8:0.0 9:0.0 10:0.0 11:0.0 12:0.16666666666666666 13:0.0 14:0.0 15:0.0 16:0.0 17:0.0 18:0.0 19:0.0 20:0.0 21:0.0 22:0.0 23:0.0 24:0.0 25:0.0 26:0.0 27:0.0 28:0.0 29:0.0 30:0.0 31:0.0 32:0.0 33:0.0 34:0.0 35:0.16666666666666666 36:0.0 37:0.0 38:0.0 39:0.0 40:0.0 41:0.13385739432623175 42:0.0 43:0.0 44:0.0 45:0.0 46:0.16666666666666666 47:0.0 48:0.0 49:0.0 50:0.15827338129496402 
-0.27640368181427066 1:0.0 2:0.0 3:0.0 4:0.0 5:0.0 6:0.0 7:0.0 8:0.0 9:0.0 10:0.0 11:0.0 12:0.0 13:0.0 14:0.0 15:0.0 16:0.0 17:0.0 18:0.16666666666666666 19:0.0 20:0.35049019607843135 21:0.0 22:0.0 23:0.0 24:0.0 25:0.0 26:0.0 27:0.0 28:0.0 29:0.0 30:0.0 31:0.0 32:0.0 33:0.0 34:0.0 35:0.16666666666666666 36:0.08191492046029977 37:0.0 38:0.0 39:0.0 40:0.0 41:0.0 42:0.0 43:0.0 44:0.0 45:0.0 46:0.0 47:0.0 48:0.0 49:0.0 50:0.2342615501279356 
-0.8219513250883201 1:0.0 2:0.0 3:0.0 4:0.0 5:0.0 6:0.0 7:0.0 8:0.0 9:0.15827338129496402 10:0.0 11:0.0 12:0.0 13:0.0 14:0.0 15:0.15 16:0.0 17:0.0 18:0.0 19:0.0 20:0.0 21:0.0 22:0.0 23:0.0 24:0.0 25:0.0 26:0.0 27:0.0 28:0.15827338129496402 29:0.0 30:0.0 31:0.0 32:0.0 33:0.15 34:0.14184397163120568 35:0.0 36:0.0 37:0.0 38:0.0 39:0.0 40:0.0 41:0.0 42:0.0 43:0.0 44:0.15 45:0.0 46:0.0 47:0.0 48:0.0 49:0.0 50:0.0 
-0.2701496117107223 1:0.0 2:0.16666666666666666 3:0.0 4:0.0 5:0.0 6:0.0 7:0.0 8:0.0 9:0.0 10:0.0 11:0.0 12:0.0 13:0.0 14:0.0 15:0.0 16:0.0 17:0.0 18:0.16666666666666666 19:0.0 20:0.0 21:0.0 22:0.0 23:0.0 24:0.0 25:0.0 26:0.0 27:0.0 28:0.0 29:0.0 30:0.0 31:0.0 32:0.0 33:0.0 34:0.0 35:0.35900601116358954 36:0.0 37:0.0 38:0.0 39:0.0 40:0.0 41:0.14099398883641037 42:0.0 43:0.16666666666666666 44:0.0 45:0.0 46:0.0 47:0.0 48:0.0 49:0.0 50:0.0 
-4.353879957777699 1:0.0 2:0.0 3:0.0 4:0.0 5:0.0 6:0.0 7:0.0 8:0.0 9:0.0 10:0.0 11:0.0 12:0.0 13:0.0 14:0.0 15:0.0 16:0.0 17:0.0 18:0.0 19:0.0 20:0.0 21:0.0 22:0.0 23:0.0 24:0.0 25:0.0 26:0.0 27:0.0 28:0.0 29:0.0 30:0.0 31:0.0 32:0.0 33:0.0 34:0.0 35:0.0 36:0.0 37:0.0 38:0.0 39:0.0 40:0.0 41:0.0 42:0.0 43:0.0 44:0.0 45:0.0 46:0.0 47:0.0 48:0.0 49:0.0 50:0.0 
-0.6788755171831095 1:0.0 2:0.1955484677535493 3:0.0 4:0.0 5:0.0 6:0.0 7:0.0 8:0.0 9:0.14184397163120568 10:0.0 11:0.0 12:0.0 13:0.0 14:0.0 15:0.0 16:0.0 17:0.0 18:0.15 19:0.0 20:0.0 21:0.0 22:0.0 23:0.0 24:0.0 25:0.0 26:0.0 27:0.0 28:0.0 29:0.0 30:0.0 31:0.0 32:0.0 33:0.0 34:0.0 35:0.0 36:0.0 37:0.0 38:0.15 39:0.0 40:0.0 41:0.0 42:0.0 43:0.15827338129496402 44:0.0 45:0.0 46:0.0 47:0.0 48:0.0 49:0.0 50:0.15827338129496402 
-0.13968214954181007 1:0.0 2:0.0 3:0.0 4:0.0 5:0.0 6:0.0 7:0.0 8:0.0 9:0.0 10:0.0 11:0.0 12:0.0 13:0.0 14:0.0 15:0.0 16:0.0 17:0.0 18:0.16666666666666666 19:0.0 20:0.17518248175182483 21:0.0 22:0.0 23:0.0 24:0.1639029753577304 25:0.0 26:0.0 27:0.0 28:0.0 29:0.0 30:0.0 31:0.0 32:0.0 33:0.16666666666666666 34:0.0 35:0.0 36:0.0 37:0.0 38:0.0 39:0.0 40:0.0 41:0.0 42:0.0 43:0.0 44:0.0 45:0.0 46:0.16666666666666666 47:0.0 48:0.0 49:0.15 50:0.0 
-1.296492993895786 1:0.0 2:0.0 3:0.0 4:0.0 5:0.0 6:0.0 7:0.0 8:0.0 9:0.0 10:0.0 11:0.0 12:0.0 13:0.0 14:0.0 15:0.0 16:0.13708329917333448 17:0.0 18:0.0 19:0.0 20:0.0 21:0.0 22:0.0 23:0.0 24:0.15 25:0.0 26:0.0 27:0.0 28:0.0 29:0.0 30:0.0 31:0.0 32:0.11268199497432604 33:0.0 34:0.0 35:0.0 36:0.15827338129496402 37:0.0 38:0.0 39:0.0 40:0.0 41:0.0 42:0.0 43:0.14184397163120568 44:0.0 45:0.0 46:0.15827338129496402 47:0.0 48:0.0 49:0.0 50:0.14184397163120568 
-0.714713687883016 1:0.0 2:0.0 3:0.0 4:0.0 5:0.0 6:0.0 7:0.0 8:0.0 9:0.0 10:0.16666666666666666 11:0.0 12:0.0 13:0.0 14:0.0 15:0.0 16:0.0 17:0.0 18:0.0 19:0.0 20:0.0 21:0.0 22:0.0 23:0.0 24:0.15827338129496402 25:0.15 26:0.0 27:0.0 28:0.0 29:0.0 30:0.0 31:0.0 32:0.0 33:0.0 34:0.0 35:0.16666666666666666 36:0.0 37:0.0 38:0.0 39:0.0 40:0.0 41:0.3333333333333333 42:0.0 43:0.0 44:0.0 45:0.0 46:0.0 47:0.0 48:0.0 49:0.0 50:0.0 
-0.6191044542296595 1:0.0 2:0.0 3:0.0 4:0.0 5:0.0 6:0.0 7:0.0 8:0.0 9:0.17518248175182483 10:0.0 11:0.0 12:0.15827338129496402 13:0.0 14:0.0 15:0.0 16:0.0 17:0.0 18:0.0 19:0.0 20:0.0 21:0.0 22:0.0 23:0.0 24:0.0 25:0.0 26:0.0 27:0.0 28:0.0 29:0.0 30:0.0 31:0.0 32:0.16666666666666666 33:0.0 34:0.0 35:0.0 36:0.15827338129496402 37:0.0 38:0.0 39:0.0 40:0.0 41:0.16666666666666666 42:0.0 43:0.1413217169273967 44:0.0 45:0.0 46:0.0 47:0.0 48:0.0 49:0.0 50:0.0 
-2.065043776241289 1:0.0 2:0.0 3:0.0 4:0.0 5:0.0 6:0.0 7:0.0 8:0.0 9:0.0 10:0.15827338129496402 11:0.16666666666666666 12:0.0 13:0.0 14:0.0 15:0.0 16:0.0 17:0.0 18:0.0 19:0.0 20:0.0 21:0.0 22:0.0 23:0.0 24:0.0 25:0.0 26:0.0 27:0.15827338129496402 28:0.0 29:0.0 30:0.0 31:0.0 32:0.14184397163120568 33:0.0 34:0.0 35:0.0 36:0.0 37:0.0 38:0.0 39:0.13380281690140844 40:0.0 41:0.0 42:0.0 43:0.0 44:0.0 45:0.0 46:0.0 47:0.0 48:0.15 49:0.0 50:0.0 
-1.8347395269293938 1:0.0 2:0.0 3:0.0 4:0.0 5:0.0 6:0.0 7:0.16666666666666666 8:0.0 9:0.3333333333333333 10:0.0 11:0.0 12:0.0 13:0.15 14:0.0 15:0.0 16:0.0 17:0.0 18:0.0 19:0.0 20:0.0 21:0.0 22:0.0 23:0.0 24:0.14184397163120568 25:0.0 26:0.0 27:0.0 28:0.0 29:0.0 30:0.0 31:0.0 32:0.0 33:0.16666666666666666 34:0.0 35:0.0 36:0.0 37:0.0 38:0.0 39:0.0 40:0.0 41:0.0 42:0.0 43:0.0 44:0.0 45:0.0 46:0.0 47:0.0 48:0.0 49:0.0 50:0.0 
-1.5350568133324254 1:0.0 2:0.0 3:0.0 4:0.0 5:0.0 6:0.0 7:0.15827338129496402 8:0.0 9:0.0 10:0.0 11:0.0 12:0.0 13:0.0 14:0.0 15:0.0 16:0.0 17:0.0 18:0.0 19:0.0 20:0.0 21:0.0 22:0.0 23:0.0 24:0.0 25:0.0 26:0.0 27:0.16666666666666666 28:0.0 29:0.0 30:0.0 31:0.0 32:0.15827338129496402 33:0.0 34:0.0 35:0.09284794687565015 36:0.0 37:0.15827338129496402 38:0.0 39:0.0 40:0.0 41:0.0 42:0.0 43:0.0 44:0.0 45:0.0 46:0.11566524257279112 47:0.0 48:0.15 49:0.0 50:0.0 
-1.9738325240495136 1:0.0 2:0.15 3:0.15 4:0.0 5:0.0 6:0.0 7:0.0 8:0.0 9:0.0 10:0.2581560283687943 11:0.0 12:0.0 13:0.0 14:0.0 15:0.0 16:0.0 17:0.15 18:0.0 19:0.0 20:0.0 21:0.0 22:0.0 23:0.0 24:0.14184397163120568 25:0.0 26:0.0 27:0.0 28:0.0 29:0.0 30:0.0 31:0.0 32:0.0 33:0.0 34:0.0 35:0.0 36:0.0 37:0.15 38:0.0 39:0.0 40:0.0 41:0.0 42:0.0 43:0.0 44:0.0 45:0.0 46:0.0 47:0.0 48:0.0 49:0.0 50:0.0 
-0.95167510433236 1:0.0 2:0.0 3:0.0 4:0.0 5:0.0 6:0.0 7:0.14184397163120568 8:0.0 9:0.0 10:0.15827338129496402 11:0.0 12:0.0 13:0.0 14:0.0 15:0.14184397163120568 16:0.0 17:0.0 18:0.0 19:0.0 20:0.0 21:0.0 22:0.0 23:0.0 24:0.0 25:0.0 26:0.0 27:0.0 28:0.0 29:0.0 30:0.0 31:0.0 32:0.0 33:0.15 34:0.0 35:0.0 36:0.0 37:0.0 38:0.0 39:0.0 40:0.0 41:0.15827338129496402 42:0.0 43:0.0 44:0.0 45:0.0 46:0.0 47:0.0 48:0.0 49:0.0 50:0.15827338129496402 
-0.06469901287025945 1:0.0 2:0.0 3:0.0 4:0.0 5:0.0 6:0.0 7:0.0 8:0.0 9:0.17518248175182483 10:0.0 11:0.0 12:0.0 13:0.0 14:0.0 15:0.0 16:0.0 17:0.0 18:0.0 19:0.0 20:0.15827338129496402 21:0.0 22:0.0 23:0.0 24:0.0 25:0.0 26:0.0 27:0.15 28:0.0 29:0.0 30:0.0 31:0.0 32:0.0920838542708309 33:0.0 34:0.0 35:0.16666666666666666 36:0.0 37:0.0 38:0.0 39:0.0 40:0.0 41:0.12534202615796106 42:0.0 43:0.0 44:0.0 45:0.0 46:0.0 47:0.0 48:0.0 49:0.0 50:0.13245158985775252 
-1.0703006721472852 1:0.0 2:0.0 3:0.0 4:0.0 5:0.0 6:0.0 7:0.0 8:0.0 9:0.0 10:0.0 11:0.0 12:0.16666666666666666 13:0.0 14:0.0 15:0.0 16:0.0 17:0.0 18:0.0 19:0.0 20:0.0 21:0.0 22:0.0 23:0.0 24:0.0 25:0.0 26:0.0 27:0.0 28:0.3249400479616307 29:0.0 30:0.14184397163120568 31:0.0 32:0.0 33:0.0 34:0.0 35:0.0 36:0.09145437675698007 37:0.11682155568855293 38:0.0 39:0.0 40:0.0 41:0.0 42:0.0 43:0.15827338129496402 44:0.0 45:0.0 46:0.0 47:0.0 48:0.0 49:0.0 50:0.0 
-0.33216333872871723 1:0.0 2:0.0 3:0.0 4:0.0 5:0.0 6:0.0 7:0.0 8:0.0 9:0.0 10:0.0 11:0.0 12:0.0 13:0.0 14:0.0 15:0.0 16:0.0 17:0.13380281690140844 18:0.0 19:0.0 20:0.0 21:0.0 22:0.0 23:0.0 24:0.15 25:0.0 26:0.0 27:0.0 28:0.0 29:0.0 30:0.0 31:0.0 32:0.0 33:0.3 34:0.0 35:0.0 36:0.0 37:0.0 38:0.0 39:0.0 40:0.0 41:0.0 42:0.0 43:0.11865109258619203 44:0.14754609051239945 45:0.0 46:0.0 47:0.0 48:0.0 49:0.0 50:0.15 
-0.43353312526277255 1:0.0 2:0.0 3:0.0 4:0.0 5:0.0 6:0.0 7:0.0 8:0.0 9:0.0 10:0.0 11:0.0 12:0.15 13:0.0 14:0.0 15:0.0 16:0.0 17:0.0 18:0.16666666666666666 19:0.0 20:0.0 21:0.14184397163120568 22:0.0 23:0.0 24:0.15 25:0.0 26:0.0 27:0.0 28:0.0 29:0.15 30:0.0 31:0.0 32:0.0 33:0.15827338129496402 34:0.0 35:0.0 36:0.0 37:0.0 38:0.0 39:0.0 40:0.0 41:0.0 42:0.0 43:0.0 44:0.0 45:0.0 46:0.0 47:0.0 48:0.0 49:0.0 50:0.0 
-0.14544330155227156 1:0.0 2:0.0 3:0.0 4:0.0 5:0.0 6:0.0 7:0.0 8:0.0 9:0.0 10:0.0 11:0.0 12:0.0 13:0.0 14:0.0 15:0.0 16:0.0 17:0.04120503437655884 18:0.0 19:0.0 20:0.17518248175182483 21:0.0 22:0.0 23:0.0 24:0.0 25:0.0 26:0.0 27:0.0 28:0.0 29:0.0 30:0.0 31:0.0 32:0.15827338129496402 33:0.0 34:0.0 35:0.16666666666666666 36:0.16666666666666666 37:0.0 38:0.0 39:0.0 40:0.0 41:0.13373238794835493 42:0.0 43:0.0 44:0.0 45:0.0 46:0.0 47:0.0 48:0.0 49:0.0 50:0.15827338129496402 
-0.37997773806621965 1:0.0 2:0.0 3:0.0 4:0.0 5:0.0 6:0.0 7:0.0 8:0.0 9:0.0 10:0.0 11:0.0 12:0.0 13:0.0 14:0.0 15:0.0 16:0.0 17:0.0 18:0.0 19:0.0 20:0.35049019607843135 21:0.0 22:0.0 23:0.0 24:0.0 25:0.0 26:0.0 27:0.0 28:0.0 29:0.0 30:0.0 31:0.0 32:0.16666666666666666 33:0.0 34:0.0 35:0.18382352941176472 36:0.0 37:0.0 38:0.0 39:0.0 40:0.0 41:0.0 42:0.0 43:0.0 44:0.16666666666666666 45:0.0 46:0.0 47:0.0 48:0.0 49:0.0 50:0.0 
-1.554510821014431 1:0.0 2:0.0 3:0.0 4:0.0 5:0.0 6:0.0 7:0.0 8:0.0 9:0.15827338129496402 10:0.0 11:0.13380281690140844 12:0.0 13:0.0 14:0.0 15:0.0 16:0.0 17:0.0 18:0.0 19:0.0 20:0.0 21:0.0 22:0.0 23:0.14042349371420118 24:0.15 25:0.0 26:0.0 27:0.0 28:0.0 29:0.0 30:0.0 31:0.0 32:0.14184397163120568 33:0.0 34:0.0 35:0.15 36:0.0 37:0.0 38:0.0 39:0.0 40:0.0 41:0.0 42:0.0 43:0.0 44:0.0 45:0.0 46:0.0 47:0.0 48:0.12565633645822075 49:0.0 50:0.0 
-0.6026311226081689 1:0.0 2:0.0 3:0.0 4:0.0 5:0.0 6:0.0 7:0.0 8:0.0 9:0.0 10:0.0 11:0.0 12:0.232841546086807 13:0.0 14:0.0 15:0.0 16:0.0 17:0.0 18:0.0 19:0.0 20:0.0 21:0.0 22:0.0 23:0.0 24:0.0 25:0.0 26:0.0 27:0.0 28:0.0 29:0.0 30:0.0 31:0.0 32:0.0 33:0.15827338129496402 34:0.15 35:0.0 36:0.0 37:0.0 38:0.0 39:0.0 40:0.0 41:0.15827338129496402 42:0.0 43:0.0 44:0.0 45:0.0 46:0.15 47:0.0 48:0.0 49:0.0 50:0.15061169132326482 
-1.1274694273499557 1:0.0 2:0.0 3:0.0 4:0.0 5:0.0 6:0.0 7:0.0 8:0.0 9:0.0 10:0.0 11:0.0 12:0.0 13:0.0 14:0.0 15:0.0 16:0.0 17:0.0 18:0.0 19:0.0 20:0.15827338129496402 21:0.0 22:0.0 23:0.0 24:0.0 25:0.0 26:0.0 27:0.0 28:0.15827338129496402 29:0.0 30:0.0 31:0.0 32:0.0 33:0.0 34:0.0 35:0.0 36:0.0 37:0.0 38:0.0 39:0.14184397163120568 40:0.0 41:0.16629988579801683 42:0.0 43:0.0 44:0.0 45:0.0 46:0.2334654083496438 47:0.0 48:0.0 49:0.0 50:0.14184397163120568 
-0.8850644741677148 1:0.0 2:0.0 3:0.0 4:0.0 5:0.0 6:0.0 7:0.0 8:0.0 9:0.0 10:0.0 11:0.0 12:0.16666666666666666 13:0.0 14:0.0 15:0.0 16:0.0 17:0.0 18:0.0 19:0.0 20:0.15 21:0.0 22:0.0 23:0.0 24:0.0 25:0.0 26:0.0 27:0.15 28:0.16666666666666666 29:0.0 30:0.0 31:0.0 32:0.0 33:0.0 34:0.0 35:0.14184397163120568 36:0.0 37:0.0 38:0.0 39:0.0 40:0.0 41:0.0 42:0.0 43:0.0 44:0.0 45:0.13380281690140844 46:0.0 47:0.0 48:0.0 49:0.0 50:0.0 
-0.806000074497656 1:0.0 2:0.14184397163120568 3:0.0 4:0.0 5:0.0 6:0.0 7:0.0 8:0.0 9:0.0 10:0.15827338129496402 11:0.0 12:0.0 13:0.0 14:0.0 15:0.0 16:0.0 17:0.0 18:0.2631578947368421 19:0.0 20:0.0 21:0.0 22:0.0 23:0.0 24:0.0 25:0.0 26:0.0 27:0.0 28:0.0 29:0.0 30:0.0 31:0.0 32:0.0 33:0.0 34:0.0 35:0.0 36:0.0 37:0.0 38:0.0 39:0.0 40:0.0 41:0.0 42:0.0 43:0.2586775382111237 44:0.16666666666666666 45:0.0 46:0.0 47:0.0 48:0.0 49:0.0 50:0.0 
-0.39670432354965307 1:0.0 2:0.0 3:0.0 4:0.0 5:0.0 6:0.0 7:0.0 8:0.0 9:0.0 10:0.0 11:0.0 12:0.14184397163120568 13:0.0 14:0.0 15:0.0 16:0.0 17:0.14184397163120568 18:0.14184397163120568 19:0.0 20:0.0 21:0.0 22:0.0 23:0.0 24:0.0 25:0.0 26:0.0 27:0.0 28:0.11571057001659943 29:0.0 30:0.0 31:0.0 32:0.0 33:0.0 34:0.0 35:0.0 36:0.0 37:0.0 38:0.0 39:0.0 40:0.0 41:0.15864016216361385 42:0.0 43:0.0 44:0.0 45:0.0 46:0.14184397163120568 47:0.0 48:0.15827338129496402 49:0.0 50:0.0 
-0.5338213527061036 1:0.0 2:0.0 3:0.0 4:0.0 5:0.0 6:0.0 7:0.0 8:0.0 9:0.0 10:0.0 11:0.0 12:0.0 13:0.0 14:0.0 15:0.0 16:0.0 17:0.0 18:0.0 19:0.0 20:0.4170316301703163 21:0.0 22:0.0 23:0.0 24:0.14645101710308836 25:0.0 26:0.0 27:0.0 28:0.0 29:0.0 30:0.0 31:0.0 32:0.16666666666666666 33:0.0 34:0.0 35:0.0 36:0.0 37:0.0 38:0.0 39:0.0 40:0.0 41:0.0 42:0.0 43:0.0 44:0.0 45:0.0 46:0.10318401939326202 47:0.0 48:0.0 49:0.0 50:0.16666666666666666 
-0.13501007854451594 1:0.0 2:0.0 3:0.0 4:0.0 5:0.0 6:0.0 7:0.15 8:0.0 9:0.0 10:0.15827338129496402 11:0.0 12:0.15827338129496402 13:0.0 14:0.0 15:0.0 16:0.0 17:0.0 18:0.0 19:0.0 20:0.0 21:0.0 22:0.0 23:0.0 24:0.0 25:0.0 26:0.0 27:0.0 28:0.15827338129496402 29:0.0 30:0.0 31:0.0 32:0.0 33:0.0 34:0.0 35:0.0 36:0.0 37:0.0 38:0.0 39:0.0 40:0.0 41:0.15 42:0.0 43:0.0 44:0.0 45:0.0 46:0.2248079729453202 47:0.0 48:0.0 49:0.0 50:0.0 
-0.8152445734396125 1:0.0 2:0.0 3:0.0 4:0.0 5:0.0 6:0.15 7:0.0 8:0.0 9:0.0 10:0.0 11:0.0 12:0.0 13:0.15 14:0.0 15:0.0 16:0.0 17:0.0 18:0.0 19:0.0 20:0.15827338129496402 21:0.0 22:0.0 23:0.0 24:0.0 25:0.0 26:0.0 27:0.0 28:0.0 29:0.0 30:0.0 31:0.0 32:0.0 33:0.0 34:0.0 35:0.15827338129496402 36:0.0 37:0.0 38:0.0 39:0.0 40:0.0 41:0.31666666666666665 42:0.0 43:0.0 44:0.0 45:0.0 46:0.0 47:0.0 48:0.0 49:0.0 50:0.0 
-0.981434720182109 1:0.14184397163120568 2:0.16666666666666666 3:0.0 4:0.0 5:0.0 6:0.0 7:0.0 8:0.0 9:0.0 10:0.0 11:0.0 12:0.0 13:0.0 14:0.0 15:0.0 16:0.0 17:0.0 18:0.15 19:0.0 20:0.0 21:0.0 22:0.0 23:0.0 24:0.0 25:0.0 26:0.0 27:0.14184397163120568 28:0.0 29:0.0 30:0.0 31:0.0 32:0.0 33:0.15 34:0.0 35:0.0 36:0.15827338129496402 37:0.0 38:0.0 39:0.0 40:0.0 41:0.0 42:0.0 43:0.0 44:0.0 45:0.0 46:0.0 47:0.0 48:0.0 49:0.0 50:0.0 
-0.26639388301193495 1:0.0 2:0.0 3:0.0 4:0.0 5:0.0 6:0.0 7:0.0 8:0.0 9:0.0 10:0.14582609217297746 11:0.15 12:0.15 13:0.0 14:0.0 15:0.0 16:0.0 17:0.0 18:0.0 19:0.0 20:0.0 21:0.0 22:0.0 23:0.0 24:0.14184397163120568 25:0.0 26:0.0 27:0.0 28:0.0 29:0.0 30:0.0 31:0.0 32:0.15 33:0.0 34:0.0 35:0.0 36:0.0 37:0.0 38:0.0 39:0.0 40:0.0 41:0.1123299361958168 42:0.0 43:0.15 44:0.0 45:0.0 46:0.0 47:0.0 48:0.0 49:0.0 50:0.0 
-0.6499236968925464 1:0.0 2:0.0 3:0.0 4:0.0 5:0.0 6:0.0 7:0.0 8:0.0 9:0.0 10:0.3339772984029704 11:0.0 12:0.15 13:0.0 14:0.0 15:0.0 16:0.0 17:0.0 18:0.16666666666666666 19:0.0 20:0.15827338129496402 21:0.0 22:0.0 23:0.0 24:0.0 25:0.0 26:0.0 27:0.0 28:0.0 29:0.0 30:0.0 31:0.0 32:0.15827338129496402 33:0.0 34:0.0 35:0.0 36:0.0 37:0.0 38:0.0 39:0.0 40:0.0 41:0.0 42:0.0 43:0.0 44:0.0 45:0.0 46:0.0 47:0.0 48:0.0 49:0.0 50:0.0 
-0.6731478572972588 1:0.0 2:0.0 3:0.0 4:0.0 5:0.0 6:0.0 7:0.0 8:0.0 9:0.0 10:0.0 11:0.0 12:0.0 13:0.0 14:0.0 15:0.0 16:0.0 17:0.0 18:0.0 19:0.0 20:0.4985353810690567 21:0.0 22:0.0 23:0.0 24:0.0 25:0.0 26:0.0 27:0.0 28:0.0 29:0.0 30:0.0 31:0.0 32:0.0 33:0.11764379238050479 34:0.0 35:0.35036496350364965 36:0.0 37:0.0 38:0.0 39:0.0 40:0.0 41:0.0 42:0.0 43:0.0 44:0.0 45:0.0 46:0.0 47:0.0 48:0.0 49:0.0 50:0.0 
-0.8568074042966323 1:0.0 2:0.0 3:0.0 4:0.0 5:0.0 6:0.0 7:0.0 8:0.0 9:0.0 10:0.11385814724998802 11:0.15 12:0.14184397163120568 13:0.0 14:0.0 15:0.0 16:0.0 17:0.0 18:0.0 19:0.0 20:0.0 21:0.0 22:0.0 23:0.0 24:0.0 25:0.0 26:0.0 27:0.0 28:0.0 29:0.15 30:0.0 31:0.0 32:0.2918439716312057 33:0.15 34:0.0 35:0.0 36:0.0 37:0.0 38:0.0 39:0.0 40:0.0 41:0.0 42:0.0 43:0.0 44:0.0 45:0.0 46:0.0 47:0.0 48:0.0 49:0.0 50:0.0 
-0.07551017581344235 1:0.0 2:0.0 3:0.0 4:0.0 5:0.0 6:0.0 7:0.0 8:0.0 9:0.0 10:0.0 11:0.0 12:0.15827338129496402 13:0.0 14:0.0 15:0.15827338129496402 16:0.0 17:0.0 18:0.15827338129496402 19:0.0 20:0.0 21:0.0 22:0.0 23:0.0 24:0.0 25:0.0 26:0.0 27:0.0 28:0.0 29:0.0 30:0.0 31:0.0 32:0.1673084530164742 33:0.31654676258992803 34:0.0 35:0.0 36:0.0 37:0.0 38:0.0 39:0.0 40:0.0 41:0.0 42:0.0 43:0.0 44:0.0 45:0.0 46:0.0 47:0.0 48:0.0 49:0.0 50:0.0 
