svm_type c_svc
kernel_type rbf
gamma 10.0
nr_class 2
total_sv 184
rho -0.01694875657363029
label 1 0
probA -2.4274659748392198
probB 0.03318773326768879
nr_sv 97 87
SV
0.4103842481198703 1:0.0 2:0.15 3:0.0 4:0.0 5:0.14184397163120568 6:0.0 7:0.0 8:0.15827338129496402 9:0.0 10:0.0 11:0.0 12:0.0 13:0.0 14:0.10549658643519003 15:0.0 16:0.0 17:0.14184397163120568 18:0.0 19:0.0 20:0.0 21:0.0 22:0.0 23:0.0 24:0.0 25:0.0 26:0.0 27:0.0 28:0.0 29:0.0 30:0.0 31:0.0 32:0.0 33:0.0 34:0.0 35:0.0 36:0.0 37:0.15 38:0.0 39:0.0 40:0.0 41:0.0 42:0.0 43:0.0 44:0.0 45:0.0 46:0.15 47:0.0 48:0.0 49:0.0 50:0.0 
0.8288126764735588 1:0.0 2:0.15827338129496402 3:0.0 4:0.0 5:0.0 6:0.0 7:0.0 8:0.0 9:0.0 10:0.0 11:0.0 12:0.15 13:0.0 14:0.10395068944740851 15:0.0 16:0.0 17:0.0 18:0.0 19:0.0 20:0.0 21:0.0 22:0.0 23:0.0 24:0.14184397163120568 25:0.0 26:0.0 27:0.0 28:0.0 29:0.0 30:0.0 31:0.0 32:0.15 33:0.14184397163120568 34:0.0 35:0.0 36:0.0 37:0.0 38:0.0 39:0.0 40:0.0 41:0.0 42:0.0 43:0.15 44:0.0 45:0.0 46:0.0 47:0.0 48:0.0 49:0.0 50:0.0 
0.7632749396725087 1:0.23559526460727923 2:0.0 3:0.0 4:0.0 5:0.0 6:0.14184397163120568 7:0.0 8:0.2838028169014084 9:0.0 10:0.0 11:0.0 12:0.0 13:0.0 14:0.0 15:0.0 16:0.0 17:0.0 18:0.0 19:0.0 20:0.0 21:0.0 22:0.0 23:0.0 24:0.0 25:0.0 26:0.0 27:0.0 28:0.0 29:0.0 30:0.14184397163120568 31:0.0 32:0.0 33:0.0 34:0.0 35:0.0 36:0.0 37:0.0 38:0.0 39:0.0 40:0.0 41:0.13380281690140844 42:0.0 43:0.0 44:0.0 45:0.0 46:0.0 47:0.0 48:0.0 49:0.0 50:0.0 
0.7683194374059384 1:0.0 2:0.0 3:0.14184397163120568 4:0.0 5:0.0 6:0.0 7:0.0 8:0.0 9:0.14184397163120568 10:0.0 11:0.0 12:0.0 13:0.0 14:0.0 15:0.0 16:0.0 17:0.0 18:0.0 19:0.0 20:0.1258741258741259 21:0.13380281690140844 22:0.0 23:0.0 24:0.0 25:0.0 26:0.0 27:0.0 28:0.0 29:0.0 30:0.0 31:0.0 32:0.0 33:0.0 34:0.0 35:0.13380281690140844 36:0.0 37:0.0 38:0.0 39:0.0 40:0.14184397163120568 41:0.0 42:0.0 43:0.0 44:0.1466211843841667 45:0.0 46:0.0 47:0.0 48:0.0 49:0.0 50:0.0 
1.3596713735455181 1:0.14184397163120568 2:0.0 3:0.0 4:0.15 5:0.0 6:0.0 7:0.0 8:0.0 9:0.0 10:0.0 11:0.0 12:0.0 13:0.0 14:0.0 15:0.28250923983618015 16:0.0 17:0.2918439716312057 18:0.0 19:0.0 20:0.0 21:0.0 22:0.0 23:0.0 24:0.0 25:0.0 26:0.0 27:0.0 28:0.0 29:0.0 30:0.0 31:0.0 32:0.13380281690140844 33:0.0 34:0.0 35:0.0 36:0.0 37:0.0 38:0.0 39:0.0 40:0.0 41:0.0 42:0.0 43:0.0 44:0.0 45:0.0 46:0.0 47:0.0 48:0.0 49:0.0 50:0.0 
0.4125624187287309 1:0.0 2:0.0 3:0.0 4:0.0 5:0.1258741258741259 6:0.14184397163120568 7:0.0 8:0.0 9:0.0 10:0.0 11:0.0 12:0.0 13:0.0 14:0.0 15:0.0 16:0.14184397163120568 17:0.0 18:0.0 19:0.0 20:0.0 21:0.0 22:0.0 23:0.0 24:0.0 25:0.0 26:0.0 27:0.0 28:0.0 29:0.0 30:0.0 31:0.14184397163120568 32:0.0 33:0.0 34:0.0 35:0.13380281690140844 36:0.0 37:0.0 38:0.0 39:0.0 40:0.0 41:0.14184397163120568 42:0.0 43:0.0 44:0.0 45:0.0 46:0.0 47:0.0 48:0.0 49:0.0 50:0.14184397163120568 
0.4242072318355526 1:0.0 2:0.0 3:0.0 4:0.0 5:0.0 6:0.0 7:0.14184397163120568 8:0.0 9:0.0 10:0.0 11:0.0 12:0.0 13:0.0 14:0.0 15:0.0 16:0.0 17:0.0 18:0.13380281690140844 19:0.0 20:0.0 21:0.14184397163120568 22:0.0 23:0.0 24:0.0 25:0.0 26:0.0 27:0.0 28:0.14184397163120568 29:0.0 30:0.0 31:0.0 32:0.0 33:0.0 34:0.0 35:0.0 36:0.0 37:0.0 38:0.0 39:0.13380281690140844 40:0.14184397163120568 41:0.0 42:0.0 43:0.0 44:0.0 45:0.0 46:0.0 47:0.0 48:0.0 49:0.0 50:0.0 
0.8738771120671235 1:0.0 2:0.0 3:0.0 4:0.0 5:0.06962891936337717 6:0.0 7:0.0 8:0.0 9:0.0 10:0.0 11:0.0 12:0.0 13:0.0 14:0.0 15:0.0 16:0.08688884167250749 17:0.0 18:0.0 19:0.0 20:0.0 21:0.0 22:0.0 23:0.0 24:0.14184397163120568 25:0.0 26:0.0 27:0.0 28:0.0 29:0.14184397163120568 30:0.0 31:0.0 32:0.0 33:0.0 34:0.0 35:0.0 36:0.0 37:0.0 38:0.0 39:0.14184397163120568 40:0.13380281690140844 41:0.0 42:0.0 43:0.15827338129496402 44:0.1258741258741259 45:0.0 46:0.0 47:0.0 48:0.0 49:0.0 50:0.0 
1.9907932420898211 1:0.0 2:0.0 3:0.0 4:0.0 5:0.0 6:0.0 7:0.0 8:0.0 9:0.14889642899002692 10:0.0 11:0.0 12:0.15 13:0.0 14:0.0 15:0.0 16:0.0 17:0.15 18:0.13380281690140844 19:0.14184397163120568 20:0.0 21:0.0 22:0.0 23:0.0 24:0.0 25:0.0 26:0.0 27:0.0 28:0.0 29:0.0 30:0.0 31:0.0 32:0.1336128108461533 33:0.0 34:0.0 35:0.0 36:0.0 37:0.0 38:0.0 39:0.0 40:0.0 41:0.0 42:0.0 43:0.0 44:0.0 45:0.14184397163120568 46:0.0 47:0.0 48:0.0 49:0.0 50:0.0 
0.9021517274282704 1:0.0 2:0.0 3:0.14184397163120568 4:0.0 5:0.0 6:0.15 7:0.0 8:0.0 9:0.0 10:0.0 11:0.0 12:0.0 13:0.0 14:0.0 15:0.0 16:0.0 17:0.0 18:0.0 19:0.0 20:0.0 21:0.0 22:0.1258741258741259 23:0.0 24:0.0 25:0.0 26:0.0 27:0.0 28:0.0 29:0.0 30:0.13380281690140844 31:0.0 32:0.0 33:0.13380281690140844 34:0.0 35:0.0 36:0.0 37:0.0 38:0.0 39:0.0 40:0.0 41:0.0 42:0.0 43:0.0 44:0.0 45:0.0 46:0.0 47:0.0 48:0.13380281690140844 49:0.14184397163120568 50:0.0 
0.732359664253335 1:0.0 2:0.0 3:0.0 4:0.0 5:0.0 6:0.0 7:0.0 8:0.0 9:0.0 10:0.10759106922220277 11:0.0 12:0.0 13:0.0 14:0.27564678853261415 15:0.0 16:0.14184397163120568 17:0.0 18:0.0 19:0.0 20:0.0 21:0.0 22:0.0 23:0.0 24:0.0 25:0.0 26:0.0 27:0.0 28:0.0 29:0.0 30:0.0 31:0.0 32:0.0 33:0.0 34:0.0 35:0.0 36:0.0 37:0.0 38:0.0 39:0.0 40:0.2838028169014084 41:0.0 42:0.0 43:0.0 44:0.0 45:0.0 46:0.0 47:0.0 48:0.0 49:0.15 50:0.0 
0.28663595699162275 1:0.0 2:0.0 3:0.13380281690140844 4:0.0 5:0.0 6:0.0 7:0.0 8:0.0 9:0.0 10:0.0 11:0.0 12:0.0 13:0.0 14:0.0 15:0.0 16:0.0 17:0.0 18:0.0 19:0.0 20:0.0 21:0.0 22:0.0 23:0.0 24:0.0 25:0.0 26:0.15 27:0.0 28:0.0 29:0.0 30:0.13065070362436038 31:0.0 32:0.13380281690140844 33:0.14184397163120568 34:0.0 35:0.0 36:0.0 37:0.13380281690140844 38:0.0 39:0.0 40:0.0 41:0.0 42:0.0 43:0.0 44:0.14184397163120568 45:0.0 46:0.0 47:0.0 48:0.0 49:0.0 50:0.0 
0.19230080457276996 1:0.0 2:0.0 3:0.0 4:0.0 5:0.13380281690140844 6:0.0 7:0.0 8:0.0 9:0.14184397163120568 10:0.0 11:0.0 12:0.0 13:0.0 14:0.2695617161162776 15:0.0 16:0.0 17:0.0 18:0.0 19:0.0 20:0.0 21:0.0 22:0.0 23:0.0 24:0.0 25:0.0 26:0.0 27:0.0 28:0.0 29:0.0 30:0.0 31:0.0 32:0.0 33:0.0 34:0.0 35:0.0 36:0.0 37:0.14184397163120568 38:0.0 39:0.0 40:0.13380281690140844 41:0.0 42:0.0 43:0.0 44:0.0 45:0.0 46:0.0 47:0.14184397163120568 48:0.0 49:0.0 50:0.0 
0.997116784476581 1:0.15 2:0.0 3:0.0 4:0.0 5:0.0 6:0.0 7:0.14184397163120568 8:0.0 9:0.16666666666666666 10:0.0 11:0.0 12:0.0 13:0.0 14:0.0 15:0.14184397163120568 16:0.0 17:0.0 18:0.0 19:0.0 20:0.0 21:0.0 22:0.0 23:0.0 24:0.0 25:0.0 26:0.0 27:0.0 28:0.0 29:0.0 30:0.14184397163120568 31:0.0 32:0.0 33:0.0 34:0.0 35:0.0 36:0.0 37:0.0 38:0.0 39:0.0 40:0.0 41:0.0 42:0.0 43:0.0 44:0.0 45:0.0 46:0.0 47:0.0 48:0.0 49:0.0 50:0.2578014184397164 
1.8162079707123686 1:0.0 2:0.0 3:0.0 4:0.0 5:0.0 6:0.0 7:0.0 8:0.0 9:0.10388838639551648 10:0.0 11:0.0 12:0.0 13:0.0 14:0.0 15:0.15 16:0.0 17:0.0 18:0.0 19:0.0 20:0.0 21:0.0 22:0.0 23:0.0 24:0.15 25:0.0 26:0.0 27:0.0 28:0.0 29:0.0 30:0.0 31:0.0 32:0.0 33:0.0 34:0.0 35:0.15 36:0.0 37:0.13380281690140844 38:0.0 39:0.0 40:0.0 41:0.0 42:0.15 43:0.15 44:0.0 45:0.0 46:0.0 47:0.0 48:0.0 49:0.0 50:0.0 
0.3899762962945134 1:0.15 2:0.0 3:0.24313244213446522 4:0.0 5:0.0 6:0.0 7:0.0 8:0.0 9:0.0 10:0.0 11:0.0 12:0.14184397163120568 13:0.0 14:0.0 15:0.0 16:0.0 17:0.0 18:0.0 19:0.0 20:0.14184397163120568 21:0.14184397163120568 22:0.15 23:0.0 24:0.0 25:0.0 26:0.0 27:0.0 28:0.0 29:0.0 30:0.0 31:0.0 32:0.0 33:0.0 34:0.0 35:0.0 36:0.0 37:0.0 38:0.0 39:0.0 40:0.0 41:0.0 42:0.0 43:0.0 44:0.0 45:0.0 46:0.0 47:0.0 48:0.0 49:0.0 50:0.0 
0.37754337087647954 1:0.0 2:0.15827338129496402 3:0.0 4:0.13711185646782417 5:0.0 6:0.0 7:0.0 8:0.0 9:0.0 10:0.0 11:0.0 12:0.0 13:0.0 14:0.0 15:0.14184397163120568 16:0.0 17:0.0 18:0.0 19:0.0 20:0.0 21:0.0 22:0.0 23:0.0 24:0.0 25:0.0 26:0.0 27:0.0 28:0.0 29:0.0 30:0.0 31:0.0 32:0.0 33:0.0 34:0.0 35:0.13380281690140844 36:0.0 37:0.0 38:0.0 39:0.0 40:0.0 41:0.0 42:0.0 43:0.13380281690140844 44:0.0 45:0.0 46:0.13380281690140844 47:0.0 48:0.0 49:0.0 50:0.13380281690140844 
1.556973132422246 1:0.0 2:0.0 3:0.0 4:0.0 5:0.0 6:0.0 7:0.0 8:0.0 9:0.14184397163120568 10:0.0 11:0.0 12:0.14184397163120568 13:0.0 14:0.0 15:0.0 16:0.0 17:0.0 18:0.14184397163120568 19:0.0 20:0.0 21:0.0 22:0.13380281690140844 23:0.0 24:0.0 25:0.0 26:0.0 27:0.0 28:0.0 29:0.0 30:0.0 31:0.0 32:0.2480813550825813 33:0.0 34:0.0 35:0.0 36:0.0 37:0.0 38:0.0 39:0.0 40:0.0 41:0.0 42:0.0 43:0.0 44:0.0 45:0.14184397163120568 46:0.0 47:0.0 48:0.0 49:0.0 50:0.0 
1.5505422768967467 1:0.0 2:0.15827338129496402 3:0.0 4:0.0 5:0.0 6:0.0 7:0.0 8:0.0 9:0.0 10:0.0 11:0.0 12:0.0 13:0.0 14:0.0 15:0.0 16:0.0 17:0.0 18:0.0 19:0.0 20:0.10176068083852594 21:0.0 22:0.15 23:0.0 24:0.0 25:0.0 26:0.0 27:0.0 28:0.0 29:0.0 30:0.0 31:0.0 32:0.0 33:0.14184397163120568 34:0.0 35:0.13380281690140844 36:0.0 37:0.0 38:0.0 39:0.0 40:0.0 41:0.0 42:0.0 43:0.0 44:0.0 45:0.0 46:0.0 47:0.0 48:0.15 49:0.14184397163120568 50:0.0 
0.5563630262674875 1:0.0 2:0.0 3:0.0 4:0.11990808677714607 5:0.0 6:0.0 7:0.0 8:0.0 9:0.0 10:0.14184397163120568 11:0.0 12:0.0 13:0.0 14:0.0 15:0.0 16:0.0 17:0.0 18:0.0 19:0.0 20:0.0 21:0.0 22:0.0 23:0.0 24:0.0 25:0.0 26:0.15 27:0.0 28:0.0 29:0.0 30:0.14184397163120568 31:0.0 32:0.0 33:0.0 34:0.2918439716312057 35:0.0 36:0.0 37:0.0 38:0.0 39:0.0 40:0.14184397163120568 41:0.0 42:0.0 43:0.0 44:0.0 45:0.0 46:0.0 47:0.0 48:0.0 49:0.0 50:0.0 
0.2845862300380542 1:0.0 2:0.0 3:0.0 4:0.0 5:0.14184397163120568 6:0.0 7:0.0 8:0.0 9:0.0 10:0.0 11:0.0 12:0.0 13:0.0 14:0.0 15:0.0 16:0.0 17:0.0 18:0.0 19:0.0 20:0.0 21:0.0 22:0.0 23:0.15 24:0.0 25:0.0 26:0.0 27:0.0 28:0.0 29:0.0 30:0.1258741258741259 31:0.0 32:0.0 33:0.0 34:0.0 35:0.13081492907386555 36:0.0 37:0.1258741258741259 38:0.0 39:0.0 40:0.0 41:0.0 42:0.0 43:0.0 44:0.0 45:0.13380281690140844 46:0.0 47:0.0 48:0.0 49:0.0 50:0.15 
0.679864429026588 1:0.0 2:0.0 3:0.14184397163120568 4:0.0 5:0.0 6:0.0 7:0.0 8:0.0 9:0.0 10:0.0 11:0.0 12:0.21607713354693542 13:0.0 14:0.0 15:0.0 16:0.0 17:0.0 18:0.0 19:0.0 20:0.0 21:0.0 22:0.0 23:0.0 24:0.0 25:0.0 26:0.15 27:0.0 28:0.0 29:0.0 30:0.0 31:0.15 32:0.0 33:0.0 34:0.0 35:0.15 36:0.0 37:0.0 38:0.0 39:0.0 40:0.0 41:0.0 42:0.0 43:0.0 44:0.1258741258741259 45:0.06620476894773292 46:0.0 47:0.0 48:0.0 49:0.0 50:0.0 
0.9423395743524884 1:0.0 2:0.0 3:0.14184397163120568 4:0.0 5:0.0 6:0.0 7:0.14184397163120568 8:0.0 9:0.0 10:0.0 11:0.0 12:0.0 13:0.0 14:0.0 15:0.0 16:0.27564678853261415 17:0.0 18:0.0 19:0.0 20:0.0 21:0.0 22:0.0 23:0.0 24:0.0 25:0.0 26:0.0 27:0.0 28:0.0 29:0.0 30:0.13380281690140844 31:0.0 32:0.15 33:0.0 34:0.0 35:0.0 36:0.0 37:0.14184397163120568 38:0.0 39:0.0 40:0.0 41:0.0 42:0.0 43:0.0 44:0.0 45:0.0 46:0.0 47:0.0 48:0.0 49:0.0 50:0.0 
0.15656510547362323 1:0.0 2:0.0 3:0.0 4:0.0 5:0.0 6:0.0 7:0.0 8:0.17070737506877545 9:0.0 10:0.0 11:0.0 12:0.0 13:0.0 14:0.0 15:0.14184397163120568 16:0.0 17:0.15827338129496402 18:0.0 19:0.0 20:0.0 21:0.0 22:0.0 23:0.0 24:0.0 25:0.0 26:0.0 27:0.0 28:0.0 29:0.0 30:0.0 31:0.0 32:0.0 33:0.11168451184123515 34:0.0 35:0.0 36:0.0 37:0.14184397163120568 38:0.0 39:0.0 40:0.0 41:0.0 42:0.0 43:0.0 44:0.0 45:0.0 46:0.0 47:0.14184397163120568 48:0.0 49:0.0 50:0.13380281690140844 
0.11945258850028648 1:0.0 2:0.0 3:0.14591201400478396 4:0.0 5:0.13380281690140844 6:0.0 7:0.0 8:0.0 9:0.0 10:0.0 11:0.0 12:0.0 13:0.0 14:0.15827338129496402 15:0.0 16:0.0 17:0.0 18:0.0 19:0.0 20:0.0 21:0.0 22:0.0 23:0.0 24:0.0 25:0.0 26:0.15 27:0.15 28:0.0 29:0.0 30:0.0 31:0.0 32:0.0 33:0.0 34:0.0 35:0.0 36:0.0 37:0.0 38:0.0 39:0.0 40:0.0 41:0.0 42:0.0 43:0.0 44:0.0 45:0.14184397163120568 46:0.12016781616763783 47:0.0 48:0.0 49:0.0 50:0.0 
0.8394247247227277 1:0.0 2:0.0 3:0.0 4:0.0 5:0.0 6:0.0 7:0.0 8:0.0 9:0.0 10:0.0 11:0.0 12:0.0 13:0.0 14:0.0 15:0.0 16:0.0 17:0.15 18:0.0 19:0.0 20:0.0 21:0.0 22:0.14184397163120568 23:0.24179394793383854 24:0.0 25:0.0 26:0.14184397163120568 27:0.0 28:0.0 29:0.0 30:0.0 31:0.0 32:0.0 33:0.0 34:0.0 35:0.0 36:0.0 37:0.0 38:0.0 39:0.14184397163120568 40:0.14184397163120568 41:0.0 42:0.0 43:0.0 44:0.0 45:0.0 46:0.0 47:0.0 48:0.0 49:0.0 50:0.0 
0.06462088137279218 1:0.0 2:0.0 3:0.1258741258741259 4:0.0 5:0.0 6:0.0 7:0.0 8:0.0 9:0.0 10:0.15 11:0.0 12:0.0 13:0.0 14:0.0 15:0.092077476692379 16:0.14184397163120568 17:0.0 18:0.0 19:0.0 20:0.0 21:0.0 22:0.0 23:0.0 24:0.14184397163120568 25:0.0 26:0.0 27:0.0 28:0.0 29:0.0 30:0.0 31:0.0 32:0.0 33:0.0 34:0.13380281690140844 35:0.0 36:0.08075482036826692 37:0.0 38:0.0 39:0.0 40:0.13380281690140844 41:0.0 42:0.0 43:0.0 44:0.0 45:0.0 46:0.0 47:0.0 48:0.0 49:0.0 50:0.0 
0.9060630809567173 1:0.0 2:0.15827338129496402 3:0.0 4:0.0 5:0.0 6:0.0 7:0.0 8:0.0 9:0.0 10:0.0 11:0.0 12:0.11850456625368674 13:0.0 14:0.0 15:0.0 16:0.0 17:0.0 18:0.0 19:0.14184397163120568 20:0.0 21:0.0 22:0.0 23:0.0 24:0.0 25:0.0 26:0.0 27:0.0 28:0.0 29:0.13380281690140844 30:0.0 31:0.0 32:0.14745791099256536 33:0.0 34:0.0 35:0.15827338129496402 36:0.0 37:0.0 38:0.0 39:0.0 40:0.0 41:0.0 42:0.0 43:0.0 44:0.0 45:0.14184397163120568 46:0.0 47:0.0 48:0.0 49:0.0 50:0.0 
1.1804456455206165 1:0.0 2:0.0 3:0.09325759824809005 4:0.0 5:0.0 6:0.0 7:0.0 8:0.0 9:0.0 10:0.0 11:0.0 12:0.0 13:0.0 14:0.0 15:0.0 16:0.0 17:0.0 18:0.0 19:0.0 20:0.0 21:0.0 22:0.14184397163120568 23:0.0 24:0.0 25:0.0 26:0.15 27:0.0 28:0.0 29:0.0 30:0.15 31:0.03925164158809008 32:0.0 33:0.0 34:0.0 35:0.0 36:0.0 37:0.0 38:0.0 39:0.0 40:0.0 41:0.0 42:0.0 43:0.0 44:0.13380281690140844 45:0.14184397163120568 46:0.0 47:0.0 48:0.15 49:0.0 50:0.0 
0.9484036890256251 1:0.0 2:0.0 3:0.0 4:0.0 5:0.15 6:0.0 7:0.0 8:0.0 9:0.0 10:0.15827338129496402 11:0.0 12:0.0 13:0.0 14:0.0 15:0.0 16:0.0 17:0.0 18:0.0 19:0.061989364890033094 20:0.0 21:0.0 22:0.15 23:0.0 24:0.15 25:0.0 26:0.0 27:0.0 28:0.0 29:0.15 30:0.0 31:0.0 32:0.0 33:0.0 34:0.0 35:0.0 36:0.0 37:0.0 38:0.0 39:0.0 40:0.0 41:0.0 42:0.14184397163120568 43:0.0 44:0.0 45:0.0 46:0.0 47:0.0 48:0.0 49:0.0 50:0.0 
1.4541430633462646 1:0.2410974614439037 2:0.0 3:0.14184397163120568 4:0.0 5:0.0 6:0.0 7:0.0 8:0.0 9:0.0 10:0.0 11:0.0 12:0.3001173529261697 13:0.0 14:0.0 15:0.0 16:0.0 17:0.0 18:0.0 19:0.0 20:0.0 21:0.0 22:0.0 23:0.0 24:0.0 25:0.0 26:0.14184397163120568 27:0.0 28:0.0 29:0.0 30:0.0 31:0.0 32:0.0 33:0.0 34:0.0 35:0.0 36:0.0 37:0.0 38:0.0 39:0.0 40:0.0 41:0.0 42:0.14184397163120568 43:0.0 44:0.0 45:0.0 46:0.0 47:0.0 48:0.0 49:0.0 50:0.0 
0.922802655127192 1:0.0 2:0.0 3:0.15 4:0.0 5:0.0 6:0.0 7:0.0 8:0.0 9:0.0 10:0.0 11:0.15 12:0.0 13:0.0 14:0.0 15:0.0 16:0.0 17:0.0 18:0.0 19:0.0 20:0.0 21:0.0 22:0.13380281690140844 23:0.0 24:0.0 25:0.1258741258741259 26:0.0 27:0.1258741258741259 28:0.0 29:0.0 30:0.0 31:0.0 32:0.0 33:0.0 34:0.0 35:0.0 36:0.0 37:0.0 38:0.0 39:0.0 40:0.0 41:0.0 42:0.0 43:0.0 44:0.0 45:0.1263433662230135 46:0.0 47:0.0 48:0.0 49:0.0 50:0.15 
1.421394924073376 1:0.0 2:0.0 3:0.0 4:0.0 5:0.0 6:0.0 7:0.0 8:0.0 9:0.0 10:0.0 11:0.0 12:0.0 13:0.0 14:0.0 15:0.0 16:0.0 17:0.0 18:0.0 19:0.0 20:0.0 21:0.0 22:0.0 23:0.0 24:0.0 25:0.0 26:0.10172076825999524 27:0.0 28:0.0 29:0.0 30:0.0 31:0.0 32:0.0 33:0.0 34:0.15827338129496402 35:0.15 36:0.0 37:0.0 38:0.0 39:0.15 40:0.0 41:0.0 42:0.0 43:0.0 44:0.0 45:0.13380281690140844 46:0.0 47:0.0 48:0.14184397163120568 49:0.0 50:0.16435906191242658 
1.3537305123698902 1:0.15 2:0.0 3:0.0 4:0.0 5:0.0 6:0.0 7:0.0 8:0.0 9:0.0 10:0.0 11:0.0 12:0.0 13:0.0 14:0.0 15:0.0 16:0.0 17:0.0 18:0.14184397163120568 19:0.0 20:0.25808089595253636 21:0.0 22:0.0 23:0.0 24:0.0 25:0.0 26:0.0 27:0.0 28:0.0 29:0.0 30:0.0 31:0.0 32:0.15823116078505237 33:0.0 34:0.0 35:0.0 36:0.0 37:0.0 38:0.0 39:0.0 40:0.0 41:0.0 42:0.2918439716312057 43:0.0 44:0.0 45:0.0 46:0.0 47:0.0 48:0.0 49:0.0 50:0.0 
1.1297774545696064 1:0.0 2:0.15 3:0.0 4:0.15827338129496402 5:0.0 6:0.0 7:0.0 8:0.0 9:0.0 10:0.0 11:0.0 12:0.15827338129496402 13:0.0 14:0.0 15:0.0 16:0.0 17:0.0 18:0.13380281690140844 19:0.15 20:0.0 21:0.0 22:0.0 23:0.0 24:0.14184397163120568 25:0.0 26:0.0 27:0.0 28:0.0 29:0.0 30:0.0 31:0.0 32:0.0 33:0.0 34:0.0 35:0.0 36:0.0 37:0.0 38:0.0 39:0.0 40:0.0 41:0.0 42:0.0 43:0.0 44:0.0 45:0.0 46:0.0 47:0.0 48:0.0 49:0.0 50:0.0 
2.15884753922544 1:0.0 2:0.0 3:0.15 4:0.0 5:0.15 6:0.0 7:0.0 8:0.0 9:0.0 10:0.0 11:0.0 12:0.0 13:0.0 14:0.0 15:0.0 16:0.0 17:0.0 18:0.0 19:0.14184397163120568 20:0.14184397163120568 21:0.0 22:0.0 23:0.0 24:0.0 25:0.0 26:0.09999999999999998 27:0.0 28:0.0 29:0.0 30:0.0 31:0.0 32:0.258590700894896 33:0.0 34:0.0 35:0.0 36:0.0 37:0.0 38:0.0 39:0.0 40:0.0 41:0.0 42:0.0 43:0.0 44:0.0 45:0.0 46:0.0 47:0.0 48:0.0 49:0.0 50:0.0 
1.0609460351959663 1:0.14184397163120568 2:0.1447134453748862 3:0.0 4:0.0 5:0.0 6:0.0 7:0.0 8:0.0 9:0.0 10:0.0 11:0.0 12:0.0 13:0.0 14:0.13380281690140844 15:0.0 16:0.0 17:0.0 18:0.0 19:0.0 20:0.0 21:0.0 22:0.15 23:0.0 24:0.0 25:0.0 26:0.0 27:0.0 28:0.0 29:0.0 30:0.0 31:0.0 32:0.0 33:0.0 34:0.13380281690140844 35:0.0 36:0.0 37:0.0 38:0.0 39:0.13380281690140844 40:0.0 41:0.0 42:0.14184397163120568 43:0.0 44:0.0 45:0.0 46:0.0 47:0.0 48:0.0 49:0.0 50:0.0 
0.23373609341293433 1:0.0 2:0.14184397163120568 3:0.0 4:0.0 5:0.0 6:0.0 7:0.0 8:0.0 9:0.0 10:0.0 11:0.0 12:0.13032153915867875 13:0.0 14:0.0 15:0.0 16:0.0 17:0.0 18:0.0 19:0.0 20:0.0 21:0.0 22:0.0 23:0.0 24:0.0 25:0.0 26:0.0 27:0.15827338129496402 28:0.0 29:0.0 30:0.13380281690140844 31:0.14184397163120568 32:0.0 33:0.0 34:0.0 35:0.0 36:0.0 37:0.0 38:0.0 39:0.0 40:0.0 41:0.0 42:0.0 43:0.0 44:0.0 45:0.0 46:0.0 47:0.15827338129496402 48:0.0 49:0.0 50:0.1356409380875734 
1.7619026663979453 1:0.0 2:0.0 3:0.0 4:0.0 5:0.0 6:0.0 7:0.0 8:0.0 9:0.0 10:0.0 11:0.0 12:0.0 13:0.0 14:0.0 15:0.0 16:0.0 17:0.0 18:0.0 19:0.0 20:0.0 21:0.0 22:0.0 23:0.0 24:0.0 25:0.0 26:0.0 27:0.13380281690140844 28:0.0 29:0.0 30:0.24285777772107253 31:0.0 32:0.0 33:0.0 34:0.0 35:0.0 36:0.0 37:0.0 38:0.0 39:0.14184397163120568 40:0.0 41:0.0 42:0.0 43:0.0 44:0.0 45:0.0 46:0.0 47:0.0 48:0.0 49:0.3 50:0.15 
1.022869765529311 1:0.0 2:0.0 3:0.0 4:0.0 5:0.0 6:0.0 7:0.2918439716312057 8:0.0 9:0.0 10:0.0 11:0.0 12:0.0 13:0.15827338129496402 14:0.0 15:0.15 16:0.0 17:0.0 18:0.0 19:0.0 20:0.0 21:0.0 22:0.0 23:0.0 24:0.0 25:0.0 26:0.0 27:0.0 28:0.0 29:0.0 30:0.0 31:0.0 32:0.0 33:0.12435304011159451 34:0.0 35:0.12552960696223583 36:0.0 37:0.0 38:0.0 39:0.15 40:0.0 41:0.0 42:0.0 43:0.0 44:0.0 45:0.0 46:0.0 47:0.0 48:0.0 49:0.0 50:0.0 
1.25372627318761 1:0.0 2:0.14184397163120568 3:0.0 4:0.0 5:0.0 6:0.0 7:0.0 8:0.0 9:0.0 10:0.0 11:0.0 12:0.0 13:0.0 14:0.0 15:0.15827338129496402 16:0.0 17:0.0 18:0.0 19:0.0 20:0.0 21:0.0 22:0.15827338129496402 23:0.0 24:0.0 25:0.0 26:0.0 27:0.0 28:0.0 29:0.0 30:0.0 31:0.1357982035922736 32:0.0 33:0.0 34:0.0 35:0.0 36:0.0 37:0.0 38:0.0 39:0.0 40:0.0 41:0.0 42:0.0 43:0.15 44:0.0 45:0.0 46:0.0 47:0.0 48:0.0 49:0.15 50:0.10581106218659259 
0.8391951206709543 1:0.0 2:0.0 3:0.2918439716312057 4:0.0 5:0.0 6:0.0 7:0.0 8:0.0 9:0.0 10:0.0 11:0.15 12:0.0 13:0.0 14:0.0 15:0.0 16:0.0 17:0.0 18:0.0 19:0.0 20:0.0 21:0.0 22:0.0 23:0.0 24:0.0 25:0.0 26:0.0 27:0.15827338129496402 28:0.0 29:0.0 30:0.0 31:0.0 32:0.0 33:0.0 34:0.0 35:0.0 36:0.0 37:0.0 38:0.0 39:0.0 40:0.0 41:0.0 42:0.0 43:0.0 44:0.0 45:0.0 46:0.15 47:0.0 48:0.0 49:0.0 50:0.15 
0.0684523101328253 1:0.0 2:0.0 3:0.14184397163120568 4:0.0 5:0.0 6:0.0 7:0.0 8:0.0 9:0.0 10:0.0 11:0.0 12:0.0 13:0.0 14:0.0 15:0.0 16:0.0 17:0.15827338129496402 18:0.13380281690140844 19:0.0 20:0.0 21:0.0 22:0.15 23:0.0 24:0.0 25:0.0 26:0.0 27:0.13380281690140844 28:0.0 29:0.0 30:0.0 31:0.0 32:0.0 33:0.11290813240286476 34:0.0 35:0.0 36:0.0 37:0.14184397163120568 38:0.0 39:0.0 40:0.0 41:0.0 42:0.0 43:0.0 44:0.0 45:0.0 46:0.0 47:0.0 48:0.0 49:0.0 50:0.0 
1.2187045891081394 1:0.0 2:0.0 3:0.0 4:0.0 5:0.0 6:0.0 7:0.0 8:0.0 9:0.0 10:0.15 11:0.0 12:0.0 13:0.0 14:0.0 15:0.0 16:0.0 17:0.0 18:0.0 19:0.0 20:0.0 21:0.0 22:0.0 23:0.0 24:0.15827338129496402 25:0.0 26:0.0 27:0.0 28:0.0 29:0.0 30:0.0 31:0.0 32:0.2838028169014084 33:0.0 34:0.0 35:0.0 36:0.14184397163120568 37:0.06780059843241715 38:0.0 39:0.0 40:0.0 41:0.0 42:0.0 43:0.0 44:0.0 45:0.0 46:0.0 47:0.15 48:0.0 49:0.0 50:0.0 
1.0742221832860912 1:0.0 2:0.0 3:0.0 4:0.0 5:0.0 6:0.0 7:0.0 8:0.0 9:0.0 10:0.0 11:0.0 12:0.0 13:0.0 14:0.14184397163120568 15:0.0 16:0.0 17:0.0 18:0.0 19:0.0 20:0.1104133154282774 21:0.0 22:0.0 23:0.0 24:0.0 25:0.0 26:0.0 27:0.0 28:0.0 29:0.14184397163120568 30:0.0 31:0.0 32:0.0 33:0.0 34:0.0 35:0.17221079804689993 36:0.0 37:0.0 38:0.0 39:0.0 40:0.0 41:0.0 42:0.0 43:0.15 44:0.0 45:0.14184397163120568 46:0.14184397163120568 47:0.0 48:0.0 49:0.0 50:0.0 
0.9237115829225241 1:0.0 2:0.0 3:0.0 4:0.14184397163120568 5:0.0 6:0.0 7:0.0 8:0.0 9:0.0 10:0.0 11:0.0 12:0.0 13:0.0 14:0.24764635093071694 15:0.0 16:0.0 17:0.0 18:0.0 19:0.0 20:0.13380281690140844 21:0.14184397163120568 22:0.051174945643052056 23:0.0 24:0.0 25:0.0 26:0.0 27:0.0 28:0.0 29:0.0 30:0.0 31:0.0 32:0.0 33:0.0 34:0.0 35:0.0 36:0.0 37:0.0 38:0.0 39:0.0 40:0.0 41:0.0 42:0.0 43:0.0 44:0.0 45:0.14184397163120568 46:0.0 47:0.0 48:0.14184397163120568 49:0.0 50:0.0 
1.0262660302627449 1:0.0 2:0.0 3:0.0 4:0.0 5:0.0 6:0.0 7:0.0 8:0.0 9:0.15 10:0.0 11:0.0 12:0.0 13:0.0 14:0.0 15:0.0 16:0.0 17:0.0 18:0.0 19:0.0 20:0.0 21:0.0 22:0.0 23:0.0 24:0.0 25:0.0 26:0.0 27:0.0 28:0.0 29:0.0 30:0.0 31:0.1254769610154838 32:0.0 33:0.0 34:0.13380281690140844 35:0.15 36:0.0 37:0.0 38:0.0 39:0.0 40:0.0 41:0.0 42:0.0 43:0.14184397163120568 44:0.0 45:0.0 46:0.0 47:0.0 48:0.0 49:0.0 50:0.27564678853261415 
0.48172094541748234 1:0.18189549555654058 2:0.15 3:0.14184397163120568 4:0.0 5:0.0 6:0.0 7:0.0 8:0.0 9:0.0 10:0.0 11:0.0 12:0.0 13:0.0 14:0.14184397163120568 15:0.0 16:0.0 17:0.0 18:0.0 19:0.0 20:0.0 21:0.0 22:0.0 23:0.0 24:0.0 25:0.0 26:0.0 27:0.0 28:0.0 29:0.0 30:0.0 31:0.0 32:0.0 33:0.10072861791863669 34:0.0 35:0.0 36:0.0 37:0.0 38:0.0 39:0.0 40:0.14184397163120568 41:0.14184397163120568 42:0.0 43:0.0 44:0.0 45:0.0 46:0.0 47:0.0 48:0.0 49:0.0 50:0.0 
1.004794618108419 1:0.0760814610587158 2:0.0 3:0.0 4:0.0 5:0.0 6:0.0 7:0.0 8:0.0 9:0.0 10:0.0 11:0.0 12:0.14184397163120568 13:0.0 14:0.0 15:0.0 16:0.0 17:0.0 18:0.0 19:0.0 20:0.0 21:0.0 22:0.0 23:0.0 24:0.0 25:0.0 26:0.0 27:0.0 28:0.0 29:0.15 30:0.0 31:0.0 32:0.0 33:0.0 34:0.0 35:0.0 36:0.0 37:0.0 38:0.0 39:0.0 40:0.0 41:0.0 42:0.0 43:0.15 44:0.0 45:0.0 46:0.0 47:0.2838028169014084 48:0.14184397163120568 49:0.0 50:0.0 
0.3045892099400337 1:0.0 2:0.0 3:0.0 4:0.0 5:0.0 6:0.0 7:0.0 8:0.0 9:0.15 10:0.0 11:0.0 12:0.0 13:0.0 14:0.0 15:0.0 16:0.0 17:0.0 18:0.0 19:0.0 20:0.0 21:0.0 22:0.0 23:0.0 24:0.0 25:0.0 26:0.15 27:0.0 28:0.0 29:0.0 30:0.0 31:0.14184397163120568 32:0.0 33:0.0 34:0.0 35:0.0 36:0.0 37:0.21600221846899129 38:0.0 39:0.0 40:0.0 41:0.0 42:0.0 43:0.0 44:0.0 45:0.0 46:0.15827338129496402 47:0.0 48:0.0 49:0.0 50:0.15827338129496402 
1.692403809807578 1:0.0 2:0.0 3:0.0 4:0.0 5:0.0 6:0.0 7:0.0 8:0.0 9:0.2394963673588017 10:0.0 11:0.0 12:0.0 13:0.0 14:0.0 15:0.0 16:0.0 17:0.0 18:0.0 19:0.0 20:0.0 21:0.0 22:0.0 23:0.0 24:0.15827338129496402 25:0.0 26:0.14184397163120568 27:0.0 28:0.0 29:0.0 30:0.0 31:0.0 32:0.0 33:0.0 34:0.0 35:0.0 36:0.13380281690140844 37:0.0 38:0.0 39:0.0 40:0.0 41:0.10129357706522821 42:0.14184397163120568 43:0.0 44:0.0 45:0.0 46:0.0 47:0.0 48:0.0 49:0.0 50:0.0 
0.45314792745073945 1:0.0 2:0.15 3:0.0 4:0.0 5:0.0 6:0.15 7:0.0 8:0.0 9:0.0 10:0.0 11:0.0 12:0.0 13:0.0 14:0.0 15:0.0 16:0.26831962580328944 17:0.0 18:0.0 19:0.0 20:0.0 21:0.0 22:0.0 23:0.0 24:0.0 25:0.0 26:0.0 27:0.0 28:0.0 29:0.14184397163120568 30:0.0 31:0.0 32:0.0 33:0.0 34:0.0 35:0.13380281690140844 36:0.0 37:0.0 38:0.0 39:0.0 40:0.0 41:0.0 42:0.0 43:0.0 44:0.0 45:0.1258741258741259 46:0.0 47:0.0 48:0.0 49:0.0 50:0.0 
0.21565828645065102 1:0.0 2:0.0 3:0.19858637338311563 4:0.0 5:0.0 6:0.14184397163120568 7:0.0 8:0.0 9:0.0 10:0.0 11:0.0 12:0.08392286645306457 13:0.0 14:0.0 15:0.0 16:0.0 17:0.0 18:0.0 19:0.0 20:0.0 21:0.0 22:0.0 23:0.0 24:0.0 25:0.0 26:0.0 27:0.0 28:0.0 29:0.15 30:0.0 31:0.14184397163120568 32:0.0 33:0.0 34:0.0 35:0.15 36:0.0 37:0.0 38:0.0 39:0.0 40:0.0 41:0.0 42:0.0 43:0.0 44:0.0 45:0.0 46:0.13380281690140844 47:0.0 48:0.0 49:0.0 50:0.0 
0.8276904009971617 1:0.10624329390103601 2:0.0 3:0.0 4:0.0 5:0.0 6:0.0 7:0.0 8:0.0 9:0.0 10:0.0 11:0.0 12:0.0 13:0.0 14:0.0 15:0.0 16:0.14184397163120568 17:0.0 18:0.0 19:0.0 20:0.0 21:0.14184397163120568 22:0.13380281690140844 23:0.0 24:0.0 25:0.0 26:0.0 27:0.0 28:0.0 29:0.0 30:0.0 31:0.0 32:0.0 33:0.0 34:0.0 35:0.0 36:0.0 37:0.0 38:0.0 39:0.0 40:0.0 41:0.0 42:0.0 43:0.0 44:0.0 45:0.2838028169014084 46:0.14184397163120568 47:0.0 48:0.0 49:0.0 50:0.0 
1.1399998089631476 1:0.0 2:0.0 3:0.15 4:0.0 5:0.0 6:0.0 7:0.0 8:0.0 9:0.0 10:0.0 11:0.0 12:0.0 13:0.0 14:0.0 15:0.0 16:0.0 17:0.0 18:0.12097110531924771 19:0.2636126562429312 20:0.0 21:0.0 22:0.0 23:0.0 24:0.15 25:0.0 26:0.0 27:0.0 28:0.0 29:0.0 30:0.0 31:0.0 32:0.0 33:0.0 34:0.0 35:0.0 36:0.0 37:0.15 38:0.0 39:0.0 40:0.0 41:0.0 42:0.0 43:0.0 44:0.0 45:0.0 46:0.0 47:0.0 48:0.0 49:0.0 50:0.15 
2.445236329808805 1:0.0 2:0.0 3:0.0 4:0.0 5:0.0 6:0.0 7:0.0 8:0.0 9:0.0 10:0.0 11:0.15827338129496402 12:0.0 13:0.0 14:0.0 15:0.0 16:0.0 17:0.0 18:0.0 19:0.2446360510097696 20:0.0 21:0.13380281690140844 22:0.0 23:0.0 24:0.0 25:0.0 26:0.0 27:0.0 28:0.0 29:0.0 30:0.0 31:0.0 32:0.0 33:0.0 34:0.0 35:0.0 36:0.0 37:0.0 38:0.0 39:0.0 40:0.0 41:0.0 42:0.2918439716312057 43:0.0 44:0.0 45:0.0 46:0.0 47:0.0 48:0.13380281690140844 49:0.0 50:0.0 
1.1376184633145043 1:0.0 2:0.0 3:0.0 4:0.0 5:0.0 6:0.15 7:0.0 8:0.0 9:0.0 10:0.0 11:0.0 12:0.0 13:0.0 14:0.0 15:0.20792252330762098 16:0.15 17:0.0 18:0.0 19:0.13380281690140844 20:0.0 21:0.0 22:0.09066902598815363 23:0.0 24:0.0 25:0.0 26:0.0 27:0.0 28:0.0 29:0.0 30:0.0 31:0.0 32:0.0 33:0.0 34:0.0 35:0.0 36:0.0 37:0.0 38:0.0 39:0.0 40:0.0 41:0.0 42:0.13380281690140844 43:0.0 44:0.0 45:0.0 46:0.0 47:0.0 48:0.13380281690140844 49:0.0 50:0.0 
0.5241585110253068 1:0.0 2:0.0 3:0.0 4:0.15 5:0.0 6:0.0 7:0.15827338129496402 8:0.0 9:0.0 10:0.0 11:0.0 12:0.0 13:0.0 14:0.0 15:0.0 16:0.0 17:0.0 18:0.0 19:0.14184397163120568 20:0.0 21:0.0 22:0.0 23:0.0 24:0.0 25:0.0 26:0.0 27:0.10057922476422962 28:0.0 29:0.0 30:0.0 31:0.15 32:0.0 33:0.0 34:0.0 35:0.0 36:0.0 37:0.0 38:0.0 39:0.0 40:0.13380281690140844 41:0.0 42:0.0 43:0.0 44:0.0 45:0.16550060540819217 46:0.0 47:0.0 48:0.0 49:0.0 50:0.0 
0.28670061531970437 1:0.0 2:0.0 3:0.0 4:0.0 5:0.0 6:0.0 7:0.0 8:0.0 9:0.0 10:0.15 11:0.0 12:0.0 13:0.0 14:0.0 15:0.0 16:0.0 17:0.0 18:0.0 19:0.0 20:0.0 21:0.0 22:0.0 23:0.0 24:0.0 25:0.0 26:0.0 27:0.14184397163120568 28:0.0 29:0.11805555555555555 30:0.14184397163120568 31:0.0 32:0.0 33:0.0 34:0.0 35:0.14095171910497897 36:0.0 37:0.0 38:0.0 39:0.1258741258741259 40:0.0 41:0.0 42:0.0 43:0.0 44:0.0 45:0.0 46:0.0 47:0.15 48:0.0 49:0.0 50:0.0 
0.786248456955745 1:0.0 2:0.0 3:0.0 4:0.0 5:0.0 6:0.0 7:0.0 8:0.0 9:0.0 10:0.27564678853261415 11:0.0 12:0.0 13:0.0 14:0.0 15:0.0 16:0.0 17:0.0 18:0.0 19:0.0 20:0.0 21:0.0 22:0.0 23:0.0 24:0.0 25:0.0 26:0.2 27:0.0 28:0.0 29:0.0 30:0.0 31:0.15 32:0.0 33:0.0 34:0.0 35:0.0 36:0.0 37:0.0 38:0.0 39:0.0 40:0.14184397163120568 41:0.03250923983618023 42:0.0 43:0.0 44:0.0 45:0.2 46:0.0 47:0.0 48:0.0 49:0.0 50:0.0 
1.4455565854478882 1:0.0 2:0.0 3:0.0 4:0.0 5:0.0 6:0.0 7:0.0 8:0.0 9:0.0 10:0.0 11:0.0 12:0.0 13:0.0 14:0.0 15:0.0 16:0.0 17:0.28368794326241137 18:0.13380281690140844 19:0.0 20:0.0 21:0.0 22:0.0 23:0.0 24:0.0 25:0.0 26:0.0 27:0.0 28:0.14184397163120568 29:0.0 30:0.0 31:0.0 32:0.0 33:0.0 34:0.0 35:0.0 36:0.0 37:0.0 38:0.0 39:0.09943567585613489 40:0.1258741258741259 41:0.0 42:0.0 43:0.14184397163120568 44:0.0 45:0.0 46:0.0 47:0.07351149484350814 48:0.0 49:0.0 50:0.0 
1.024539411626604 1:0.0 2:0.0 3:0.0 4:0.0 5:0.0 6:0.0 7:0.0 8:0.0 9:0.0 10:0.0 11:0.0 12:0.0 13:0.0 14:0.0 15:0.07233279141727694 16:0.0 17:0.0 18:0.0 19:0.0 20:0.0 21:0.0 22:0.0 23:0.0 24:0.0 25:0.0 26:0.14184397163120568 27:0.0 28:0.0 29:0.0 30:0.0 31:0.0 32:0.0 33:0.0 34:0.0 35:0.13380281690140844 36:0.0 37:0.0 38:0.0 39:0.0 40:0.0 41:0.0 42:0.0 43:0.0 44:0.0 45:0.0 46:0.43368794326241134 47:0.0 48:0.0 49:0.14184397163120568 50:0.0 
0.33817730117529804 1:0.0 2:0.0 3:0.0 4:0.0 5:0.0 6:0.0 7:0.0 8:0.15 9:0.0 10:0.0 11:0.0 12:0.0 13:0.0 14:0.0 15:0.0 16:0.0 17:0.15 18:0.0 19:0.13380281690140844 20:0.0 21:0.0 22:0.15827338129496402 23:0.0 24:0.0 25:0.0 26:0.0 27:0.14184397163120568 28:0.0 29:0.0 30:0.0 31:0.0 32:0.0 33:0.0 34:0.0 35:0.0 36:0.0 37:0.11535903531315797 38:0.0 39:0.0 40:0.0 41:0.0 42:0.0 43:0.0 44:0.0 45:0.0 46:0.0 47:0.14184397163120568 48:0.0 49:0.0 50:0.0 
1.0388037501364686 1:0.0 2:0.0 3:0.0 4:0.0 5:0.0 6:0.0 7:0.0 8:0.0 9:0.0 10:0.0 11:0.0 12:0.0 13:0.0 14:0.0 15:0.15 16:0.15827338129496402 17:0.0 18:0.0 19:0.0 20:0.0 21:0.1258741258741259 22:0.0 23:0.0 24:0.0 25:0.0 26:0.2740085211997043 27:0.0 28:0.0 29:0.0 30:0.0 31:0.0 32:0.0 33:0.0 34:0.0 35:0.0 36:0.0 37:0.0 38:0.0 39:0.14184397163120568 40:0.0 41:0.0 42:0.0 43:0.0 44:0.0 45:0.0 46:0.15 47:0.0 48:0.0 49:0.0 50:0.0 
0.6101915322190984 1:0.0 2:0.0 3:0.0 4:0.14184397163120568 5:0.3399331497731601 6:0.0 7:0.0 8:0.0 9:0.0 10:0.0 11:0.0 12:0.0 13:0.0 14:0.0 15:0.0 16:0.0 17:0.0 18:0.0 19:0.0 20:0.0 21:0.0 22:0.0 23:0.0 24:0.14184397163120568 25:0.0 26:0.0 27:0.14184397163120568 28:0.0 29:0.0 30:0.0 31:0.0 32:0.0 33:0.0 34:0.0 35:0.0 36:0.0 37:0.0 38:0.0 39:0.0 40:0.0 41:0.0 42:0.0 43:0.0 44:0.13380281690140844 45:0.0 46:0.0 47:0.0 48:0.0 49:0.0 50:0.0 
0.6048146439991011 1:0.0 2:0.07171211635099217 3:0.14184397163120568 4:0.0 5:0.0 6:0.15 7:0.0 8:0.0 9:0.09319148968237123 10:0.0 11:0.0 12:0.0 13:0.0 14:0.0 15:0.0 16:0.0 17:0.0 18:0.0 19:0.0 20:0.0 21:0.0 22:0.0 23:0.0 24:0.0 25:0.0 26:0.0 27:0.14184397163120568 28:0.0 29:0.0 30:0.13380281690140844 31:0.0 32:0.0 33:0.0 34:0.0 35:0.0 36:0.0 37:0.13380281690140844 38:0.0 39:0.0 40:0.0 41:0.0 42:0.0 43:0.0 44:0.0 45:0.0 46:0.0 47:0.0 48:0.13380281690140844 49:0.0 50:0.0 
0.5373493797895919 1:0.0 2:0.0 3:0.0 4:0.0 5:0.0 6:0.0 7:0.15 8:0.0 9:0.0 10:0.0 11:0.0 12:0.0 13:0.0 14:0.0 15:0.0 16:0.0 17:0.0 18:0.14184397163120568 19:0.09628401640493092 20:0.0 21:0.0 22:0.0 23:0.0 24:0.0 25:0.0 26:0.0 27:0.0 28:0.0 29:0.15827338129496402 30:0.0 31:0.0 32:0.0 33:0.13380281690140844 34:0.0 35:0.0 36:0.0 37:0.0 38:0.0 39:0.0 40:0.0 41:0.0 42:0.0 43:0.0 44:0.0 45:0.0 46:0.0 47:0.14184397163120568 48:0.0 49:0.15827338129496402 50:0.0 
0.7513035476555489 1:0.0 2:0.0 3:0.0 4:0.0 5:0.0 6:0.0 7:0.0 8:0.0 9:0.0 10:0.0 11:0.0 12:0.0 13:0.0 14:0.0 15:0.0 16:0.0 17:0.0 18:0.14184397163120568 19:0.0 20:0.0 21:0.0 22:0.0 23:0.0 24:0.0 25:0.0 26:0.28368794326241137 27:0.0 28:0.0 29:0.14184397163120568 30:0.14184397163120568 31:0.0 32:0.0 33:0.0 34:0.0 35:0.0 36:0.2206482865637582 37:0.0 38:0.0 39:0.0 40:0.0 41:0.0 42:0.0 43:0.0 44:0.0 45:0.0 46:0.0 47:0.0 48:0.0 49:0.0 50:0.0 
0.35775086031311537 1:0.0 2:0.0 3:0.14184397163120568 4:0.0 5:0.0 6:0.0 7:0.0 8:0.0 9:0.0 10:0.0 11:0.0 12:0.0 13:0.0 14:0.0 15:0.0 16:0.0 17:0.0 18:0.14184397163120568 19:0.14184397163120568 20:0.14184397163120568 21:0.0 22:0.11438684312405559 23:0.0 24:0.0 25:0.0 26:0.0 27:0.0 28:0.0 29:0.0 30:0.0 31:0.0 32:0.0 33:0.0 34:0.0 35:0.0 36:0.0 37:0.0 38:0.0 39:0.14184397163120568 40:0.0 41:0.0 42:0.0 43:0.0 44:0.0 45:0.0 46:0.0 47:0.13380281690140844 48:0.0 49:0.0 50:0.0 
0.9737761307922529 1:0.0 2:0.0 3:0.15 4:0.0 5:0.0 6:0.0 7:0.0 8:0.0 9:0.0 10:0.07261496201745365 11:0.0 12:0.0 13:0.0 14:0.0 15:0.0 16:0.15 17:0.0 18:0.13380281690140844 19:0.0 20:0.14184397163120568 21:0.0 22:0.0 23:0.0 24:0.0 25:0.0 26:0.0 27:0.0 28:0.0 29:0.0 30:0.0 31:0.0 32:0.0 33:0.0 34:0.0 35:0.0 36:0.0 37:0.0 38:0.0 39:0.28368794326241137 40:0.0 41:0.0 42:0.0 43:0.0 44:0.0 45:0.0 46:0.0 47:0.0 48:0.0 49:0.0 50:0.0 
2.1346335376466046 1:0.0 2:0.0 3:0.0 4:0.0 5:0.0 6:0.0 7:0.0 8:0.0 9:0.3 10:0.0 11:0.0 12:0.0 13:0.0 14:0.0 15:0.0 16:0.0 17:0.0 18:0.0 19:0.0 20:0.15 21:0.0 22:0.0 23:0.0 24:0.09459609244871653 25:0.0 26:0.0 27:0.0 28:0.0 29:0.0 30:0.0 31:0.0 32:0.0 33:0.0 34:0.0 35:0.0 36:0.0 37:0.14184397163120568 38:0.0 39:0.0 40:0.0 41:0.0 42:0.0 43:0.0 44:0.0 45:0.0 46:0.0 47:0.0 48:0.15 49:0.15 50:0.0 
0.597773691883733 1:0.0 2:0.0 3:0.0 4:0.0 5:0.0 6:0.0 7:0.0 8:0.0 9:0.0 10:0.0 11:0.0 12:0.0 13:0.0 14:0.0 15:0.0 16:0.0 17:0.0 18:0.1249259936733502 19:0.0 20:0.0 21:0.14184397163120568 22:0.0 23:0.0 24:0.14184397163120568 25:0.0 26:0.0 27:0.0 28:0.0 29:0.0 30:0.13380281690140844 31:0.0 32:0.0 33:0.13380281690140844 34:0.0 35:0.13380281690140844 36:0.0 37:0.0 38:0.0 39:0.0 40:0.0 41:0.15 42:0.0 43:0.0 44:0.0 45:0.0 46:0.0 47:0.0 48:0.0 49:0.0 50:0.0 
0.25027615739134684 1:0.0 2:0.0 3:0.0 4:0.0 5:0.14184397163120568 6:0.0 7:0.13380281690140844 8:0.0 9:0.0 10:0.0 11:0.0 12:0.0 13:0.0 14:0.0 15:0.0 16:0.0 17:0.0 18:0.14184397163120568 19:0.0 20:0.0 21:0.0 22:0.0 23:0.0 24:0.0 25:0.0 26:0.0 27:0.0 28:0.0 29:0.0 30:0.0 31:0.0 32:0.0 33:0.0 34:0.0 35:0.0 36:0.0 37:0.0 38:0.0 39:0.0 40:0.0 41:0.0 42:0.0 43:0.0 44:0.0 45:0.0 46:0.3004694835680751 47:0.0 48:0.0 49:0.0 50:0.15 
0.7093934406336563 1:0.0 2:0.0 3:0.0 4:0.0 5:0.0 6:0.0 7:0.0 8:0.12929262493122454 9:0.15827338129496402 10:0.0 11:0.0 12:0.0 13:0.0 14:0.0 15:0.12047266921643604 16:0.15827338129496402 17:0.0 18:0.0 19:0.0 20:0.0 21:0.0 22:0.0 23:0.0 24:0.0 25:0.0 26:0.0 27:0.15 28:0.0 29:0.0 30:0.0 31:0.0 32:0.0 33:0.0 34:0.0 35:0.0 36:0.0 37:0.0 38:0.0 39:0.14184397163120568 40:0.0 41:0.0 42:0.0 43:0.0 44:0.0 45:0.14184397163120568 46:0.0 47:0.0 48:0.0 49:0.0 50:0.0 
0.7312786017687439 1:0.0 2:0.0 3:0.0 4:0.0 5:0.0 6:0.0 7:0.0 8:0.0 9:0.0 10:0.0 11:0.0 12:0.0 13:0.0 14:0.0 15:0.0 16:0.14184397163120568 17:0.0 18:0.14184397163120568 19:0.0 20:0.0 21:0.0 22:0.1291279449331744 23:0.0 24:0.0 25:0.0 26:0.15827338129496402 27:0.0 28:0.0 29:0.14184397163120568 30:0.0 31:0.14184397163120568 32:0.14184397163120568 33:0.0 34:0.0 35:0.0 36:0.0 37:0.0 38:0.0 39:0.0 40:0.0 41:0.0 42:0.0 43:0.0 44:0.0 45:0.0 46:0.0 47:0.0 48:0.0 49:0.0 50:0.0 
0.47403027279693577 1:0.13380281690140844 2:0.0 3:0.0 4:0.0 5:0.15 6:0.0 7:0.0 8:0.0 9:0.0 10:0.0 11:0.0 12:0.0 13:0.0 14:0.0 15:0.0 16:0.0 17:0.0 18:0.0 19:0.0 20:0.0 21:0.0 22:0.28368794326241137 23:0.0 24:0.0 25:0.0 26:0.0 27:0.0 28:0.15 29:0.0 30:0.0 31:0.0 32:0.0 33:0.0 34:0.0 35:0.0 36:0.0 37:0.0 38:0.0 39:0.14184397163120568 40:0.0 41:0.0 42:0.0 43:0.0 44:0.0 45:0.0 46:0.0 47:0.0 48:0.0 49:0.0 50:0.0 
0.7031343223940605 1:0.0 2:0.0 3:0.0 4:0.0 5:0.0 6:0.0 7:0.0 8:0.0 9:0.20680851031762876 10:0.0 11:0.0 12:0.0 13:0.0 14:0.0 15:0.0 16:0.14184397163120568 17:0.0 18:0.0 19:0.0 20:0.0 21:0.10005394098593728 22:0.0 23:0.13380281690140844 24:0.0 25:0.0 26:0.14184397163120568 27:0.0 28:0.13380281690140844 29:0.0 30:0.0 31:0.0 32:0.0 33:0.0 34:0.0 35:0.0 36:0.0 37:0.0 38:0.0 39:0.0 40:0.0 41:0.0 42:0.0 43:0.0 44:0.0 45:0.0 46:0.0 47:0.0 48:0.0 49:0.0 50:0.14184397163120568 
1.7377337084476925 1:0.0 2:0.0 3:0.0 4:0.0 5:0.0 6:0.0 7:0.0 8:0.0 9:0.0 10:0.0 11:0.15 12:0.0 13:0.0 14:0.0 15:0.0 16:0.0 17:0.0 18:0.0 19:0.0 20:0.0 21:0.14285714285714285 22:0.0 23:0.0 24:0.0 25:0.0 26:0.10246717392949062 27:0.0 28:0.0 29:0.0 30:0.0 31:0.14184397163120568 32:0.0 33:0.0 34:0.0 35:0.0 36:0.0 37:0.0 38:0.0 39:0.0 40:0.0 41:0.0 42:0.0 43:0.0 44:0.0 45:0.0 46:0.15 47:0.0 48:0.13380281690140844 49:0.0 50:0.15 
1.2751223139604981 1:0.0 2:0.0 3:0.0 4:0.0 5:0.0 6:0.0 7:0.0 8:0.0 9:0.0 10:0.14184397163120568 11:0.0 12:0.0 13:0.15 14:0.0 15:0.13380281690140844 16:0.0 17:0.0 18:0.13380281690140844 19:0.27564678853261415 20:0.0 21:0.0 22:0.0 23:0.0 24:0.0 25:0.0 26:0.0 27:0.0 28:0.1258741258741259 29:0.0 30:0.0 31:0.0 32:0.0 33:0.0 34:0.0 35:0.0 36:0.0 37:0.0 38:0.0 39:0.0 40:0.0 41:0.0 42:0.0 43:0.0 44:0.0 45:0.0 46:0.0 47:0.0 48:0.0 49:0.0 50:0.0 
0.7940085914450158 1:0.0 2:0.0 3:0.15 4:0.13380281690140844 5:0.0 6:0.0 7:0.0 8:0.0 9:0.14294754264117876 10:0.0 11:0.0 12:0.13380281690140844 13:0.0 14:0.0 15:0.0 16:0.0 17:0.0 18:0.0 19:0.0 20:0.0 21:0.0 22:0.0 23:0.0 24:0.0 25:0.0 26:0.0 27:0.0 28:0.13380281690140844 29:0.15 30:0.14184397163120568 31:0.0 32:0.0 33:0.0 34:0.0 35:0.0 36:0.0 37:0.0 38:0.0 39:0.0 40:0.0 41:0.0 42:0.0 43:0.0 44:0.0 45:0.0 46:0.0 47:0.0 48:0.0 49:0.0 50:0.0 
2.5974059989214586 1:0.0 2:0.0 3:0.0 4:0.0 5:0.0 6:0.0 7:0.0 8:0.0 9:0.0 10:0.0 11:0.0 12:0.15 13:0.0 14:0.0 15:0.0 16:0.0 17:0.15827338129496402 18:0.0 19:0.0 20:0.0 21:0.0 22:0.0 23:0.0 24:0.14184397163120568 25:0.0 26:0.0 27:0.0 28:0.0 29:0.15827338129496402 30:0.0 31:0.0 32:0.15827338129496402 33:0.0 34:0.0 35:0.0 36:0.0 37:0.0 38:0.0 39:0.0 40:0.0 41:0.0 42:0.0 43:0.0 44:0.0 45:0.0 46:0.0 47:0.0 48:0.0 49:0.15 50:0.0 
1.9334254642928004 1:0.14184397163120568 2:0.15 3:0.0 4:0.0 5:0.0 6:0.0 7:0.0 8:0.0 9:0.0 10:0.0 11:0.0 12:0.0 13:0.0 14:0.0 15:0.0 16:0.15 17:0.0 18:0.0 19:0.0 20:0.0 21:0.0 22:0.0 23:0.0 24:0.0 25:0.0 26:0.0 27:0.0 28:0.14184397163120568 29:0.0 30:0.0 31:0.0 32:0.0 33:0.0 34:0.0 35:0.0 36:0.0 37:0.0 38:0.0 39:0.0 40:0.0 41:0.0 42:0.0 43:0.15 44:0.0 45:0.0 46:0.08541619285374125 47:0.0 48:0.14184397163120568 49:0.0 50:0.0 
0.4764910834918075 1:0.0 2:0.0 3:0.0 4:0.0 5:0.0 6:0.2677180975053316 7:0.0 8:0.0 9:0.0 10:0.0 11:0.0 12:0.0 13:0.0 14:0.0 15:0.0 16:0.0 17:0.0 18:0.0 19:0.0 20:0.0 21:0.0 22:0.0 23:0.0 24:0.14184397163120568 25:0.0 26:0.0 27:0.28368794326241137 28:0.0 29:0.15 30:0.0 31:0.0 32:0.0 33:0.0 34:0.0 35:0.0 36:0.0 37:0.0 38:0.0 39:0.0 40:0.0 41:0.0 42:0.0 43:0.0 44:0.0 45:0.13380281690140844 46:0.0 47:0.0 48:0.0 49:0.0 50:0.0 
0.6428400309684753 1:0.0 2:0.0 3:0.0 4:0.0 5:0.0 6:0.0 7:0.0 8:0.0 9:0.0 10:0.0 11:0.0 12:0.0 13:0.0 14:0.0 15:0.0 16:0.0 17:0.0 18:0.0 19:0.0 20:0.0 21:0.0 22:0.10186635927119264 23:0.0 24:0.0 25:0.0 26:0.0 27:0.14184397163120568 28:0.0 29:0.0 30:0.0 31:0.28368794326241137 32:0.0 33:0.0 34:0.0 35:0.0 36:0.0 37:0.14184397163120568 38:0.0 39:0.0 40:0.0 41:0.0 42:0.0 43:0.0 44:0.0 45:0.14184397163120568 46:0.14184397163120568 47:0.0 48:0.0 49:0.0 50:0.0 
0.5497902473960463 1:0.0 2:0.14184397163120568 3:0.0 4:0.0 5:0.0 6:0.0 7:0.14184397163120568 8:0.0 9:0.0 10:0.0 11:0.0 12:0.14184397163120568 13:0.0 14:0.0 15:0.0 16:0.0 17:0.0 18:0.0 19:0.0 20:0.0 21:0.0 22:0.0 23:0.0 24:0.0 25:0.0 26:0.0 27:0.0 28:0.0 29:0.0 30:0.0 31:0.13380281690140844 32:0.0 33:0.0 34:0.0 35:0.0 36:0.0 37:0.0 38:0.0 39:0.14184397163120568 40:0.0 41:0.0 42:0.0 43:0.0 44:0.0 45:0.0 46:0.14184397163120568 47:0.0 48:0.0 49:0.0 50:0.0 
0.4020660738624846 1:0.0 2:0.0 3:0.0 4:0.08932407737886161 5:0.0 6:0.0 7:0.0 8:0.0 9:0.0 10:0.0 11:0.0 12:0.2918439716312057 13:0.0 14:0.0 15:0.0 16:0.0 17:0.0 18:0.15 19:0.0 20:0.0 21:0.0 22:0.0 23:0.0 24:0.0 25:0.0 26:0.0 27:0.0 28:0.14184397163120568 29:0.15 30:0.0 31:0.0 32:0.0 33:0.0 34:0.0 35:0.0 36:0.0 37:0.14184397163120568 38:0.0 39:0.0 40:0.0 41:0.0 42:0.0 43:0.0 44:0.0 45:0.0 46:0.0 47:0.0 48:0.0 49:0.0 50:0.0 
0.46974330768319317 1:0.0 2:0.0 3:0.0 4:0.0 5:0.0 6:0.0 7:0.0 8:0.0 9:0.0 10:0.0 11:0.0 12:0.0 13:0.0 14:0.0 15:0.0 16:0.0 17:0.0 18:0.0 19:0.0 20:0.0 21:0.0 22:0.0 23:0.0 24:0.0 25:0.0 26:0.14184397163120568 27:0.0 28:0.0 29:0.0 30:0.0 31:0.15 32:0.14184397163120568 33:0.0 34:0.0 35:0.0 36:0.0 37:0.0 38:0.0 39:0.0 40:0.0 41:0.0 42:0.0 43:0.0 44:0.0 45:0.07563920268347277 46:0.15827338129496402 47:0.2918439716312057 48:0.0 49:0.0 50:0.0 
0.2955417897656657 1:0.0 2:0.0 3:0.0 4:0.0 5:0.0 6:0.0 7:0.14184397163120568 8:0.0 9:0.0 10:0.0 11:0.0 12:0.0 13:0.0 14:0.0 15:0.0 16:0.0 17:0.0 18:0.0 19:0.0 20:0.0 21:0.0 22:0.0 23:0.15 24:0.0 25:0.0 26:0.0 27:0.1258741258741259 28:0.13380281690140844 29:0.0 30:0.12918455415101873 31:0.0 32:0.0 33:0.0 34:0.0 35:0.0 36:0.0 37:0.0 38:0.0 39:0.0 40:0.0 41:0.0 42:0.0 43:0.0 44:0.0 45:0.0 46:0.28368794326241137 47:0.0 48:0.0 49:0.0 50:0.0 
0.7879902935760784 1:0.0 2:0.0 3:0.14184397163120568 4:0.0 5:0.0 6:0.0 7:0.0 8:0.0 9:0.0 10:0.0 11:0.0 12:0.14184397163120568 13:0.0 14:0.0 15:0.0 16:0.0 17:0.0 18:0.0 19:0.0 20:0.27564678853261415 21:0.0 22:0.0 23:0.0 24:0.15827338129496402 25:0.0 26:0.0 27:0.0 28:0.0 29:0.0 30:0.14184397163120568 31:0.1025923300431156 32:0.0 33:0.0 34:0.0 35:0.0 36:0.0 37:0.0 38:0.0 39:0.0 40:0.0 41:0.0 42:0.0 43:0.0 44:0.0 45:0.0 46:0.0 47:0.0 48:0.0 49:0.0 50:0.0 
0.5266750532376117 1:0.0 2:0.0 3:0.0 4:0.15 5:0.15 6:0.0 7:0.0 8:0.0 9:0.0 10:0.15 11:0.0 12:0.0 13:0.0 14:0.0 15:0.0 16:0.0 17:0.15 18:0.0 19:0.0 20:0.0 21:0.0 22:0.0 23:0.0 24:0.15 25:0.0 26:0.0 27:0.0 28:0.0 29:0.0 30:0.0 31:0.0 32:0.0 33:0.0 34:0.0 35:0.0 36:0.0 37:0.24055022321018601 38:0.0 39:0.0 40:0.0 41:0.0 42:0.0 43:0.0 44:0.0 45:0.0 46:0.0 47:0.0 48:0.0 49:0.0 50:0.0 
1.6475716992365905 1:0.15 2:0.0 3:0.0 4:0.0 5:0.0 6:0.0 7:0.0 8:0.0 9:0.308273381294964 10:0.0 11:0.0 12:0.0 13:0.0 14:0.0 15:0.14184397163120568 16:0.0 17:0.0 18:0.0 19:0.15 20:0.0 21:0.0 22:0.0 23:0.0 24:0.0 25:0.0 26:0.0 27:0.0 28:0.0 29:0.0 30:0.0 31:0.0 32:0.0 33:0.0 34:0.0 35:0.0 36:0.0 37:0.0 38:0.0 39:0.0 40:0.0 41:0.0 42:0.0 43:0.15 44:0.0 45:0.0 46:0.0 47:0.0 48:0.0 49:0.0 50:0.0 
1.1174138515325722 1:0.0 2:0.15 3:0.0 4:0.0 5:0.14184397163120568 6:0.0 7:0.0 8:0.0 9:0.0 10:0.10669996390368433 11:0.0 12:0.0 13:0.0 14:0.0 15:0.0 16:0.0 17:0.0 18:0.0 19:0.0 20:0.0 21:0.15 22:0.0 23:0.0 24:0.0 25:0.0 26:0.0 27:0.0 28:0.0 29:0.0 30:0.14184397163120568 31:0.0 32:0.0 33:0.0 34:0.0 35:0.0 36:0.0 37:0.0 38:0.0 39:0.0 40:0.14184397163120568 41:0.0 42:0.0 43:0.0 44:0.0 45:0.0 46:0.0 47:0.0 48:0.14184397163120568 49:0.0 50:0.0 
0.5043765738129484 1:0.0 2:0.15 3:0.0 4:0.0 5:0.0 6:0.0 7:0.0 8:0.0 9:0.0 10:0.0 11:0.0 12:0.0 13:0.0 14:0.0 15:0.0 16:0.0 17:0.0 18:0.0 19:0.14184397163120568 20:0.0 21:0.0 22:0.15 23:0.0 24:0.0 25:0.0 26:0.0 27:0.2076941565307344 28:0.0 29:0.0 30:0.0 31:0.0 32:0.0 33:0.1258741258741259 34:0.0 35:0.0 36:0.0 37:0.0 38:0.0 39:0.0 40:0.0 41:0.0 42:0.0 43:0.15 44:0.0 45:0.0 46:0.0 47:0.0 48:0.0 49:0.0 50:0.0 
0.566612490184861 1:0.0 2:0.25059663907430296 3:0.0 4:0.0 5:0.0 6:0.0 7:0.0 8:0.15827338129496402 9:0.0 10:0.0 11:0.0 12:0.0 13:0.0 14:0.0 15:0.0 16:0.0 17:0.0 18:0.0 19:0.13380281690140844 20:0.0 21:0.0 22:0.0 23:0.0 24:0.0 25:0.0 26:0.0 27:0.0 28:0.0 29:0.0 30:0.0 31:0.0 32:0.0 33:0.0 34:0.0 35:0.14184397163120568 36:0.15 37:0.13380281690140844 38:0.0 39:0.0 40:0.0 41:0.0 42:0.0 43:0.0 44:0.0 45:0.0 46:0.0 47:0.0 48:0.0 49:0.0 50:0.0 
1.681508266143696 1:0.0 2:0.0 3:0.0 4:0.0 5:0.0 6:0.0 7:0.15 8:0.0 9:0.0 10:0.0 11:0.0 12:0.0 13:0.0 14:0.0 15:0.0 16:0.0 17:0.0 18:0.0 19:0.11861450971191773 20:0.0 21:0.0 22:0.0 23:0.0 24:0.0 25:0.0 26:0.15 27:0.0 28:0.0 29:0.0 30:0.0 31:0.0 32:0.0 33:0.0 34:0.0 35:0.0 36:0.0 37:0.0 38:0.0 39:0.0 40:0.0 41:0.0 42:0.0 43:0.27564678853261415 44:0.13380281690140844 45:0.0 46:0.0 47:0.0 48:0.0 49:0.15 50:0.0 
0.6057008286657907 1:0.0 2:0.0 3:0.0 4:0.0 5:0.10596660474901634 6:0.0 7:0.0 8:0.0 9:0.0 10:0.0 11:0.0 12:0.13380281690140844 13:0.0 14:0.0 15:0.0 16:0.0 17:0.0 18:0.0 19:0.0 20:0.13380281690140844 21:0.0 22:0.0 23:0.0 24:0.0 25:0.0 26:0.0 27:0.0 28:0.0 29:0.13380281690140844 30:0.0 31:0.2677180975053316 32:0.0 33:0.0 34:0.0 35:0.0 36:0.0 37:0.0 38:0.0 39:0.13380281690140844 40:0.0 41:0.0 42:0.0 43:0.0 44:0.0 45:0.0 46:0.0 47:0.0 48:0.0 49:0.0 50:0.0 
2.583330448857466 1:0.0 2:0.0 3:0.0 4:0.0 5:0.0 6:0.0 7:0.0 8:0.0 9:0.0 10:0.0 11:0.15827338129496402 12:0.15 13:0.0 14:0.0 15:0.0 16:0.0 17:0.0 18:0.0 19:0.0 20:0.0 21:0.0 22:0.0 23:0.0 24:0.0 25:0.0 26:0.0 27:0.0 28:0.0 29:0.0 30:0.0 31:0.13380281690140844 32:0.15 33:0.0 34:0.0 35:0.0 36:0.0 37:0.0 38:0.0 39:0.0 40:0.1258741258741259 41:0.0 42:0.14184397163120568 43:0.10417279485368292 44:0.0 45:0.0 46:0.0 47:0.0 48:0.0 49:0.0 50:0.0 
-0.6363987618498449 1:0.0 2:0.0 3:0.0 4:0.0 5:0.0 6:0.0 7:0.0 8:0.0 9:0.0 10:0.0 11:0.4666666666666667 12:0.0 13:0.4666666666666666 14:0.0 15:0.0 16:0.0 17:0.0 18:0.0 19:0.0 20:0.0 21:0.0 22:0.0 23:0.0 24:0.0 25:0.0 26:0.0 27:0.0 28:0.0 29:0.0 30:0.0 31:0.0 32:0.0 33:0.0 34:0.0 35:0.0 36:0.0 37:0.0 38:0.0 39:0.0 40:0.0 41:0.0 42:0.0 43:0.0 44:0.0 45:0.0 46:0.0 47:0.0 48:0.0 49:0.0666666666666666 50:0.0 
-0.24055435425173927 1:0.16666666666666666 2:0.0 3:0.0 4:0.0 5:0.0 6:0.0 7:0.0 8:0.0 9:0.0 10:0.0 11:0.3249400479616307 12:0.0 13:0.08369829683698299 14:0.0 15:0.0 16:0.0 17:0.0 18:0.0 19:0.0 20:0.0 21:0.0 22:0.0 23:0.0 24:0.0 25:0.0 26:0.0 27:0.0 28:0.0 29:0.0 30:0.0 31:0.0 32:0.0 33:0.0 34:0.0 35:0.0 36:0.0 37:0.0 38:0.0 39:0.0 40:0.0 41:0.0 42:0.1260443103682584 43:0.17518248175182483 44:0.0 45:0.0 46:0.0 47:0.0 48:0.0 49:0.0 50:0.0 
-1.371465253855163 1:0.15827338129496402 2:0.0 3:0.0 4:0.0 5:0.0 6:0.0 7:0.0 8:0.0 9:0.15827338129496402 10:0.0 11:0.0 12:0.0 13:0.0 14:0.0 15:0.0 16:0.0 17:0.0 18:0.0 19:0.0 20:0.0 21:0.0 22:0.0 23:0.0 24:0.0 25:0.0 26:0.0 27:0.0 28:0.0 29:0.0 30:0.0 31:0.0 32:0.0 33:0.0 34:0.10470883571491932 35:0.0 36:0.0 37:0.15 38:0.0 39:0.0 40:0.0 41:0.0 42:0.15827338129496402 43:0.0 44:0.0 45:0.0 46:0.0 47:0.0 48:0.15 49:0.12047102040018867 50:0.0 
-2.20830689681211 1:0.0 2:0.0 3:0.0 4:0.0 5:0.0 6:0.0 7:0.0 8:0.0 9:0.208273381294964 10:0.0 11:0.0 12:0.0 13:0.0 14:0.0 15:0.0 16:0.15 17:0.0 18:0.0 19:0.0 20:0.0 21:0.0 22:0.0 23:0.0 24:0.0 25:0.0 26:0.0 27:0.0 28:0.0 29:0.0 30:0.0 31:0.0 32:0.0 33:0.09187859646011459 34:0.0 35:0.14949596346641228 36:0.0 37:0.0 38:0.0 39:0.0 40:0.0 41:0.0 42:0.125531914893617 43:0.0 44:0.0 45:0.0 46:0.05827338129496401 47:0.0 48:0.0 49:0.0 50:0.0 
-0.33189611159975124 1:0.0 2:0.17518248175182483 3:0.0 4:0.0 5:0.0 6:0.0 7:0.0 8:0.0 9:0.0 10:0.0 11:0.0 12:0.0 13:0.0 14:0.0 15:0.0 16:0.0 17:0.1525332927292776 18:0.0 19:0.0 20:0.16666666666666666 21:0.0 22:0.0 23:0.0 24:0.0 25:0.0 26:0.0 27:0.0 28:0.0 29:0.0 30:0.0 31:0.0 32:0.0 33:0.0 34:0.0 35:0.0 36:0.0 37:0.0 38:0.0 39:0.0 40:0.0 41:0.0 42:0.15 43:0.0 44:0.0 45:0.0 46:0.0 47:0.0 48:0.0 49:0.33345586304678887 50:0.0 
-0.457602537472893 1:0.0 2:0.0 3:0.15827338129496402 4:0.0 5:0.0 6:0.0 7:0.0 8:0.0 9:0.0 10:0.0 11:0.0 12:0.0 13:0.16666666666666666 14:0.0 15:0.0 16:0.17518248175182483 17:0.0 18:0.0 19:0.0 20:0.15827338129496402 21:0.0 22:0.0 23:0.0 24:0.0 25:0.0 26:0.0 27:0.0 28:0.0 29:0.0 30:0.0 31:0.0 32:0.0 33:0.0 34:0.0 35:0.0 36:0.0 37:0.0 38:0.0 39:0.0 40:0.0 41:0.0 42:0.0 43:0.0 44:0.0 45:0.0 46:0.0 47:0.0 48:0.0 49:0.3158102247226399 50:0.0 
-0.8627400495031109 1:0.0 2:0.0 3:0.0 4:0.0 5:0.0 6:0.0 7:0.0 8:0.25 9:0.0 10:0.0 11:0.0 12:0.0 13:0.0 14:0.0 15:0.0 16:0.0 17:0.25 18:0.0 19:0.0 20:0.0 21:0.0 22:0.0 23:0.0 24:0.0 25:0.0 26:0.0 27:0.0 28:0.0 29:0.0 30:0.0 31:0.0 32:0.0 33:0.0 34:0.0 35:0.25 36:0.0 37:0.0 38:0.0 39:0.0 40:0.0 41:0.0 42:0.0 43:0.0 44:0.0 45:0.0 46:0.0 47:0.0 48:0.25 49:0.0 50:0.0 
-1.4105846308309313 1:0.0 2:0.0 3:0.0 4:0.0 5:0.0 6:0.0 7:0.0 8:0.0 9:0.0 10:0.0 11:0.0 12:0.15827338129496402 13:0.16666666666666666 14:0.0 15:0.0 16:0.14184397163120568 17:0.0 18:0.13380281690140844 19:0.0 20:0.0 21:0.0 22:0.0 23:0.0 24:0.0 25:0.0 26:0.0 27:0.0 28:0.0 29:0.0 30:0.0 31:0.15827338129496402 32:0.0 33:0.0 34:0.0 35:0.0 36:0.0 37:0.0 38:0.0 39:0.0 40:0.0 41:0.0 42:0.0 43:0.16666666666666666 44:0.0 45:0.0 46:0.0 47:0.0 48:0.0 49:0.0 50:0.0 
-0.7665260265822778 1:0.0 2:0.11093182937441401 3:0.15827338129496402 4:0.0 5:0.0 6:0.0 7:0.0 8:0.0 9:0.0 10:0.0 11:0.0 12:0.0 13:0.0 14:0.0 15:0.0 16:0.0 17:0.0 18:0.0 19:0.2863503448861775 20:0.0 21:0.0 22:0.0 23:0.0 24:0.0 25:0.0 26:0.0 27:0.0 28:0.0 29:0.0 30:0.0 31:0.0 32:0.1111111111111111 33:0.0 34:0.0 35:0.0 36:0.0 37:0.0 38:0.0 39:0.16666666666666666 40:0.0 41:0.0 42:0.0 43:0.0 44:0.0 45:0.0 46:0.0 47:0.0 48:0.0 49:0.16666666666666666 50:0.0 
-0.0653660308353541 1:0.0 2:0.15 3:0.0 4:0.0 5:0.0 6:0.0 7:0.0 8:0.0 9:0.0 10:0.0 11:0.17518248175182483 12:0.0 13:0.34184914841849146 14:0.0 15:0.0 16:0.0 17:0.0 18:0.0 19:0.15 20:0.0 21:0.0 22:0.0 23:0.0 24:0.0 25:0.0 26:0.0 27:0.0 28:0.0 29:0.0 30:0.0 31:0.0 32:0.0 33:0.0 34:0.0 35:0.0 36:0.0 37:0.0 38:0.0 39:0.0 40:0.0 41:0.0 42:0.18222907092670562 43:0.0 44:0.0 45:0.0 46:0.0 47:0.0 48:0.0 49:0.0 50:0.0 
-1.5908230050356926 1:0.0 2:0.0 3:0.0 4:0.0 5:0.0 6:0.0 7:0.0 8:0.0 9:0.14184397163120568 10:0.0 11:0.16666666666666666 12:0.0 13:0.0 14:0.0 15:0.0 16:0.0 17:0.0 18:0.16666666666666666 19:0.14132981597320535 20:0.0 21:0.0 22:0.15827338129496402 23:0.0 24:0.0 25:0.0 26:0.0 27:0.0 28:0.0 29:0.0 30:0.0 31:0.0 32:0.0 33:0.0 34:0.0 35:0.0 36:0.0 37:0.0 38:0.0 39:0.0 40:0.15827338129496402 41:0.0 42:0.0 43:0.0 44:0.0 45:0.0 46:0.0 47:0.0 48:0.0 49:0.0 50:0.0 
-0.7642443373551402 1:0.0 2:0.0 3:0.0 4:0.0 5:0.0 6:0.0 7:0.0 8:0.0 9:0.308273381294964 10:0.0 11:0.0 12:0.0 13:0.0 14:0.0 15:0.0 16:0.0 17:0.0 18:0.0 19:0.0 20:0.0 21:0.0 22:0.0 23:0.0 24:0.0 25:0.0 26:0.0 27:0.0 28:0.0 29:0.0 30:0.2915265376816053 31:0.15827338129496402 32:0.0 33:0.0 34:0.0 35:0.0 36:0.0 37:0.0 38:0.0 39:0.0 40:0.0 41:0.0 42:0.24192669972846653 43:0.0 44:0.0 45:0.0 46:0.0 47:0.0 48:0.0 49:0.0 50:0.0 
-0.8059615562165465 1:0.0 2:0.0 3:0.0 4:0.0 5:0.0 6:0.0 7:0.0 8:0.0 9:0.0 10:0.0 11:0.0 12:0.0 13:0.16666666666666666 14:0.0 15:0.15827338129496402 16:0.0 17:0.0 18:0.0 19:0.0 20:0.0 21:0.0 22:0.0 23:0.0 24:0.0 25:0.0 26:0.16666666666666666 27:0.0 28:0.0 29:0.0 30:0.0 31:0.0 32:0.0520611064155862 33:0.0 34:0.0 35:0.0 36:0.0 37:0.0 38:0.0 39:0.0 40:0.0 41:0.0 42:0.0 43:0.20633217895611639 44:0.0 45:0.0 46:0.0 47:0.0 48:0.0 49:0.25 50:0.0 
-0.01593317052535677 1:0.0 2:0.0 3:0.0 4:0.0 5:0.0 6:0.0 7:0.0 8:0.0 9:0.0 10:0.0 11:0.3 12:0.0 13:0.5 14:0.0 15:0.0 16:0.0 17:0.0 18:0.0 19:0.0 20:0.0 21:0.0 22:0.0 23:0.0 24:0.0 25:0.0 26:0.0 27:0.0 28:0.0 29:0.0 30:0.0 31:0.0 32:0.0 33:0.0 34:0.0 35:0.0 36:0.0 37:0.0 38:0.0 39:0.0 40:0.0 41:0.0 42:0.08284313725490189 43:0.0 44:0.0 45:0.0 46:0.0 47:0.0 48:0.0 49:0.11715686274509812 50:0.0 
-0.9849559419292638 1:0.0 2:0.0 3:0.0 4:0.0 5:0.0 6:0.0 7:0.0 8:0.0 9:0.0 10:0.0 11:0.0 12:0.0 13:0.0 14:0.0 15:0.0 16:0.0 17:0.0 18:0.0 19:0.0 20:0.0 21:0.0 22:0.0 23:0.0 24:0.0 25:0.0 26:0.0 27:0.0 28:0.0 29:0.0 30:0.23757778778131555 31:0.0 32:0.0 33:0.0 34:0.0 35:0.0 36:0.0 37:0.0 38:0.0 39:0.0 40:0.15827338129496402 41:0.0 42:0.28368794326241137 43:0.0 44:0.0 45:0.0 46:0.0 47:0.0 48:0.15 49:0.0 50:0.16666666666666666 
-1.9197681538831748 1:0.0 2:0.0 3:0.0 4:0.0 5:0.0 6:0.0 7:0.0 8:0.0 9:0.0 10:0.0 11:0.0 12:0.0 13:0.0 14:0.0 15:0.0 16:0.0 17:0.15827338129496402 18:0.0 19:0.0 20:0.15 21:0.0 22:0.0 23:0.0 24:0.15 25:0.0 26:0.0 27:0.0 28:0.0 29:0.15 30:0.0 31:0.0 32:0.3 33:0.0 34:0.0 35:0.0 36:0.0 37:0.0 38:0.0 39:0.0 40:0.0 41:0.0 42:0.0 43:0.0 44:0.0 45:0.0 46:0.0 47:0.0 48:0.0 49:0.06978321332142579 50:0.0 
-0.04744438429084513 1:0.0 2:0.0 3:0.0 4:0.0 5:0.0 6:0.0 7:0.0 8:0.0 9:0.0 10:0.0 11:0.18382352941176472 12:0.15827338129496402 13:0.14074622654817323 14:0.0 15:0.0 16:0.0 17:0.18382352941176472 18:0.0 19:0.0 20:0.0 21:0.0 22:0.0 23:0.0 24:0.16666666666666666 25:0.0 26:0.0 27:0.0 28:0.0 29:0.0 30:0.0 31:0.0 32:0.0 33:0.0 34:0.0 35:0.0 36:0.0 37:0.0 38:0.0 39:0.0 40:0.0 41:0.0 42:0.16666666666666666 43:0.0 44:0.0 45:0.0 46:0.0 47:0.0 48:0.0 49:0.0 50:0.0 
-1.2863726725466629 1:0.0 2:0.0 3:0.0 4:0.0 5:0.0 6:0.0 7:0.0 8:0.0 9:0.0 10:0.0 11:0.16666666666666666 12:0.15 13:0.15827338129496402 14:0.0 15:0.0 16:0.0 17:0.0 18:0.0 19:0.0 20:0.0 21:0.15827338129496402 22:0.2890680216532898 23:0.0 24:0.0 25:0.0 26:0.0 27:0.0 28:0.0 29:0.0 30:0.0 31:0.0 32:0.0 33:0.0 34:0.0 35:0.0 36:0.0 37:0.0 38:0.0 39:0.0 40:0.0 41:0.0 42:0.0 43:0.0 44:0.0 45:0.0 46:0.0 47:0.0 48:0.0 49:0.0 50:0.0 
-0.818273924094565 1:0.0 2:0.0 3:0.15827338129496402 4:0.0 5:0.0 6:0.0 7:0.0 8:0.0 9:0.0 10:0.0 11:0.16666666666666666 12:0.16666666666666666 13:0.136111685489522 14:0.0 15:0.0 16:0.0 17:0.0 18:0.0 19:0.0 20:0.0 21:0.0 22:0.0 23:0.0 24:0.0 25:0.0 26:0.0 27:0.0 28:0.0 29:0.0 30:0.0 31:0.0 32:0.0 33:0.0 34:0.0 35:0.15827338129496402 36:0.0 37:0.0 38:0.0 39:0.0 40:0.0 41:0.0 42:0.0 43:0.16666666666666666 44:0.0 45:0.0 46:0.0 47:0.0 48:0.0 49:0.0 50:0.0 
-1.7080067710804527 1:0.0 2:0.15 3:0.14184397163120568 4:0.0 5:0.0 6:0.0 7:0.0 8:0.0 9:0.0 10:0.0 11:0.0 12:0.0 13:0.0 14:0.0 15:0.0 16:0.0 17:0.0 18:0.0 19:0.14184397163120568 20:0.0 21:0.0 22:0.15827338129496402 23:0.0 24:0.0 25:0.0 26:0.0 27:0.0 28:0.0 29:0.0 30:0.0 31:0.0 32:0.0 33:0.0 34:0.0 35:0.0 36:0.0 37:0.0 38:0.0 39:0.0 40:0.0 41:0.0 42:0.21068961904266395 43:0.0 44:0.0 45:0.15827338129496402 46:0.0 47:0.0 48:0.0 49:0.0 50:0.0 
-0.2139932274747105 1:0.10169336830292408 2:0.0 3:0.16666666666666666 4:0.0 5:0.0 6:0.0 7:0.0 8:0.0 9:0.0 10:0.0 11:0.3333333333333333 12:0.0 13:0.16666666666666666 14:0.0 15:0.0 16:0.0 17:0.0 18:0.0 19:0.0 20:0.14184397163120568 21:0.0 22:0.0 23:0.0 24:0.08979599339920372 25:0.0 26:0.0 27:0.0 28:0.0 29:0.0 30:0.0 31:0.0 32:0.0 33:0.0 34:0.0 35:0.0 36:0.0 37:0.0 38:0.0 39:0.0 40:0.0 41:0.0 42:0.0 43:0.0 44:0.0 45:0.0 46:0.0 47:0.0 48:0.0 49:0.0 50:0.0 
-0.2722582859925679 1:0.0 2:0.0 3:0.0 4:0.0 5:0.0 6:0.0 7:0.0 8:0.0 9:0.0631273376143246 10:0.0 11:0.0 12:0.0 13:0.2727272727272727 14:0.0 15:0.0 16:0.0 17:0.0 18:0.0 19:0.15827338129496402 20:0.0 21:0.0 22:0.0 23:0.0 24:0.16666666666666666 25:0.0 26:0.0 27:0.0 28:0.0 29:0.0 30:0.0 31:0.0 32:0.0 33:0.0 34:0.0 35:0.0 36:0.0 37:0.0 38:0.0 39:0.0 40:0.0 41:0.0 42:0.16666666666666666 43:0.0 44:0.0 45:0.15 46:0.0 47:0.0 48:0.0 49:0.0 50:0.0 
-0.04663149992598645 1:0.0 2:0.0 3:0.0 4:0.0 5:0.0 6:0.0 7:0.0 8:0.0 9:0.0 10:0.0 11:0.324073181060474 12:0.0 13:0.0 14:0.0 15:0.0 16:0.0 17:0.31692080777593645 18:0.0 19:0.0 20:0.0 21:0.0 22:0.0 23:0.0 24:0.0 25:0.0 26:0.0 27:0.0 28:0.0 29:0.0 30:0.0 31:0.0 32:0.17518248175182483 33:0.0 34:0.0 35:0.0 36:0.0 37:0.0 38:0.0 39:0.0 40:0.0 41:0.0 42:0.18382352941176472 43:0.0 44:0.0 45:0.0 46:0.0 47:0.0 48:0.0 49:0.0 50:0.0 
-0.95939049245986 1:0.2727272727272727 2:0.0 3:0.0 4:0.0 5:0.0 6:0.0 7:0.0 8:0.0 9:0.0 10:0.0 11:0.0 12:0.0 13:0.0 14:0.0 15:0.0 16:0.0 17:0.043539965570846495 18:0.0 19:0.0 20:0.0 21:0.0 22:0.0 23:0.0 24:0.15827338129496402 25:0.0 26:0.0 27:0.0 28:0.0 29:0.16666666666666666 30:0.0 31:0.0 32:0.0 33:0.0 34:0.0 35:0.0 36:0.0 37:0.0 38:0.0 39:0.0 40:0.0 41:0.0 42:0.0 43:0.17518248175182483 44:0.0 45:0.16666666666666666 46:0.0 47:0.0 48:0.0 49:0.0 50:0.0 
-1.171413083676618 1:0.0 2:0.15 3:0.0 4:0.0 5:0.1278207414624159 6:0.0 7:0.0 8:0.0 9:0.15827338129496402 10:0.0 11:0.0 12:0.14184397163120568 13:0.0 14:0.0 15:0.0 16:0.0 17:0.0 18:0.0 19:0.0 20:0.0 21:0.0 22:0.0 23:0.0 24:0.0 25:0.0 26:0.0 27:0.0 28:0.0 29:0.15 30:0.0 31:0.0 32:0.0 33:0.0 34:0.0 35:0.0 36:0.0 37:0.0 38:0.0 39:0.0 40:0.0 41:0.0 42:0.0 43:0.0 44:0.0 45:0.0 46:0.0 47:0.0 48:0.15827338129496402 49:0.11378852431645028 50:0.0 
-0.49888226596342533 1:0.0 2:0.0 3:0.0 4:0.0 5:0.0 6:0.0 7:0.0 8:0.0 9:0.0 10:0.0 11:0.0 12:0.0 13:0.35036496350364965 14:0.0 15:0.0 16:0.0 17:0.0 18:0.0 19:0.0 20:0.0 21:0.0 22:0.0 23:0.0 24:0.36552917741341673 25:0.0 26:0.0 27:0.0 28:0.0 29:0.0 30:0.0 31:0.0 32:0.0 33:0.0 34:0.0 35:0.0 36:0.0 37:0.0 38:0.0 39:0.0 40:0.0 41:0.0 42:0.1002823296711689 43:0.0 44:0.0 45:0.0 46:0.0 47:0.0 48:0.0 49:0.18382352941176472 50:0.0 
-0.6383819710926322 1:0.0 2:0.0 3:0.0 4:0.0 5:0.0 6:0.0 7:0.0 8:0.0 9:0.0 10:0.0 11:0.17518248175182483 12:0.0 13:0.0 14:0.0 15:0.0 16:0.0 17:0.0 18:0.0 19:0.15827338129496402 20:0.0 21:0.0 22:0.0 23:0.0 24:0.16666666666666666 25:0.0 26:0.0 27:0.0 28:0.0 29:0.0 30:0.0 31:0.1170435532165641 32:0.0 33:0.0 34:0.0 35:0.0 36:0.0 37:0.0 38:0.0 39:0.0 40:0.0 41:0.0 42:0.15827338129496402 43:0.0 44:0.0 45:0.0 46:0.0 47:0.0 48:0.16666666666666666 49:0.05789386910834976 50:0.0 
-0.11765334458685713 1:0.17518248175182483 2:0.0 3:0.0 4:0.0 5:0.0 6:0.0 7:0.0 8:0.0 9:0.0 10:0.0 11:0.0 12:0.0 13:0.0 14:0.0 15:0.0 16:0.0 17:0.12312670109582016 18:0.0 19:0.15827338129496402 20:0.0 21:0.0 22:0.0 23:0.0 24:0.0 25:0.0 26:0.0 27:0.0 28:0.0 29:0.0 30:0.0 31:0.0 32:0.0 33:0.0 34:0.0 35:0.0 36:0.0 37:0.0 38:0.0 39:0.15827338129496402 40:0.0 41:0.0 42:0.15827338129496402 43:0.0 44:0.0 45:0.0 46:0.0 47:0.0 48:0.16666666666666666 49:0.0 50:0.0 
-0.1290065173968558 1:0.0 2:0.0 3:0.0 4:0.0 5:0.0 6:0.0 7:0.0 8:0.0 9:0.0 10:0.0 11:0.06714756533556696 12:0.0 13:0.13297233874117162 14:0.0 15:0.0 16:0.0 17:0.0 18:0.0 19:0.15827338129496402 20:0.0 21:0.0 22:0.0 23:0.0 24:0.0 25:0.0 26:0.0 27:0.0 28:0.0 29:0.0 30:0.0 31:0.0 32:0.0 33:0.0 34:0.0 35:0.0 36:0.0 37:0.0 38:0.0 39:0.16666666666666666 40:0.0 41:0.0 42:0.0 43:0.15827338129496402 44:0.0 45:0.0 46:0.0 47:0.0 48:0.0 49:0.16666666666666666 50:0.15 
-0.7222507509476828 1:0.0 2:0.0 3:0.0 4:0.0 5:0.0 6:0.0 7:0.0 8:0.0 9:0.1 10:0.1 11:0.1 12:0.0 13:0.0 14:0.0 15:0.0 16:0.0 17:0.1 18:0.0 19:0.0 20:0.0 21:0.0 22:0.0 23:0.0 24:0.0 25:0.0 26:0.0 27:0.0 28:0.0 29:0.14184397163120568 30:0.0 31:0.0 32:0.0 33:0.0 34:0.0 35:0.1 36:0.0 37:0.0 38:0.0 39:0.0 40:0.0 41:0.0 42:0.016312056737588676 43:0.14184397163120568 44:0.0 45:0.0 46:0.1 47:0.0 48:0.1 49:0.0 50:0.0 
-2.150867684732235 1:0.0 2:0.0 3:0.15827338129496402 4:0.0 5:0.0 6:0.0 7:0.0 8:0.0 9:0.14184397163120568 10:0.0 11:0.0 12:0.15 13:0.0 14:0.0 15:0.0 16:0.0 17:0.0 18:0.0 19:0.14184397163120568 20:0.0 21:0.0 22:0.0 23:0.0 24:0.0 25:0.0 26:0.15 27:0.0 28:0.0 29:0.0 30:0.0 31:0.0 32:0.15 33:0.0 34:0.0 35:0.0 36:0.0 37:0.0 38:0.0 39:0.0 40:0.0 41:0.0 42:0.0 43:0.0 44:0.0 45:0.0 46:0.0830184505343019 47:0.0 48:0.0 49:0.0 50:0.0 
-1.8642438672319341 1:0.0 2:0.0 3:0.0 4:0.0 5:0.0 6:0.0 7:0.0 8:0.0 9:0.0 10:0.0 11:0.0 12:0.0 13:0.0 14:0.0 15:0.11150110313651684 16:0.0 17:0.0 18:0.0 19:0.0 20:0.0 21:0.0 22:0.0 23:0.0 24:0.14184397163120568 25:0.0 26:0.16666666666666666 27:0.0 28:0.0 29:0.15827338129496402 30:0.0 31:0.0 32:0.15 33:0.0 34:0.0 35:0.15 36:0.0 37:0.0 38:0.0 39:0.0 40:0.0 41:0.0 42:0.12171487727064681 43:0.0 44:0.0 45:0.0 46:0.0 47:0.0 48:0.0 49:0.0 50:0.0 
-1.5757341171294275 1:0.0 2:0.0 3:0.0 4:0.13380281690140844 5:0.0 6:0.0 7:0.0 8:0.0 9:0.0 10:0.0 11:0.0 12:0.0 13:0.0 14:0.0 15:0.0 16:0.0 17:0.0 18:0.0 19:0.0 20:0.0 21:0.16666666666666666 22:0.0 23:0.0 24:0.15 25:0.0 26:0.0 27:0.0 28:0.0 29:0.0 30:0.0 31:0.0 32:0.0 33:0.0 34:0.0 35:0.0 36:0.0 37:0.0 38:0.0 39:0.0 40:0.0 41:0.0 42:0.15 43:0.16666666666666666 44:0.0 45:0.0 46:0.0 47:0.0 48:0.0 49:0.0 50:0.20683300063919133 
-0.848443304091278 1:0.0 2:0.15827338129496402 3:0.0 4:0.0 5:0.13380281690140844 6:0.0 7:0.0 8:0.0 9:0.14184397163120568 10:0.0 11:0.0 12:0.0 13:0.0 14:0.0 15:0.0 16:0.0 17:0.0 18:0.0 19:0.0 20:0.14184397163120568 21:0.0 22:0.0 23:0.0 24:0.0 25:0.0 26:0.0 27:0.0 28:0.0 29:0.0 30:0.0 31:0.0 32:0.0 33:0.0 34:0.0 35:0.0 36:0.0 37:0.0 38:0.0 39:0.15 40:0.0 41:0.0 42:0.0 43:0.0 44:0.0 45:0.0 46:0.0 47:0.0 48:0.1159624772462522 49:0.15827338129496402 50:0.0 
-1.281238060017497 1:0.0 2:0.0 3:0.0 4:0.0 5:0.0 6:0.0 7:0.0 8:0.0 9:0.0 10:0.0 11:0.0 12:0.0 13:0.0 14:0.0 15:0.0 16:0.0 17:0.15 18:0.0 19:0.0 20:0.0 21:0.0 22:0.13380281690140844 23:0.0 24:0.15 25:0.0 26:0.0 27:0.0 28:0.0 29:0.0 30:0.0 31:0.15 32:0.0 33:0.0 34:0.0 35:0.0 36:0.0 37:0.0 38:0.0 39:0.0 40:0.0 41:0.0 42:0.0 43:0.0 44:0.0 45:0.0 46:0.15 47:0.0 48:0.15827338129496402 49:0.0 50:0.0 
-0.5819434260480099 1:0.0 2:0.0 3:0.0 4:0.0 5:0.0 6:0.0 7:0.0 8:0.0 9:0.0 10:0.15827338129496402 11:0.11955967162616019 12:0.0 13:0.0 14:0.0 15:0.0 16:0.0 17:0.0 18:0.0 19:0.0 20:0.16666666666666666 21:0.0 22:0.0 23:0.0 24:0.0 25:0.0 26:0.0 27:0.0 28:0.0 29:0.0 30:0.15827338129496402 31:0.0 32:0.0 33:0.0 34:0.0 35:0.0 36:0.0 37:0.0 38:0.0 39:0.0 40:0.0 41:0.0 42:0.08895351782228106 43:0.0 44:0.0 45:0.0 46:0.0 47:0.0 48:0.15 49:0.15827338129496402 50:0.0 
-0.46978898553989884 1:0.0 2:0.0 3:0.0 4:0.0 5:0.0 6:0.0 7:0.0 8:0.0 9:0.16666666666666666 10:0.0 11:0.0 12:0.0 13:0.14714137727711243 14:0.0 15:0.0 16:0.0 17:0.3677750743444174 18:0.0 19:0.0 20:0.0 21:0.0 22:0.0 23:0.0 24:0.14323439995997866 25:0.0 26:0.0 27:0.0 28:0.0 29:0.0 30:0.0 31:0.0 32:0.0 33:0.0 34:0.0 35:0.0 36:0.0 37:0.0 38:0.0 39:0.0 40:0.0 41:0.0 42:0.0 43:0.17518248175182483 44:0.0 45:0.0 46:0.0 47:0.0 48:0.0 49:0.0 50:0.0 
-0.47939021668272985 1:0.0 2:0.0 3:0.0 4:0.0 5:0.0 6:0.0 7:0.0 8:0.0 9:0.0 10:0.0 11:0.15827338129496402 12:0.16666666666666666 13:0.05585714354726412 14:0.0 15:0.0 16:0.0 17:0.16666666666666666 18:0.0 19:0.0 20:0.15827338129496402 21:0.0 22:0.0 23:0.0 24:0.0 25:0.0 26:0.0 27:0.0 28:0.0 29:0.0 30:0.0 31:0.0 32:0.0 33:0.0 34:0.0 35:0.0 36:0.0 37:0.0 38:0.0 39:0.0 40:0.0 41:0.0 42:0.13598937923451046 43:0.0 44:0.0 45:0.0 46:0.0 47:0.0 48:0.0 49:0.15827338129496402 50:0.0 
-1.2933226178854644 1:0.16666666666666666 2:0.0 3:0.0 4:0.0 5:0.0 6:0.0 7:0.0 8:0.0 9:0.0 10:0.0734185215541949 11:0.0 12:0.0 13:0.0 14:0.0 15:0.0 16:0.0 17:0.0 18:0.0 19:0.12658147844580517 20:0.0 21:0.0 22:0.0 23:0.0 24:0.0 25:0.0 26:0.0 27:0.0 28:0.0 29:0.16666666666666666 30:0.0 31:0.0 32:0.15 33:0.0 34:0.0 35:0.0 36:0.0 37:0.0 38:0.0 39:0.0 40:0.0 41:0.0 42:0.0 43:0.0 44:0.0 45:0.0 46:0.0 47:0.0 48:0.15 49:0.0 50:0.16666666666666666 
-0.5240560141784885 1:0.0 2:0.0 3:0.0 4:0.0 5:0.0 6:0.0 7:0.0 8:0.0 9:0.0 10:0.0 11:0.5 12:0.0 13:0.0 14:0.0 15:0.0 16:0.0 17:0.18382352941176472 18:0.0 19:0.0 20:0.0 21:0.0 22:0.0 23:0.0 24:0.0 25:0.0 26:0.0 27:0.0 28:0.0 29:0.0 30:0.0 31:0.0 32:0.18382352941176472 33:0.0 34:0.0 35:0.0 36:0.0 37:0.0 38:0.0 39:0.0 40:0.0 41:0.0 42:0.0 43:0.0 44:0.0 45:0.0 46:0.0 47:0.0 48:0.0 49:0.0 50:0.0 
-0.3383846463071184 1:0.0 2:0.0 3:0.0 4:0.0 5:0.1402556360306181 6:0.0 7:0.0 8:0.0 9:0.15 10:0.0 11:0.0 12:0.15 13:0.10147098267441773 14:0.0 15:0.0 16:0.0 17:0.0 18:0.0 19:0.0 20:0.0 21:0.0 22:0.0 23:0.0 24:0.0 25:0.0 26:0.15827338129496402 27:0.0 28:0.0 29:0.0 30:0.0 31:0.0 32:0.15 33:0.0 34:0.0 35:0.0 36:0.0 37:0.0 38:0.0 39:0.0 40:0.0 41:0.0 42:0.0 43:0.0 44:0.0 45:0.0 46:0.0 47:0.0 48:0.0 49:0.15 50:0.0 
-1.9560600842688058 1:0.0 2:0.0 3:0.0 4:0.0 5:0.0 6:0.0 7:0.0 8:0.0 9:0.0 10:0.0 11:0.16666666666666666 12:0.0 13:0.0 14:0.0 15:0.14184397163120568 16:0.0 17:0.0 18:0.0 19:0.0 20:0.0 21:0.0 22:0.0 23:0.0 24:0.0 25:0.0 26:0.0 27:0.0 28:0.0 29:0.0 30:0.0 31:0.1152288371614629 32:0.0 33:0.0 34:0.0 35:0.15 36:0.0 37:0.0 38:0.0 39:0.15827338129496402 40:0.0 41:0.0 42:0.0 43:0.0 44:0.0 45:0.0 46:0.0 47:0.0 48:0.0 49:0.0 50:0.2679871432457007 
-0.8463611171244527 1:0.0 2:0.0 3:0.17518248175182483 4:0.0 5:0.0 6:0.0 7:0.0 8:0.0 9:0.0 10:0.0 11:0.11667596407619776 12:0.0 13:0.0 14:0.0 15:0.0 16:0.0 17:0.16666666666666666 18:0.0 19:0.16666666666666666 20:0.0 21:0.0 22:0.0 23:0.0 24:0.0 25:0.0 26:0.0 27:0.0 28:0.0 29:0.0 30:0.0 31:0.0 32:0.0 33:0.0 34:0.0 35:0.0 36:0.0 37:0.0 38:0.0 39:0.0 40:0.0 41:0.0 42:0.3249400479616307 43:0.0 44:0.0 45:0.0 46:0.0 47:0.0 48:0.0 49:0.0 50:0.0 
-1.2069338549518223 1:0.1111111111111111 2:0.0 3:0.0 4:0.0 5:0.0 6:0.0 7:0.0 8:0.0 9:0.15827338129496402 10:0.0765814784458051 11:0.0 12:0.0 13:0.0 14:0.0 15:0.0 16:0.0 17:0.15 18:0.0 19:0.15 20:0.0 21:0.0 22:0.0 23:0.0 24:0.0 25:0.0 26:0.0 27:0.0 28:0.0 29:0.0 30:0.0 31:0.0 32:0.15827338129496402 33:0.0 34:0.0 35:0.0 36:0.0 37:0.0 38:0.0 39:0.0 40:0.0 41:0.0 42:0.0 43:0.16666666666666666 44:0.0 45:0.0 46:0.0 47:0.0 48:0.0 49:0.0 50:0.0 
-1.182748528994145 1:0.0 2:0.0 3:0.0 4:0.0 5:0.0 6:0.0 7:0.0 8:0.0 9:0.16666666666666666 10:0.0 11:0.0 12:0.0 13:0.0 14:0.0 15:0.0 16:0.0 17:0.0 18:0.0 19:0.0 20:0.10549262696050218 21:0.0 22:0.0 23:0.0 24:0.0 25:0.0 26:0.0 27:0.0 28:0.0 29:0.15827338129496402 30:0.0 31:0.0 32:0.0 33:0.0 34:0.0 35:0.0 36:0.0 37:0.0 38:0.0 39:0.0 40:0.0 41:0.0 42:0.0 43:0.16666666666666666 44:0.0 45:0.23623399174453388 46:0.0 47:0.0 48:0.0 49:0.16666666666666666 50:0.0 
-2.458129364056197 1:0.0 2:0.0 3:0.08079966817331558 4:0.0 5:0.0 6:0.0 7:0.0 8:0.0 9:0.0 10:0.0 11:0.0 12:0.0 13:0.0 14:0.0 15:0.0 16:0.13610680664682823 17:0.0 18:0.0 19:0.0 20:0.0 21:0.0 22:0.0 23:0.0 24:0.0 25:0.0 26:0.0 27:0.15 28:0.0 29:0.0 30:0.15827338129496402 31:0.15827338129496402 32:0.0 33:0.0 34:0.0 35:0.0 36:0.0 37:0.15827338129496402 38:0.0 39:0.0 40:0.0 41:0.0 42:0.0 43:0.0 44:0.0 45:0.0 46:0.0 47:0.0 48:0.0 49:0.15827338129496402 50:0.0 
-1.5085899910194804 1:0.15827338129496402 2:0.31654676258992803 3:0.0 4:0.0 5:0.0 6:0.0 7:0.0 8:0.0 9:0.0 10:0.0 11:0.0 12:0.14184397163120568 13:0.0 14:0.0 15:0.0 16:0.0 17:0.0 18:0.0 19:0.0 20:0.0 21:0.0 22:0.0 23:0.0 24:0.13562833764150814 25:0.0 26:0.0 27:0.0 28:0.15 29:0.0 30:0.0 31:0.0 32:0.0 33:0.0 34:0.0 35:0.0 36:0.0 37:0.0 38:0.0 39:0.0 40:0.0 41:0.0 42:0.0 43:0.0 44:0.0 45:0.0 46:0.0 47:0.0 48:0.0 49:0.0 50:0.0 
-0.6257726733274646 1:0.15 2:0.06920783630609498 3:0.0 4:0.0 5:0.0 6:0.0 7:0.0 8:0.0 9:0.0 10:0.0 11:0.0 12:0.0 13:0.0 14:0.0 15:0.0 16:0.0 17:0.3137657103108745 18:0.0 19:0.0 20:0.0 21:0.0 22:0.0 23:0.0 24:0.0 25:0.0 26:0.0 27:0.0 28:0.0 29:0.0 30:0.0 31:0.14184397163120568 32:0.17518248175182483 33:0.0 34:0.0 35:0.0 36:0.0 37:0.0 38:0.0 39:0.0 40:0.0 41:0.0 42:0.15 43:0.0 44:0.0 45:0.0 46:0.0 47:0.0 48:0.0 49:0.0 50:0.0 
-1.1012036074777087 1:0.0 2:0.0 3:0.0 4:0.15 5:0.0 6:0.0 7:0.0 8:0.0 9:0.0 10:0.13380281690140844 11:0.0 12:0.0 13:0.0 14:0.0 15:0.0 16:0.0 17:0.15827338129496402 18:0.0 19:0.0 20:0.0 21:0.16666666666666666 22:0.0 23:0.0 24:0.0 25:0.0 26:0.0 27:0.0 28:0.0 29:0.0 30:0.0 31:0.0 32:0.0 33:0.0 34:0.0 35:0.0 36:0.0 37:0.0 38:0.0 39:0.0 40:0.0 41:0.0 42:0.0 43:0.0 44:0.0 45:0.0 46:0.0 47:0.0 48:0.15 49:0.15 50:0.0 
-0.9155965762415488 1:0.0 2:0.0 3:0.0 4:0.0 5:0.14184397163120568 6:0.0 7:0.0 8:0.0 9:0.0 10:0.0 11:0.0 12:0.0 13:0.0 14:0.0 15:0.0 16:0.0 17:0.0 18:0.0 19:0.0 20:0.15827338129496402 21:0.0 22:0.0 23:0.0 24:0.15 25:0.0 26:0.0 27:0.0 28:0.0 29:0.0 30:0.0 31:0.0 32:0.0 33:0.0 34:0.0 35:0.0 36:0.0 37:0.0 38:0.0 39:0.0 40:0.0 41:0.0 42:0.0 43:0.0 44:0.0 45:0.15 46:0.0 47:0.0 48:0.16666666666666666 49:0.15827338129496402 50:0.0 
-1.0841107385462674 1:0.0 2:0.16666666666666666 3:0.0 4:0.0 5:0.0 6:0.0 7:0.0 8:0.0 9:0.0 10:0.0 11:0.16666666666666666 12:0.0 13:0.0 14:0.0 15:0.20839328537170268 16:0.0 17:0.0 18:0.0 19:0.0 20:0.0 21:0.0 22:0.0 23:0.0 24:0.15 25:0.0 26:0.0 27:0.0 28:0.0 29:0.0 30:0.0 31:0.0 32:0.0 33:0.0 34:0.0 35:0.0 36:0.0 37:0.0 38:0.0 39:0.0 40:0.0 41:0.0 42:0.15 43:0.0 44:0.0 45:0.15827338129496402 46:0.0 47:0.0 48:0.0 49:0.0 50:0.0 
-0.5587721824665264 1:0.0 2:0.17518248175182483 3:0.0 4:0.0 5:0.0 6:0.0 7:0.0 8:0.0 9:0.10353932905234206 10:0.0 11:0.0 12:0.0 13:0.06251461182243767 14:0.0 15:0.0 16:0.0 17:0.0 18:0.0 19:0.0 20:0.0 21:0.0 22:0.0 23:0.0 24:0.0 25:0.0 26:0.18382352941176472 27:0.0 28:0.0 29:0.0 30:0.0 31:0.15 32:0.0 33:0.0 34:0.0 35:0.0 36:0.0 37:0.0 38:0.0 39:0.0 40:0.0 41:0.0 42:0.16666666666666666 43:0.0 44:0.0 45:0.0 46:0.0 47:0.0 48:0.15827338129496402 49:0.0 50:0.0 
-0.9609548283320579 1:0.0 2:0.0 3:0.14184397163120568 4:0.0 5:0.0 6:0.0 7:0.0 8:0.0 9:0.0 10:0.0 11:0.0 12:0.0 13:0.0 14:0.0 15:0.0 16:0.0 17:0.0 18:0.0 19:0.0 20:0.0 21:0.0 22:0.0 23:0.0 24:0.16666666666666666 25:0.0 26:0.0 27:0.0 28:0.0 29:0.0 30:0.14184397163120568 31:0.0 32:0.4749400479616307 33:0.0 34:0.0 35:0.0 36:0.0 37:0.0 38:0.0 39:0.0 40:0.0 41:0.0 42:0.0 43:0.0 44:0.0 45:0.0 46:0.0 47:0.0 48:0.0 49:0.0 50:0.0 
-1.1775604347691218 1:0.0 2:0.0 3:0.14184397163120568 4:0.0 5:0.0 6:0.0 7:0.0 8:0.0 9:0.15 10:0.14184397163120568 11:0.0 12:0.0 13:0.15827338129496402 14:0.0 15:0.0 16:0.0 17:0.0 18:0.0 19:0.0 20:0.0 21:0.0 22:0.0 23:0.0 24:0.0 25:0.0 26:0.0 27:0.0 28:0.0 29:0.0 30:0.0 31:0.15 32:0.0 33:0.0 34:0.0 35:0.0 36:0.0 37:0.0 38:0.0 39:0.15 40:0.0 41:0.0 42:0.0 43:0.0 44:0.0 45:0.0 46:0.0 47:0.0 48:0.0 49:0.0 50:0.0 
-0.37575889157206976 1:0.0 2:0.0 3:0.0 4:0.0 5:0.0 6:0.0 7:0.0 8:0.0 9:0.0 10:0.0 11:0.23616647035564803 12:0.0 13:0.08852851817907165 14:0.0 15:0.0 16:0.0 17:0.17518248175182483 18:0.0 19:0.0 20:0.0 21:0.0 22:0.0 23:0.0 24:0.0 25:0.0 26:0.0 27:0.0 28:0.0 29:0.0 30:0.0 31:0.0 32:0.16666666666666666 33:0.0 34:0.0 35:0.0 36:0.0 37:0.0 38:0.0 39:0.0 40:0.0 41:0.0 42:0.33345586304678887 43:0.0 44:0.0 45:0.0 46:0.0 47:0.0 48:0.0 49:0.0 50:0.0 
-1.434594733102915 1:0.17001791917376527 2:0.0 3:0.0 4:0.3001173529261697 5:0.0 6:0.0 7:0.0 8:0.0 9:0.0 10:0.0 11:0.0 12:0.0 13:0.0 14:0.15 15:0.0 16:0.0 17:0.0 18:0.0 19:0.0 20:0.0 21:0.0 22:0.0 23:0.0 24:0.0 25:0.0 26:0.0 27:0.0 28:0.0 29:0.0 30:0.0 31:0.15 32:0.0 33:0.0 34:0.0 35:0.0 36:0.0 37:0.0 38:0.0 39:0.0 40:0.0 41:0.0 42:0.0 43:0.0 44:0.0 45:0.0 46:0.0 47:0.0 48:0.14184397163120568 49:0.0 50:0.0 
-0.9501258514378471 1:0.15827338129496402 2:0.0 3:0.0 4:0.0 5:0.1598617168955516 6:0.0 7:0.0 8:0.0 9:0.0 10:0.0 11:0.0 12:0.0 13:0.15 14:0.0 15:0.0 16:0.0 17:0.15 18:0.0 19:0.0 20:0.0 21:0.0 22:0.0 23:0.0 24:0.24002093017827855 25:0.0 26:0.0 27:0.0 28:0.0 29:0.0 30:0.0 31:0.0 32:0.0 33:0.0 34:0.0 35:0.0 36:0.14184397163120568 37:0.0 38:0.0 39:0.0 40:0.0 41:0.0 42:0.0 43:0.0 44:0.0 45:0.0 46:0.0 47:0.0 48:0.0 49:0.0 50:0.0 
-0.5848112402595187 1:0.0 2:0.0 3:0.15 4:0.0 5:0.0 6:0.0 7:0.0 8:0.0 9:0.0 10:0.0 11:0.15827338129496402 12:0.0 13:0.0 14:0.0 15:0.0 16:0.0 17:0.16413337393738905 18:0.0 19:0.0 20:0.0 21:0.0 22:0.0 23:0.0 24:0.0 25:0.0 26:0.15 27:0.0 28:0.0 29:0.0 30:0.0 31:0.0 32:0.15827338129496402 33:0.0 34:0.0 35:0.0 36:0.0 37:0.0 38:0.0 39:0.15 40:0.0 41:0.0 42:0.06931986347268296 43:0.0 44:0.0 45:0.0 46:0.0 47:0.0 48:0.0 49:0.0 50:0.0 
-0.7071950309751015 1:0.15827338129496402 2:0.0 3:0.08586699849335108 4:0.0 5:0.0 6:0.0 7:0.0 8:0.0 9:0.0 10:0.0 11:0.0 12:0.0 13:0.0 14:0.0 15:0.0 16:0.0 17:0.0 18:0.0 19:0.0 20:0.0 21:0.0 22:0.0 23:0.0 24:0.12264619095509019 25:0.0 26:0.0 27:0.0 28:0.0 29:0.0 30:0.15827338129496402 31:0.0 32:0.15827338129496402 33:0.0 34:0.0 35:0.0 36:0.0 37:0.0 38:0.0 39:0.0 40:0.0 41:0.0 42:0.15 43:0.16666666666666666 44:0.0 45:0.0 46:0.0 47:0.0 48:0.0 49:0.0 50:0.0 
-0.9195265870551625 1:0.0 2:0.0 3:0.0 4:0.0 5:0.0 6:0.0 7:0.0 8:0.0 9:0.17518248175182483 10:0.0 11:0.0 12:0.0 13:0.0 14:0.0 15:0.0 16:0.0 17:0.16666666666666666 18:0.0 19:0.0 20:0.0 21:0.0 22:0.0 23:0.0 24:0.0 25:0.0 26:0.13247951702602337 27:0.0 28:0.0 29:0.0 30:0.0 31:0.0 32:0.0 33:0.0 34:0.0 35:0.0 36:0.0 37:0.0 38:0.0 39:0.0 40:0.0 41:0.0 42:0.0 43:0.0 44:0.0 45:0.15827338129496402 46:0.15827338129496402 47:0.0 48:0.15827338129496402 49:0.0 50:0.0 
-1.4120487304951193 1:0.0 2:0.0 3:0.0 4:0.0 5:0.0 6:0.0 7:0.0 8:0.0 9:0.0 10:0.0 11:0.0 12:0.0 13:0.0 14:0.0 15:0.14184397163120568 16:0.0 17:0.14184397163120568 18:0.0 19:0.0 20:0.0 21:0.0 22:0.0 23:0.0 24:0.0 25:0.0 26:0.0 27:0.0 28:0.0 29:0.0 30:0.15827338129496402 31:0.15827338129496402 32:0.0 33:0.0 34:0.0 35:0.0 36:0.0 37:0.0 38:0.0 39:0.0 40:0.0 41:0.0 42:0.12567879034755777 43:0.0 44:0.0 45:0.0 46:0.15827338129496402 47:0.0 48:0.0 49:0.0 50:0.0 
-0.7556279138712699 1:0.14184397163120568 2:0.0 3:0.0 4:0.0 5:0.0 6:0.0 7:0.0 8:0.0 9:0.0 10:0.0 11:0.0 12:0.0 13:0.0 14:0.14184397163120568 15:0.0 16:0.0 17:0.0 18:0.0 19:0.16666666666666666 20:0.0 21:0.0 22:0.0 23:0.0 24:0.15 25:0.0 26:0.047339224228424626 27:0.0 28:0.0 29:0.0 30:0.0 31:0.0 32:0.0 33:0.0 34:0.0 35:0.0 36:0.0 37:0.0 38:0.0 39:0.0 40:0.0 41:0.0 42:0.0 43:0.14403278454753327 44:0.0 45:0.0 46:0.0 47:0.0 48:0.15827338129496402 49:0.04999999999999999 50:0.0 
-0.6304560051180069 1:0.0 2:0.0 3:0.0 4:0.0 5:0.0 6:0.0 7:0.0 8:0.0 9:0.0 10:0.0 11:0.20011990407673866 12:0.0 13:0.0 14:0.0 15:0.0 16:0.0 17:0.0 18:0.0 19:0.0 20:0.0 21:0.0 22:0.0 23:0.0 24:0.16666666666666666 25:0.0 26:0.15 27:0.0 28:0.0 29:0.0 30:0.0 31:0.16666666666666666 32:0.15827338129496402 33:0.0 34:0.0 35:0.0 36:0.0 37:0.0 38:0.0 39:0.0 40:0.0 41:0.0 42:0.0 43:0.0 44:0.0 45:0.0 46:0.0 47:0.0 48:0.0 49:0.15827338129496402 50:0.0 
-2.2035314452762105 1:0.12998208082623472 2:0.15827338129496402 3:0.0 4:0.0 5:0.0 6:0.0 7:0.0 8:0.0 9:0.0 10:0.0 11:0.0 12:0.15 13:0.0 14:0.0 15:0.0 16:0.0 17:0.0 18:0.14184397163120568 19:0.0 20:0.0 21:0.0 22:0.0 23:0.0 24:0.0 25:0.0 26:0.12805659461638988 27:0.0 28:0.14184397163120568 29:0.0 30:0.0 31:0.0 32:0.0 33:0.0 34:0.0 35:0.0 36:0.0 37:0.0 38:0.0 39:0.0 40:0.0 41:0.0 42:0.0 43:0.0 44:0.0 45:0.15 46:0.0 47:0.0 48:0.0 49:0.0 50:0.0 
-1.6111956495293378 1:0.0 2:0.0 3:0.0 4:0.0 5:0.0 6:0.0 7:0.0 8:0.0 9:0.0 10:0.0 11:0.0 12:0.0 13:0.0 14:0.0 15:0.0 16:0.15 17:0.0 18:0.0 19:0.28368794326241137 20:0.0 21:0.14184397163120568 22:0.0 23:0.0 24:0.07435073218021329 25:0.0 26:0.15 27:0.0 28:0.0 29:0.0 30:0.0 31:0.0 32:0.0 33:0.0 34:0.0 35:0.0 36:0.0 37:0.0 38:0.0 39:0.15827338129496402 40:0.0 41:0.0 42:0.0 43:0.0 44:0.0 45:0.0 46:0.0 47:0.0 48:0.0 49:0.0 50:0.0 
-1.4518062904010034 1:0.0 2:0.0 3:0.0 4:0.0 5:0.0 6:0.0 7:0.0 8:0.0 9:0.0 10:0.0 11:0.0 12:0.0 13:0.0 14:0.0 15:0.0 16:0.0 17:0.0 18:0.0 19:0.0 20:0.0 21:0.0 22:0.0 23:0.0 24:0.0 25:0.0 26:0.0 27:0.15827338129496402 28:0.0 29:0.0 30:0.0 31:0.0 32:0.15827338129496402 33:0.0 34:0.0 35:0.0 36:0.0 37:0.0 38:0.0 39:0.0 40:0.0 41:0.0 42:0.14184397163120568 43:0.31956477392729815 44:0.0 45:0.0 46:0.0 47:0.14184397163120568 48:0.0 49:0.0 50:0.0 
-1.567029424105356 1:0.0 2:0.0 3:0.0 4:0.0 5:0.0 6:0.0 7:0.0 8:0.0 9:0.0 10:0.0 11:0.0 12:0.0 13:0.0 14:0.0 15:0.0 16:0.15 17:0.0 18:0.0 19:0.0 20:0.15827338129496402 21:0.0 22:0.0 23:0.0 24:0.0 25:0.0 26:0.15827338129496402 27:0.0 28:0.0 29:0.0 30:0.15 31:0.0 32:0.0 33:0.0 34:0.0 35:0.2223988038360543 36:0.0 37:0.0 38:0.0 39:0.0 40:0.0 41:0.0 42:0.0 43:0.0 44:0.0 45:0.0 46:0.0 47:0.0 48:0.15827338129496402 49:0.0 50:0.0 
-0.5449950597536694 1:0.0 2:0.0 3:0.0 4:0.0 5:0.0 6:0.0 7:0.0 8:0.0 9:0.0 10:0.0 11:0.0 12:0.0 13:0.3249400479616307 14:0.0 15:0.0 16:0.0 17:0.0 18:0.0 19:0.0 20:0.0 21:0.0 22:0.0 23:0.0 24:0.0 25:0.0 26:0.0 27:0.0 28:0.0 29:0.15 30:0.0 31:0.0 32:0.0 33:0.0 34:0.0 35:0.0 36:0.0 37:0.14184397163120568 38:0.0 39:0.0 40:0.0 41:0.0 42:0.0 43:0.18043522607270182 44:0.0 45:0.15827338129496402 46:0.0 47:0.0 48:0.0 49:0.0 50:0.0 
-1.1915017146778393 1:0.0 2:0.0 3:0.0 4:0.0 5:0.0 6:0.0 7:0.09654267460724555 8:0.0 9:0.15827338129496402 10:0.0 11:0.0 12:0.0 13:0.0 14:0.0 15:0.0 16:0.0 17:0.15827338129496402 18:0.0 19:0.0 20:0.11209041891793423 21:0.0 22:0.0 23:0.0 24:0.0 25:0.0 26:0.0 27:0.0 28:0.0 29:0.0 30:0.0 31:0.0 32:0.0 33:0.0 34:0.0 35:0.0 36:0.0 37:0.0 38:0.0 39:0.31654676258992803 40:0.0 41:0.0 42:0.0 43:0.15827338129496402 44:0.0 45:0.0 46:0.0 47:0.0 48:0.0 49:0.0 50:0.0 
-2.1686983894821283 1:0.0 2:0.0 3:0.0 4:0.0 5:0.0 6:0.0 7:0.0 8:0.0 9:0.15 10:0.0 11:0.0 12:0.15827338129496402 13:0.0 14:0.0 15:0.0 16:0.0 17:0.0 18:0.2838028169014084 19:0.0 20:0.0 21:0.0 22:0.0 23:0.0 24:0.0 25:0.0 26:0.0 27:0.0 28:0.0 29:0.0 30:0.0 31:0.0 32:0.15827338129496402 33:0.0 34:0.0 35:0.0 36:0.0 37:0.0 38:0.0 39:0.0 40:0.14184397163120568 41:0.0 42:0.0 43:0.0 44:0.0 45:0.0 46:0.0 47:0.0 48:0.0 49:0.0 50:0.0 
-0.765495451714182 1:0.0 2:0.0 3:0.0 4:0.0 5:0.0 6:0.0 7:0.0701239920594211 8:0.0 9:0.15827338129496402 10:0.0 11:0.15827338129496402 12:0.14184397163120568 13:0.0 14:0.0 15:0.0 16:0.0 17:0.0 18:0.0 19:0.15 20:0.0 21:0.0 22:0.0 23:0.0 24:0.0 25:0.0 26:0.0 27:0.0 28:0.0 29:0.0 30:0.15 31:0.0 32:0.0 33:0.0 34:0.0 35:0.0 36:0.0 37:0.0 38:0.0 39:0.0 40:0.0 41:0.0 42:0.0 43:0.0 44:0.0 45:0.0 46:0.0 47:0.0 48:0.15 49:0.0 50:0.0 
-0.5275235800121291 1:0.0 2:0.0 3:0.0 4:0.0 5:0.0 6:0.0 7:0.0 8:0.0 9:0.0 10:0.0 11:0.0 12:0.0 13:0.1024162377476999 14:0.0 15:0.0 16:0.15 17:0.0 18:0.0 19:0.0 20:0.0 21:0.0 22:0.0 23:0.0 24:0.0 25:0.0 26:0.15 27:0.0 28:0.0 29:0.0 30:0.0 31:0.0 32:0.0 33:0.0 34:0.0 35:0.0 36:0.0 37:0.0 38:0.0 39:0.16666666666666666 40:0.0 41:0.0 42:0.11425042891896672 43:0.16666666666666666 44:0.0 45:0.0 46:0.0 47:0.0 48:0.15 49:0.0 50:0.0 
-1.2151117681987063 1:0.0 2:0.0 3:0.0 4:0.0 5:0.0 6:0.0 7:0.0 8:0.0 9:0.0 10:0.0 11:0.0 12:0.0 13:0.0 14:0.0 15:0.0 16:0.0 17:0.0 18:0.0 19:0.0 20:0.0 21:0.0 22:0.0 23:0.0 24:0.0 25:0.0 26:0.11932744243824203 27:0.0 28:0.0 29:0.0 30:0.0 31:0.0 32:0.0 33:0.0 34:0.0 35:0.0 36:0.0 37:0.0 38:0.0 39:0.0 40:0.0 41:0.0 42:0.0 43:0.0 44:0.0 45:0.22227664655333845 46:0.17518248175182483 47:0.0 48:0.0 49:0.3249400479616307 50:0.15827338129496402 
-1.7781408043465574 1:0.0 2:0.0 3:0.15 4:0.0 5:0.0 6:0.0 7:0.0 8:0.0 9:0.0 10:0.0 11:0.0 12:0.0 13:0.0 14:0.0 15:0.0 16:0.0 17:0.0 18:0.0 19:0.0 20:0.0 21:0.0 22:0.14184397163120568 23:0.0 24:0.0 25:0.0 26:0.15827338129496402 27:0.0 28:0.0 29:0.0 30:0.0 31:0.0 32:0.0 33:0.0 34:0.0 35:0.0 36:0.0 37:0.0 38:0.0 39:0.0 40:0.0 41:0.0 42:0.0 43:0.15827338129496402 44:0.0 45:0.0 46:0.16666666666666666 47:0.0 48:0.18189805497869854 49:0.0 50:0.0 
-1.196190180198975 1:0.0 2:0.0 3:0.0 4:0.0 5:0.15 6:0.0 7:0.0 8:0.0 9:0.0 10:0.0 11:0.16666666666666666 12:0.0 13:0.0 14:0.0 15:0.0 16:0.0 17:0.0 18:0.0 19:0.0 20:0.1462057790053576 21:0.0 22:0.0 23:0.0 24:0.0 25:0.0 26:0.0 27:0.0 28:0.0 29:0.0 30:0.0 31:0.0 32:0.15827338129496402 33:0.0 34:0.0 35:0.0 36:0.0 37:0.0 38:0.0 39:0.0 40:0.0 41:0.0 42:0.0 43:0.0 44:0.0 45:0.0 46:0.0 47:0.0 48:0.0 49:0.15 50:0.16666666666666666 
-1.3993942477677652 1:0.0 2:0.2295532601522883 3:0.0 4:0.0 5:0.0 6:0.0 7:0.15 8:0.0 9:0.0 10:0.0 11:0.0 12:0.0 13:0.15827338129496402 14:0.0 15:0.0 16:0.0 17:0.0 18:0.15 19:0.0 20:0.0 21:0.0 22:0.0 23:0.0 24:0.0 25:0.0 26:0.0 27:0.0 28:0.0 29:0.0 30:0.0 31:0.0 32:0.0 33:0.15389997725778362 34:0.0 35:0.0 36:0.0 37:0.0 38:0.0 39:0.0 40:0.0 41:0.0 42:0.0 43:0.0 44:0.0 45:0.0 46:0.0 47:0.0 48:0.0 49:0.15827338129496402 50:0.0 
-2.3555352266398213 1:0.0 2:0.0 3:0.0 4:0.0 5:0.0 6:0.0 7:0.0 8:0.0 9:0.0 10:0.0 11:0.0 12:0.0 13:0.0 14:0.0 15:0.0 16:0.0 17:0.0 18:0.0 19:0.0 20:0.0 21:0.15827338129496402 22:0.0 23:0.0 24:0.0 25:0.0 26:0.0 27:0.0 28:0.0 29:0.0 30:0.0 31:0.0 32:0.0 33:0.0 34:0.0 35:0.1258741258741259 36:0.0 37:0.0 38:0.0 39:0.15827338129496402 40:0.15827338129496402 41:0.0 42:0.0 43:0.14184397163120568 44:0.0 45:0.15827338129496402 46:0.0 47:0.0 48:0.0 49:0.0 50:0.0 
-1.0411100520023566 1:0.0 2:0.0 3:0.0 4:0.0 5:0.0 6:0.0 7:0.0 8:0.0 9:0.15 10:0.0 11:0.0 12:0.0 13:0.1272409625306941 14:0.0 15:0.0 16:0.0 17:0.0 18:0.0 19:0.0 20:0.0 21:0.0 22:0.0 23:0.0 24:0.0 25:0.0 26:0.0 27:0.0 28:0.0 29:0.0 30:0.0 31:0.0 32:0.41448565617434185 33:0.0 34:0.0 35:0.0 36:0.0 37:0.0 38:0.0 39:0.0 40:0.15 41:0.0 42:0.0 43:0.0 44:0.0 45:0.15827338129496402 46:0.0 47:0.0 48:0.0 49:0.0 50:0.0 
-0.7683792279424908 1:0.14184397163120568 2:0.15827338129496402 3:0.0 4:0.0 5:0.0 6:0.0 7:0.13380281690140844 8:0.0 9:0.0 10:0.0 11:0.0 12:0.0 13:0.0 14:0.0 15:0.0 16:0.0 17:0.0 18:0.0 19:0.13380281690140844 20:0.0 21:0.0 22:0.0 23:0.0 24:0.0 25:0.0 26:0.0 27:0.0 28:0.0 29:0.0 30:0.0 31:0.0 32:0.0 33:0.0 34:0.0 35:0.0 36:0.0 37:0.0 38:0.0 39:0.14184397163120568 40:0.0 41:0.0 42:0.0 43:0.0 44:0.0 45:0.0 46:0.0 47:0.0 48:0.1360596376026274 49:0.15 50:0.0 
-0.6044775063882118 1:0.0 2:0.0 3:0.0 4:0.0 5:0.0 6:0.0 7:0.0 8:0.0 9:0.0 10:0.0 11:0.4444444444444444 12:0.0 13:0.1277777777777777 14:0.0 15:0.0 16:0.0 17:0.0 18:0.0 19:0.1111111111111111 20:0.0 21:0.0 22:0.0 23:0.0 24:0.0 25:0.0 26:0.31666666666666665 27:0.0 28:0.0 29:0.0 30:0.0 31:0.0 32:0.0 33:0.0 34:0.0 35:0.0 36:0.0 37:0.0 38:0.0 39:0.0 40:0.0 41:0.0 42:0.0 43:0.0 44:0.0 45:0.0 46:0.0 47:0.0 48:0.0 49:0.0 50:0.0 
-2.4962223437963424 1:0.0 2:0.0 3:0.14184397163120568 4:0.0 5:0.0 6:0.0 7:0.0 8:0.0 9:0.0 10:0.0 11:0.0 12:0.0 13:0.0 14:0.0 15:0.16666666666666666 16:0.0 17:0.0 18:0.0 19:0.15827338129496402 20:0.0 21:0.0 22:0.16666666666666666 23:0.0 24:0.0 25:0.0 26:0.0 27:0.0 28:0.0 29:0.0 30:0.14184397163120568 31:0.0 32:0.0 33:0.0 34:0.0 35:0.0 36:0.0 37:0.0 38:0.0 39:0.0 40:0.0 41:0.0 42:0.0 43:0.0 44:0.0 45:0.0 46:0.0 47:0.0 48:0.0 49:0.0 50:0.16666666666666666 
-0.9377335274460618 1:0.0 2:0.0 3:0.0 4:0.0 5:0.15827338129496402 6:0.0 7:0.0 8:0.0 9:0.16666666666666666 10:0.0 11:0.0 12:0.15 13:0.0 14:0.0 15:0.0 16:0.0 17:0.0 18:0.0 19:0.0 20:0.0 21:0.0 22:0.0 23:0.0 24:0.0 25:0.0 26:0.0 27:0.0 28:0.0 29:0.0 30:0.0 31:0.0 32:0.0 33:0.0 34:0.0 35:0.15 36:0.0 37:0.0 38:0.0 39:0.0 40:0.0 41:0.0 42:0.0 43:0.15827338129496402 44:0.0 45:0.0 46:0.0 47:0.0 48:0.15 49:0.0 50:0.0 
-1.093233506694366 1:0.0 2:0.0 3:0.0 4:0.0 5:0.0 6:0.0 7:0.0 8:0.0 9:0.0 10:0.0 11:0.0 12:0.15 13:0.0 14:0.0 15:0.0 16:0.0 17:0.0 18:0.0 19:0.2918439716312057 20:0.15 21:0.0 22:0.0 23:0.0 24:0.0 25:0.0 26:0.0 27:0.0 28:0.0 29:0.0 30:0.0 31:0.15 32:0.0 33:0.0 34:0.0 35:0.0 36:0.0 37:0.0 38:0.0 39:0.0 40:0.0 41:0.0 42:0.0 43:0.0 44:0.0 45:0.0 46:0.0 47:0.0 48:0.17793924169022007 49:0.08021678667857421 50:0.0 
-0.6976795306807468 1:0.0 2:0.0 3:0.0 4:0.0 5:0.0 6:0.0 7:0.0 8:0.0 9:0.0 10:0.0 11:0.0 12:0.0 13:0.0 14:0.0 15:0.0 16:0.0 17:0.0 18:0.0 19:0.0 20:0.0 21:0.0 22:0.0 23:0.0 24:0.3249400479616307 25:0.0 26:0.16666666666666666 27:0.0 28:0.0 29:0.0 30:0.0 31:0.0 32:0.16666666666666666 33:0.0 34:0.0 35:0.0 36:0.0 37:0.0 38:0.0 39:0.14378247384718854 40:0.0 41:0.0 42:0.15827338129496402 43:0.0 44:0.0 45:0.0 46:0.0 47:0.0 48:0.0 49:0.0 50:0.0 
-0.20304675166373004 1:0.0 2:0.0 3:0.0 4:0.0 5:0.0 6:0.0 7:0.0 8:0.0 9:0.0 10:0.0 11:0.0 12:0.0 13:0.18382352941176472 14:0.0 15:0.0 16:0.0 17:0.3333333333333333 18:0.0 19:0.05124994036544056 20:0.0 21:0.0 22:0.0 23:0.0 24:0.0 25:0.0 26:0.0 27:0.0 28:0.0 29:0.0 30:0.0 31:0.0 32:0.17518248175182483 33:0.0 34:0.0 35:0.0 36:0.0 37:0.0 38:0.0 39:0.0 40:0.0 41:0.0 42:0.0 43:0.2222222222222222 44:0.0 45:0.0 46:0.0 47:0.0 48:0.0 49:0.0 50:0.0 
-1.6287952589375425 1:0.0 2:0.0 3:0.0 4:0.0 5:0.0 6:0.0 7:0.0 8:0.0 9:0.0 10:0.101019072219446 11:0.0 12:0.31654676258992803 13:0.0 14:0.0 15:0.0 16:0.0 17:0.0 18:0.0 19:0.0 20:0.0 21:0.0 22:0.0 23:0.0 24:0.0 25:0.0 26:0.15827338129496402 27:0.0 28:0.0 29:0.0 30:0.0 31:0.0 32:0.265887402600698 33:0.0 34:0.0 35:0.0 36:0.0 37:0.0 38:0.0 39:0.0 40:0.15827338129496402 41:0.0 42:0.0 43:0.0 44:0.0 45:0.0 46:0.0 47:0.0 48:0.0 49:0.0 50:0.0 
-0.7441022526211621 1:0.0 2:0.2726413121123965 3:0.0 4:0.0 5:0.0 6:0.0 7:0.0 8:0.0 9:0.0 10:0.0 11:0.0 12:0.0 13:0.16666666666666666 14:0.0 15:0.0 16:0.0 17:0.3249400479616307 18:0.0 19:0.18019641770375053 20:0.0 21:0.0 22:0.0 23:0.0 24:0.0 25:0.0 26:0.0 27:0.0 28:0.0 29:0.0 30:0.0 31:0.0 32:0.0 33:0.0 34:0.0 35:0.0 36:0.0 37:0.0 38:0.0 39:0.0 40:0.0 41:0.0 42:0.0 43:0.0 44:0.0 45:0.0 46:0.0 47:0.0 48:0.0 49:0.0 50:0.0 
