svm_type c_svc
kernel_type rbf
gamma 10.0
nr_class 2
total_sv 184
rho 0.01694876146786405
label 0 1
probA -3.0286494188322837
probB -0.01613273638632741
nr_sv 87 97
SV
1.04111039638528 1:0.0 2:0.0 3:0.0 4:0.0 5:0.0 6:0.0 7:0.0 8:0.0 9:0.15 10:0.0 11:0.0 12:0.0 13:0.1272409625306941 14:0.0 15:0.0 16:0.0 17:0.0 18:0.0 19:0.0 20:0.0 21:0.0 22:0.0 23:0.0 24:0.0 25:0.0 26:0.0 27:0.0 28:0.0 29:0.0 30:0.0 31:0.0 32:0.41448565617434185 33:0.0 34:0.0 35:0.0 36:0.0 37:0.0 38:0.0 39:0.0 40:0.15 41:0.0 42:0.0 43:0.0 44:0.0 45:0.15827338129496402 46:0.0 47:0.0 48:0.0 49:0.0 50:0.0 
1.191501813814095 1:0.0 2:0.0 3:0.0 4:0.0 5:0.0 6:0.0 7:0.09654267460724555 8:0.0 9:0.15827338129496402 10:0.0 11:0.0 12:0.0 13:0.0 14:0.0 15:0.0 16:0.0 17:0.15827338129496402 18:0.0 19:0.0 20:0.11209041891793423 21:0.0 22:0.0 23:0.0 24:0.0 25:0.0 26:0.0 27:0.0 28:0.0 29:0.0 30:0.0 31:0.0 32:0.0 33:0.0 34:0.0 35:0.0 36:0.0 37:0.0 38:0.0 39:0.31654676258992803 40:0.0 41:0.0 42:0.0 43:0.15827338129496402 44:0.0 45:0.0 46:0.0 47:0.0 48:0.0 49:0.0 50:0.0 
1.2863723072443431 1:0.0 2:0.0 3:0.0 4:0.0 5:0.0 6:0.0 7:0.0 8:0.0 9:0.0 10:0.0 11:0.16666666666666666 12:0.15 13:0.15827338129496402 14:0.0 15:0.0 16:0.0 17:0.0 18:0.0 19:0.0 20:0.0 21:0.15827338129496402 22:0.2890680216532898 23:0.0 24:0.0 25:0.0 26:0.0 27:0.0 28:0.0 29:0.0 30:0.0 31:0.0 32:0.0 33:0.0 34:0.0 35:0.0 36:0.0 37:0.0 38:0.0 39:0.0 40:0.0 41:0.0 42:0.0 43:0.0 44:0.0 45:0.0 46:0.0 47:0.0 48:0.0 49:0.0 50:0.0 
0.8059611537979937 1:0.0 2:0.0 3:0.0 4:0.0 5:0.0 6:0.0 7:0.0 8:0.0 9:0.0 10:0.0 11:0.0 12:0.0 13:0.16666666666666666 14:0.0 15:0.15827338129496402 16:0.0 17:0.0 18:0.0 19:0.0 20:0.0 21:0.0 22:0.0 23:0.0 24:0.0 25:0.0 26:0.16666666666666666 27:0.0 28:0.0 29:0.0 30:0.0 31:0.0 32:0.0520611064155862 33:0.0 34:0.0 35:0.0 36:0.0 37:0.0 38:0.0 39:0.0 40:0.0 41:0.0 42:0.0 43:0.20633217895611639 44:0.0 45:0.0 46:0.0 47:0.0 48:0.0 49:0.25 50:0.0 
1.4345948824907475 1:0.17001791917376527 2:0.0 3:0.0 4:0.3001173529261697 5:0.0 6:0.0 7:0.0 8:0.0 9:0.0 10:0.0 11:0.0 12:0.0 13:0.0 14:0.15 15:0.0 16:0.0 17:0.0 18:0.0 19:0.0 20:0.0 21:0.0 22:0.0 23:0.0 24:0.0 25:0.0 26:0.0 27:0.0 28:0.0 29:0.0 30:0.0 31:0.15 32:0.0 33:0.0 34:0.0 35:0.0 36:0.0 37:0.0 38:0.0 39:0.0 40:0.0 41:0.0 42:0.0 43:0.0 44:0.0 45:0.0 46:0.0 47:0.0 48:0.14184397163120568 49:0.0 50:0.0 
0.5275237375875584 1:0.0 2:0.0 3:0.0 4:0.0 5:0.0 6:0.0 7:0.0 8:0.0 9:0.0 10:0.0 11:0.0 12:0.0 13:0.1024162377476999 14:0.0 15:0.0 16:0.15 17:0.0 18:0.0 19:0.0 20:0.0 21:0.0 22:0.0 23:0.0 24:0.0 25:0.0 26:0.15 27:0.0 28:0.0 29:0.0 30:0.0 31:0.0 32:0.0 33:0.0 34:0.0 35:0.0 36:0.0 37:0.0 38:0.0 39:0.16666666666666666 40:0.0 41:0.0 42:0.11425042891896672 43:0.16666666666666666 44:0.0 45:0.0 46:0.0 47:0.0 48:0.15 49:0.0 50:0.0 
1.084110953190118 1:0.0 2:0.16666666666666666 3:0.0 4:0.0 5:0.0 6:0.0 7:0.0 8:0.0 9:0.0 10:0.0 11:0.16666666666666666 12:0.0 13:0.0 14:0.0 15:0.20839328537170268 16:0.0 17:0.0 18:0.0 19:0.0 20:0.0 21:0.0 22:0.0 23:0.0 24:0.15 25:0.0 26:0.0 27:0.0 28:0.0 29:0.0 30:0.0 31:0.0 32:0.0 33:0.0 34:0.0 35:0.0 36:0.0 37:0.0 38:0.0 39:0.0 40:0.0 41:0.0 42:0.15 43:0.0 44:0.0 45:0.15827338129496402 46:0.0 47:0.0 48:0.0 49:0.0 50:0.0 
2.4581297308291465 1:0.0 2:0.0 3:0.08079966817331558 4:0.0 5:0.0 6:0.0 7:0.0 8:0.0 9:0.0 10:0.0 11:0.0 12:0.0 13:0.0 14:0.0 15:0.0 16:0.13610680664682823 17:0.0 18:0.0 19:0.0 20:0.0 21:0.0 22:0.0 23:0.0 24:0.0 25:0.0 26:0.0 27:0.15 28:0.0 29:0.0 30:0.15827338129496402 31:0.15827338129496402 32:0.0 33:0.0 34:0.0 35:0.0 36:0.0 37:0.15827338129496402 38:0.0 39:0.0 40:0.0 41:0.0 42:0.0 43:0.0 44:0.0 45:0.0 46:0.0 47:0.0 48:0.0 49:0.15827338129496402 50:0.0 
0.9593904789175965 1:0.2727272727272727 2:0.0 3:0.0 4:0.0 5:0.0 6:0.0 7:0.0 8:0.0 9:0.0 10:0.0 11:0.0 12:0.0 13:0.0 14:0.0 15:0.0 16:0.0 17:0.043539965570846495 18:0.0 19:0.0 20:0.0 21:0.0 22:0.0 23:0.0 24:0.15827338129496402 25:0.0 26:0.0 27:0.0 28:0.0 29:0.16666666666666666 30:0.0 31:0.0 32:0.0 33:0.0 34:0.0 35:0.0 36:0.0 37:0.0 38:0.0 39:0.0 40:0.0 41:0.0 42:0.0 43:0.17518248175182483 44:0.0 45:0.16666666666666666 46:0.0 47:0.0 48:0.0 49:0.0 50:0.0 
0.9155967496413018 1:0.0 2:0.0 3:0.0 4:0.0 5:0.14184397163120568 6:0.0 7:0.0 8:0.0 9:0.0 10:0.0 11:0.0 12:0.0 13:0.0 14:0.0 15:0.0 16:0.0 17:0.0 18:0.0 19:0.0 20:0.15827338129496402 21:0.0 22:0.0 23:0.0 24:0.15 25:0.0 26:0.0 27:0.0 28:0.0 29:0.0 30:0.0 31:0.0 32:0.0 33:0.0 34:0.0 35:0.0 36:0.0 37:0.0 38:0.0 39:0.0 40:0.0 41:0.0 42:0.0 43:0.0 44:0.0 45:0.15 46:0.0 47:0.0 48:0.16666666666666666 49:0.15827338129496402 50:0.0 
0.27225833776789243 1:0.0 2:0.0 3:0.0 4:0.0 5:0.0 6:0.0 7:0.0 8:0.0 9:0.0631273376143246 10:0.0 11:0.0 12:0.0 13:0.2727272727272727 14:0.0 15:0.0 16:0.0 17:0.0 18:0.0 19:0.15827338129496402 20:0.0 21:0.0 22:0.0 23:0.0 24:0.16666666666666666 25:0.0 26:0.0 27:0.0 28:0.0 29:0.0 30:0.0 31:0.0 32:0.0 33:0.0 34:0.0 35:0.0 36:0.0 37:0.0 38:0.0 39:0.0 40:0.0 41:0.0 42:0.16666666666666666 43:0.0 44:0.0 45:0.15 46:0.0 47:0.0 48:0.0 49:0.0 50:0.0 
0.7071959194505982 1:0.15827338129496402 2:0.0 3:0.08586699849335108 4:0.0 5:0.0 6:0.0 7:0.0 8:0.0 9:0.0 10:0.0 11:0.0 12:0.0 13:0.0 14:0.0 15:0.0 16:0.0 17:0.0 18:0.0 19:0.0 20:0.0 21:0.0 22:0.0 23:0.0 24:0.12264619095509019 25:0.0 26:0.0 27:0.0 28:0.0 29:0.0 30:0.15827338129496402 31:0.0 32:0.15827338129496402 33:0.0 34:0.0 35:0.0 36:0.0 37:0.0 38:0.0 39:0.0 40:0.0 41:0.0 42:0.15 43:0.16666666666666666 44:0.0 45:0.0 46:0.0 47:0.0 48:0.0 49:0.0 50:0.0 
0.8627405443651817 1:0.0 2:0.0 3:0.0 4:0.0 5:0.0 6:0.0 7:0.0 8:0.25 9:0.0 10:0.0 11:0.0 12:0.0 13:0.0 14:0.0 15:0.0 16:0.0 17:0.25 18:0.0 19:0.0 20:0.0 21:0.0 22:0.0 23:0.0 24:0.0 25:0.0 26:0.0 27:0.0 28:0.0 29:0.0 30:0.0 31:0.0 32:0.0 33:0.0 34:0.0 35:0.25 36:0.0 37:0.0 38:0.0 39:0.0 40:0.0 41:0.0 42:0.0 43:0.0 44:0.0 45:0.0 46:0.0 47:0.0 48:0.25 49:0.0 50:0.0 
0.5240560690668931 1:0.0 2:0.0 3:0.0 4:0.0 5:0.0 6:0.0 7:0.0 8:0.0 9:0.0 10:0.0 11:0.5 12:0.0 13:0.0 14:0.0 15:0.0 16:0.0 17:0.18382352941176472 18:0.0 19:0.0 20:0.0 21:0.0 22:0.0 23:0.0 24:0.0 25:0.0 26:0.0 27:0.0 28:0.0 29:0.0 30:0.0 31:0.0 32:0.18382352941176472 33:0.0 34:0.0 35:0.0 36:0.0 37:0.0 38:0.0 39:0.0 40:0.0 41:0.0 42:0.0 43:0.0 44:0.0 45:0.0 46:0.0 47:0.0 48:0.0 49:0.0 50:0.0 
2.4962222965240377 1:0.0 2:0.0 3:0.14184397163120568 4:0.0 5:0.0 6:0.0 7:0.0 8:0.0 9:0.0 10:0.0 11:0.0 12:0.0 13:0.0 14:0.0 15:0.16666666666666666 16:0.0 17:0.0 18:0.0 19:0.15827338129496402 20:0.0 21:0.0 22:0.16666666666666666 23:0.0 24:0.0 25:0.0 26:0.0 27:0.0 28:0.0 29:0.0 30:0.14184397163120568 31:0.0 32:0.0 33:0.0 34:0.0 35:0.0 36:0.0 37:0.0 38:0.0 39:0.0 40:0.0 41:0.0 42:0.0 43:0.0 44:0.0 45:0.0 46:0.0 47:0.0 48:0.0 49:0.0 50:0.16666666666666666 
0.3383847104154443 1:0.0 2:0.0 3:0.0 4:0.0 5:0.1402556360306181 6:0.0 7:0.0 8:0.0 9:0.15 10:0.0 11:0.0 12:0.15 13:0.10147098267441773 14:0.0 15:0.0 16:0.0 17:0.0 18:0.0 19:0.0 20:0.0 21:0.0 22:0.0 23:0.0 24:0.0 25:0.0 26:0.15827338129496402 27:0.0 28:0.0 29:0.0 30:0.0 31:0.0 32:0.15 33:0.0 34:0.0 35:0.0 36:0.0 37:0.0 38:0.0 39:0.0 40:0.0 41:0.0 42:0.0 43:0.0 44:0.0 45:0.0 46:0.0 47:0.0 48:0.0 49:0.15 50:0.0 
1.4105845944301272 1:0.0 2:0.0 3:0.0 4:0.0 5:0.0 6:0.0 7:0.0 8:0.0 9:0.0 10:0.0 11:0.0 12:0.15827338129496402 13:0.16666666666666666 14:0.0 15:0.0 16:0.14184397163120568 17:0.0 18:0.13380281690140844 19:0.0 20:0.0 21:0.0 22:0.0 23:0.0 24:0.0 25:0.0 26:0.0 27:0.0 28:0.0 29:0.0 30:0.0 31:0.15827338129496402 32:0.0 33:0.0 34:0.0 35:0.0 36:0.0 37:0.0 38:0.0 39:0.0 40:0.0 41:0.0 42:0.0 43:0.16666666666666666 44:0.0 45:0.0 46:0.0 47:0.0 48:0.0 49:0.0 50:0.0 
0.6304557563118365 1:0.0 2:0.0 3:0.0 4:0.0 5:0.0 6:0.0 7:0.0 8:0.0 9:0.0 10:0.0 11:0.20011990407673866 12:0.0 13:0.0 14:0.0 15:0.0 16:0.0 17:0.0 18:0.0 19:0.0 20:0.0 21:0.0 22:0.0 23:0.0 24:0.16666666666666666 25:0.0 26:0.15 27:0.0 28:0.0 29:0.0 30:0.0 31:0.16666666666666666 32:0.15827338129496402 33:0.0 34:0.0 35:0.0 36:0.0 37:0.0 38:0.0 39:0.0 40:0.0 41:0.0 42:0.0 43:0.0 44:0.0 45:0.0 46:0.0 47:0.0 48:0.0 49:0.15827338129496402 50:0.0 
1.101203253912152 1:0.0 2:0.0 3:0.0 4:0.15 5:0.0 6:0.0 7:0.0 8:0.0 9:0.0 10:0.13380281690140844 11:0.0 12:0.0 13:0.0 14:0.0 15:0.0 16:0.0 17:0.15827338129496402 18:0.0 19:0.0 20:0.0 21:0.16666666666666666 22:0.0 23:0.0 24:0.0 25:0.0 26:0.0 27:0.0 28:0.0 29:0.0 30:0.0 31:0.0 32:0.0 33:0.0 34:0.0 35:0.0 36:0.0 37:0.0 38:0.0 39:0.0 40:0.0 41:0.0 42:0.0 43:0.0 44:0.0 45:0.0 46:0.0 47:0.0 48:0.15 49:0.15 50:0.0 
0.7683798870531507 1:0.14184397163120568 2:0.15827338129496402 3:0.0 4:0.0 5:0.0 6:0.0 7:0.13380281690140844 8:0.0 9:0.0 10:0.0 11:0.0 12:0.0 13:0.0 14:0.0 15:0.0 16:0.0 17:0.0 18:0.0 19:0.13380281690140844 20:0.0 21:0.0 22:0.0 23:0.0 24:0.0 25:0.0 26:0.0 27:0.0 28:0.0 29:0.0 30:0.0 31:0.0 32:0.0 33:0.0 34:0.0 35:0.0 36:0.0 37:0.0 38:0.0 39:0.14184397163120568 40:0.0 41:0.0 42:0.0 43:0.0 44:0.0 45:0.0 46:0.0 47:0.0 48:0.1360596376026274 49:0.15 50:0.0 
0.9849557679923764 1:0.0 2:0.0 3:0.0 4:0.0 5:0.0 6:0.0 7:0.0 8:0.0 9:0.0 10:0.0 11:0.0 12:0.0 13:0.0 14:0.0 15:0.0 16:0.0 17:0.0 18:0.0 19:0.0 20:0.0 21:0.0 22:0.0 23:0.0 24:0.0 25:0.0 26:0.0 27:0.0 28:0.0 29:0.0 30:0.23757778778131555 31:0.0 32:0.0 33:0.0 34:0.0 35:0.0 36:0.0 37:0.0 38:0.0 39:0.0 40:0.15827338129496402 41:0.0 42:0.28368794326241137 43:0.0 44:0.0 45:0.0 46:0.0 47:0.0 48:0.15 49:0.0 50:0.16666666666666666 
0.7654957504525846 1:0.0 2:0.0 3:0.0 4:0.0 5:0.0 6:0.0 7:0.0701239920594211 8:0.0 9:0.15827338129496402 10:0.0 11:0.15827338129496402 12:0.14184397163120568 13:0.0 14:0.0 15:0.0 16:0.0 17:0.0 18:0.0 19:0.15 20:0.0 21:0.0 22:0.0 23:0.0 24:0.0 25:0.0 26:0.0 27:0.0 28:0.0 29:0.0 30:0.15 31:0.0 32:0.0 33:0.0 34:0.0 35:0.0 36:0.0 37:0.0 38:0.0 39:0.0 40:0.0 41:0.0 42:0.0 43:0.0 44:0.0 45:0.0 46:0.0 47:0.0 48:0.15 49:0.0 50:0.0 
1.5757338829373027 1:0.0 2:0.0 3:0.0 4:0.13380281690140844 5:0.0 6:0.0 7:0.0 8:0.0 9:0.0 10:0.0 11:0.0 12:0.0 13:0.0 14:0.0 15:0.0 16:0.0 17:0.0 18:0.0 19:0.0 20:0.0 21:0.16666666666666666 22:0.0 23:0.0 24:0.15 25:0.0 26:0.0 27:0.0 28:0.0 29:0.0 30:0.0 31:0.0 32:0.0 33:0.0 34:0.0 35:0.0 36:0.0 37:0.0 38:0.0 39:0.0 40:0.0 41:0.0 42:0.15 43:0.16666666666666666 44:0.0 45:0.0 46:0.0 47:0.0 48:0.0 49:0.0 50:0.20683300063919133 
0.6383812920040104 1:0.0 2:0.0 3:0.0 4:0.0 5:0.0 6:0.0 7:0.0 8:0.0 9:0.0 10:0.0 11:0.17518248175182483 12:0.0 13:0.0 14:0.0 15:0.0 16:0.0 17:0.0 18:0.0 19:0.15827338129496402 20:0.0 21:0.0 22:0.0 23:0.0 24:0.16666666666666666 25:0.0 26:0.0 27:0.0 28:0.0 29:0.0 30:0.0 31:0.1170435532165641 32:0.0 33:0.0 34:0.0 35:0.0 36:0.0 37:0.0 38:0.0 39:0.0 40:0.0 41:0.0 42:0.15827338129496402 43:0.0 44:0.0 45:0.0 46:0.0 47:0.0 48:0.16666666666666666 49:0.05789386910834976 50:0.0 
1.206933407863479 1:0.1111111111111111 2:0.0 3:0.0 4:0.0 5:0.0 6:0.0 7:0.0 8:0.0 9:0.15827338129496402 10:0.0765814784458051 11:0.0 12:0.0 13:0.0 14:0.0 15:0.0 16:0.0 17:0.15 18:0.0 19:0.15 20:0.0 21:0.0 22:0.0 23:0.0 24:0.0 25:0.0 26:0.0 27:0.0 28:0.0 29:0.0 30:0.0 31:0.0 32:0.15827338129496402 33:0.0 34:0.0 35:0.0 36:0.0 37:0.0 38:0.0 39:0.0 40:0.0 41:0.0 42:0.0 43:0.16666666666666666 44:0.0 45:0.0 46:0.0 47:0.0 48:0.0 49:0.0 50:0.0 
0.06536600755435158 1:0.0 2:0.15 3:0.0 4:0.0 5:0.0 6:0.0 7:0.0 8:0.0 9:0.0 10:0.0 11:0.17518248175182483 12:0.0 13:0.34184914841849146 14:0.0 15:0.0 16:0.0 17:0.0 18:0.0 19:0.15 20:0.0 21:0.0 22:0.0 23:0.0 24:0.0 25:0.0 26:0.0 27:0.0 28:0.0 29:0.0 30:0.0 31:0.0 32:0.0 33:0.0 34:0.0 35:0.0 36:0.0 37:0.0 38:0.0 39:0.0 40:0.0 41:0.0 42:0.18222907092670562 43:0.0 44:0.0 45:0.0 46:0.0 47:0.0 48:0.0 49:0.0 50:0.0 
0.24055425582532608 1:0.16666666666666666 2:0.0 3:0.0 4:0.0 5:0.0 6:0.0 7:0.0 8:0.0 9:0.0 10:0.0 11:0.3249400479616307 12:0.0 13:0.08369829683698299 14:0.0 15:0.0 16:0.0 17:0.0 18:0.0 19:0.0 20:0.0 21:0.0 22:0.0 23:0.0 24:0.0 25:0.0 26:0.0 27:0.0 28:0.0 29:0.0 30:0.0 31:0.0 32:0.0 33:0.0 34:0.0 35:0.0 36:0.0 37:0.0 38:0.0 39:0.0 40:0.0 41:0.0 42:0.1260443103682584 43:0.17518248175182483 44:0.0 45:0.0 46:0.0 47:0.0 48:0.0 49:0.0 50:0.0 
0.5587725325147452 1:0.0 2:0.17518248175182483 3:0.0 4:0.0 5:0.0 6:0.0 7:0.0 8:0.0 9:0.10353932905234206 10:0.0 11:0.0 12:0.0 13:0.06251461182243767 14:0.0 15:0.0 16:0.0 17:0.0 18:0.0 19:0.0 20:0.0 21:0.0 22:0.0 23:0.0 24:0.0 25:0.0 26:0.18382352941176472 27:0.0 28:0.0 29:0.0 30:0.0 31:0.15 32:0.0 33:0.0 34:0.0 35:0.0 36:0.0 37:0.0 38:0.0 39:0.0 40:0.0 41:0.0 42:0.16666666666666666 43:0.0 44:0.0 45:0.0 46:0.0 47:0.0 48:0.15827338129496402 49:0.0 50:0.0 
0.9377332632134986 1:0.0 2:0.0 3:0.0 4:0.0 5:0.15827338129496402 6:0.0 7:0.0 8:0.0 9:0.16666666666666666 10:0.0 11:0.0 12:0.15 13:0.0 14:0.0 15:0.0 16:0.0 17:0.0 18:0.0 19:0.0 20:0.0 21:0.0 22:0.0 23:0.0 24:0.0 25:0.0 26:0.0 27:0.0 28:0.0 29:0.0 30:0.0 31:0.0 32:0.0 33:0.0 34:0.0 35:0.15 36:0.0 37:0.0 38:0.0 39:0.0 40:0.0 41:0.0 42:0.0 43:0.15827338129496402 44:0.0 45:0.0 46:0.0 47:0.0 48:0.15 49:0.0 50:0.0 
0.5819439926047071 1:0.0 2:0.0 3:0.0 4:0.0 5:0.0 6:0.0 7:0.0 8:0.0 9:0.0 10:0.15827338129496402 11:0.11955967162616019 12:0.0 13:0.0 14:0.0 15:0.0 16:0.0 17:0.0 18:0.0 19:0.0 20:0.16666666666666666 21:0.0 22:0.0 23:0.0 24:0.0 25:0.0 26:0.0 27:0.0 28:0.0 29:0.0 30:0.15827338129496402 31:0.0 32:0.0 33:0.0 34:0.0 35:0.0 36:0.0 37:0.0 38:0.0 39:0.0 40:0.0 41:0.0 42:0.08895351782228106 43:0.0 44:0.0 45:0.0 46:0.0 47:0.0 48:0.15 49:0.15827338129496402 50:0.0 
0.6363991692157202 1:0.0 2:0.0 3:0.0 4:0.0 5:0.0 6:0.0 7:0.0 8:0.0 9:0.0 10:0.0 11:0.4666666666666667 12:0.0 13:0.4666666666666666 14:0.0 15:0.0 16:0.0 17:0.0 18:0.0 19:0.0 20:0.0 21:0.0 22:0.0 23:0.0 24:0.0 25:0.0 26:0.0 27:0.0 28:0.0 29:0.0 30:0.0 31:0.0 32:0.0 33:0.0 34:0.0 35:0.0 36:0.0 37:0.0 38:0.0 39:0.0 40:0.0 41:0.0 42:0.0 43:0.0 44:0.0 45:0.0 46:0.0 47:0.0 48:0.0 49:0.0666666666666666 50:0.0 
0.4793900849469897 1:0.0 2:0.0 3:0.0 4:0.0 5:0.0 6:0.0 7:0.0 8:0.0 9:0.0 10:0.0 11:0.15827338129496402 12:0.16666666666666666 13:0.05585714354726412 14:0.0 15:0.0 16:0.0 17:0.16666666666666666 18:0.0 19:0.0 20:0.15827338129496402 21:0.0 22:0.0 23:0.0 24:0.0 25:0.0 26:0.0 27:0.0 28:0.0 29:0.0 30:0.0 31:0.0 32:0.0 33:0.0 34:0.0 35:0.0 36:0.0 37:0.0 38:0.0 39:0.0 40:0.0 41:0.0 42:0.13598937923451046 43:0.0 44:0.0 45:0.0 46:0.0 47:0.0 48:0.0 49:0.15827338129496402 50:0.0 
1.093233428830064 1:0.0 2:0.0 3:0.0 4:0.0 5:0.0 6:0.0 7:0.0 8:0.0 9:0.0 10:0.0 11:0.0 12:0.15 13:0.0 14:0.0 15:0.0 16:0.0 17:0.0 18:0.0 19:0.2918439716312057 20:0.15 21:0.0 22:0.0 23:0.0 24:0.0 25:0.0 26:0.0 27:0.0 28:0.0 29:0.0 30:0.0 31:0.15 32:0.0 33:0.0 34:0.0 35:0.0 36:0.0 37:0.0 38:0.0 39:0.0 40:0.0 41:0.0 42:0.0 43:0.0 44:0.0 45:0.0 46:0.0 47:0.0 48:0.17793924169022007 49:0.08021678667857421 50:0.0 
0.9501250349190588 1:0.15827338129496402 2:0.0 3:0.0 4:0.0 5:0.1598617168955516 6:0.0 7:0.0 8:0.0 9:0.0 10:0.0 11:0.0 12:0.0 13:0.15 14:0.0 15:0.0 16:0.0 17:0.15 18:0.0 19:0.0 20:0.0 21:0.0 22:0.0 23:0.0 24:0.24002093017827855 25:0.0 26:0.0 27:0.0 28:0.0 29:0.0 30:0.0 31:0.0 32:0.0 33:0.0 34:0.0 35:0.0 36:0.14184397163120568 37:0.0 38:0.0 39:0.0 40:0.0 41:0.0 42:0.0 43:0.0 44:0.0 45:0.0 46:0.0 47:0.0 48:0.0 49:0.0 50:0.0 
0.6976792673439798 1:0.0 2:0.0 3:0.0 4:0.0 5:0.0 6:0.0 7:0.0 8:0.0 9:0.0 10:0.0 11:0.0 12:0.0 13:0.0 14:0.0 15:0.0 16:0.0 17:0.0 18:0.0 19:0.0 20:0.0 21:0.0 22:0.0 23:0.0 24:0.3249400479616307 25:0.0 26:0.16666666666666666 27:0.0 28:0.0 29:0.0 30:0.0 31:0.0 32:0.16666666666666666 33:0.0 34:0.0 35:0.0 36:0.0 37:0.0 38:0.0 39:0.14378247384718854 40:0.0 41:0.0 42:0.15827338129496402 43:0.0 44:0.0 45:0.0 46:0.0 47:0.0 48:0.0 49:0.0 50:0.0 
1.1827485391049832 1:0.0 2:0.0 3:0.0 4:0.0 5:0.0 6:0.0 7:0.0 8:0.0 9:0.16666666666666666 10:0.0 11:0.0 12:0.0 13:0.0 14:0.0 15:0.0 16:0.0 17:0.0 18:0.0 19:0.0 20:0.10549262696050218 21:0.0 22:0.0 23:0.0 24:0.0 25:0.0 26:0.0 27:0.0 28:0.0 29:0.15827338129496402 30:0.0 31:0.0 32:0.0 33:0.0 34:0.0 35:0.0 36:0.0 37:0.0 38:0.0 39:0.0 40:0.0 41:0.0 42:0.0 43:0.16666666666666666 44:0.0 45:0.23623399174453388 46:0.0 47:0.0 48:0.0 49:0.16666666666666666 50:0.0 
0.375759117456239 1:0.0 2:0.0 3:0.0 4:0.0 5:0.0 6:0.0 7:0.0 8:0.0 9:0.0 10:0.0 11:0.23616647035564803 12:0.0 13:0.08852851817907165 14:0.0 15:0.0 16:0.0 17:0.17518248175182483 18:0.0 19:0.0 20:0.0 21:0.0 22:0.0 23:0.0 24:0.0 25:0.0 26:0.0 27:0.0 28:0.0 29:0.0 30:0.0 31:0.0 32:0.16666666666666666 33:0.0 34:0.0 35:0.0 36:0.0 37:0.0 38:0.0 39:0.0 40:0.0 41:0.0 42:0.33345586304678887 43:0.0 44:0.0 45:0.0 46:0.0 47:0.0 48:0.0 49:0.0 50:0.0 
0.8463612483900271 1:0.0 2:0.0 3:0.17518248175182483 4:0.0 5:0.0 6:0.0 7:0.0 8:0.0 9:0.0 10:0.0 11:0.11667596407619776 12:0.0 13:0.0 14:0.0 15:0.0 16:0.0 17:0.16666666666666666 18:0.0 19:0.16666666666666666 20:0.0 21:0.0 22:0.0 23:0.0 24:0.0 25:0.0 26:0.0 27:0.0 28:0.0 29:0.0 30:0.0 31:0.0 32:0.0 33:0.0 34:0.0 35:0.0 36:0.0 37:0.0 38:0.0 39:0.0 40:0.0 41:0.0 42:0.3249400479616307 43:0.0 44:0.0 45:0.0 46:0.0 47:0.0 48:0.0 49:0.0 50:0.0 
2.1508681271461567 1:0.0 2:0.0 3:0.15827338129496402 4:0.0 5:0.0 6:0.0 7:0.0 8:0.0 9:0.14184397163120568 10:0.0 11:0.0 12:0.15 13:0.0 14:0.0 15:0.0 16:0.0 17:0.0 18:0.0 19:0.14184397163120568 20:0.0 21:0.0 22:0.0 23:0.0 24:0.0 25:0.0 26:0.15 27:0.0 28:0.0 29:0.0 30:0.0 31:0.0 32:0.15 33:0.0 34:0.0 35:0.0 36:0.0 37:0.0 38:0.0 39:0.0 40:0.0 41:0.0 42:0.0 43:0.0 44:0.0 45:0.0 46:0.0830184505343019 47:0.0 48:0.0 49:0.0 50:0.0 
0.04744439732804239 1:0.0 2:0.0 3:0.0 4:0.0 5:0.0 6:0.0 7:0.0 8:0.0 9:0.0 10:0.0 11:0.18382352941176472 12:0.15827338129496402 13:0.14074622654817323 14:0.0 15:0.0 16:0.0 17:0.18382352941176472 18:0.0 19:0.0 20:0.0 21:0.0 22:0.0 23:0.0 24:0.16666666666666666 25:0.0 26:0.0 27:0.0 28:0.0 29:0.0 30:0.0 31:0.0 32:0.0 33:0.0 34:0.0 35:0.0 36:0.0 37:0.0 38:0.0 39:0.0 40:0.0 41:0.0 42:0.16666666666666666 43:0.0 44:0.0 45:0.0 46:0.0 47:0.0 48:0.0 49:0.0 50:0.0 
1.5670292204209388 1:0.0 2:0.0 3:0.0 4:0.0 5:0.0 6:0.0 7:0.0 8:0.0 9:0.0 10:0.0 11:0.0 12:0.0 13:0.0 14:0.0 15:0.0 16:0.15 17:0.0 18:0.0 19:0.0 20:0.15827338129496402 21:0.0 22:0.0 23:0.0 24:0.0 25:0.0 26:0.15827338129496402 27:0.0 28:0.0 29:0.0 30:0.15 31:0.0 32:0.0 33:0.0 34:0.0 35:0.2223988038360543 36:0.0 37:0.0 38:0.0 39:0.0 40:0.0 41:0.0 42:0.0 43:0.0 44:0.0 45:0.0 46:0.0 47:0.0 48:0.15827338129496402 49:0.0 50:0.0 
1.9560594545850933 1:0.0 2:0.0 3:0.0 4:0.0 5:0.0 6:0.0 7:0.0 8:0.0 9:0.0 10:0.0 11:0.16666666666666666 12:0.0 13:0.0 14:0.0 15:0.14184397163120568 16:0.0 17:0.0 18:0.0 19:0.0 20:0.0 21:0.0 22:0.0 23:0.0 24:0.0 25:0.0 26:0.0 27:0.0 28:0.0 29:0.0 30:0.0 31:0.1152288371614629 32:0.0 33:0.0 34:0.0 35:0.15 36:0.0 37:0.0 38:0.0 39:0.15827338129496402 40:0.0 41:0.0 42:0.0 43:0.0 44:0.0 45:0.0 46:0.0 47:0.0 48:0.0 49:0.0 50:0.2679871432457007 
1.3993940829089777 1:0.0 2:0.2295532601522883 3:0.0 4:0.0 5:0.0 6:0.0 7:0.15 8:0.0 9:0.0 10:0.0 11:0.0 12:0.0 13:0.15827338129496402 14:0.0 15:0.0 16:0.0 17:0.0 18:0.15 19:0.0 20:0.0 21:0.0 22:0.0 23:0.0 24:0.0 25:0.0 26:0.0 27:0.0 28:0.0 29:0.0 30:0.0 31:0.0 32:0.0 33:0.15389997725778362 34:0.0 35:0.0 36:0.0 37:0.0 38:0.0 39:0.0 40:0.0 41:0.0 42:0.0 43:0.0 44:0.0 45:0.0 46:0.0 47:0.0 48:0.0 49:0.15827338129496402 50:0.0 
0.6044775020376613 1:0.0 2:0.0 3:0.0 4:0.0 5:0.0 6:0.0 7:0.0 8:0.0 9:0.0 10:0.0 11:0.4444444444444444 12:0.0 13:0.1277777777777777 14:0.0 15:0.0 16:0.0 17:0.0 18:0.0 19:0.1111111111111111 20:0.0 21:0.0 22:0.0 23:0.0 24:0.0 25:0.0 26:0.31666666666666665 27:0.0 28:0.0 29:0.0 30:0.0 31:0.0 32:0.0 33:0.0 34:0.0 35:0.0 36:0.0 37:0.0 38:0.0 39:0.0 40:0.0 41:0.0 42:0.0 43:0.0 44:0.0 45:0.0 46:0.0 47:0.0 48:0.0 49:0.0 50:0.0 
1.5085903427043963 1:0.15827338129496402 2:0.31654676258992803 3:0.0 4:0.0 5:0.0 6:0.0 7:0.0 8:0.0 9:0.0 10:0.0 11:0.0 12:0.14184397163120568 13:0.0 14:0.0 15:0.0 16:0.0 17:0.0 18:0.0 19:0.0 20:0.0 21:0.0 22:0.0 23:0.0 24:0.13562833764150814 25:0.0 26:0.0 27:0.0 28:0.15 29:0.0 30:0.0 31:0.0 32:0.0 33:0.0 34:0.0 35:0.0 36:0.0 37:0.0 38:0.0 39:0.0 40:0.0 41:0.0 42:0.0 43:0.0 44:0.0 45:0.0 46:0.0 47:0.0 48:0.0 49:0.0 50:0.0 
1.4518055681960664 1:0.0 2:0.0 3:0.0 4:0.0 5:0.0 6:0.0 7:0.0 8:0.0 9:0.0 10:0.0 11:0.0 12:0.0 13:0.0 14:0.0 15:0.0 16:0.0 17:0.0 18:0.0 19:0.0 20:0.0 21:0.0 22:0.0 23:0.0 24:0.0 25:0.0 26:0.0 27:0.15827338129496402 28:0.0 29:0.0 30:0.0 31:0.0 32:0.15827338129496402 33:0.0 34:0.0 35:0.0 36:0.0 37:0.0 38:0.0 39:0.0 40:0.0 41:0.0 42:0.14184397163120568 43:0.31956477392729815 44:0.0 45:0.0 46:0.0 47:0.14184397163120568 48:0.0 49:0.0 50:0.0 
0.6257728658715226 1:0.15 2:0.06920783630609498 3:0.0 4:0.0 5:0.0 6:0.0 7:0.0 8:0.0 9:0.0 10:0.0 11:0.0 12:0.0 13:0.0 14:0.0 15:0.0 16:0.0 17:0.3137657103108745 18:0.0 19:0.0 20:0.0 21:0.0 22:0.0 23:0.0 24:0.0 25:0.0 26:0.0 27:0.0 28:0.0 29:0.0 30:0.0 31:0.14184397163120568 32:0.17518248175182483 33:0.0 34:0.0 35:0.0 36:0.0 37:0.0 38:0.0 39:0.0 40:0.0 41:0.0 42:0.15 43:0.0 44:0.0 45:0.0 46:0.0 47:0.0 48:0.0 49:0.0 50:0.0 
0.4988829634751424 1:0.0 2:0.0 3:0.0 4:0.0 5:0.0 6:0.0 7:0.0 8:0.0 9:0.0 10:0.0 11:0.0 12:0.0 13:0.35036496350364965 14:0.0 15:0.0 16:0.0 17:0.0 18:0.0 19:0.0 20:0.0 21:0.0 22:0.0 23:0.0 24:0.36552917741341673 25:0.0 26:0.0 27:0.0 28:0.0 29:0.0 30:0.0 31:0.0 32:0.0 33:0.0 34:0.0 35:0.0 36:0.0 37:0.0 38:0.0 39:0.0 40:0.0 41:0.0 42:0.1002823296711689 43:0.0 44:0.0 45:0.0 46:0.0 47:0.0 48:0.0 49:0.18382352941176472 50:0.0 
1.2151115115799622 1:0.0 2:0.0 3:0.0 4:0.0 5:0.0 6:0.0 7:0.0 8:0.0 9:0.0 10:0.0 11:0.0 12:0.0 13:0.0 14:0.0 15:0.0 16:0.0 17:0.0 18:0.0 19:0.0 20:0.0 21:0.0 22:0.0 23:0.0 24:0.0 25:0.0 26:0.11932744243824203 27:0.0 28:0.0 29:0.0 30:0.0 31:0.0 32:0.0 33:0.0 34:0.0 35:0.0 36:0.0 37:0.0 38:0.0 39:0.0 40:0.0 41:0.0 42:0.0 43:0.0 44:0.0 45:0.22227664655333845 46:0.17518248175182483 47:0.0 48:0.0 49:0.3249400479616307 50:0.15827338129496402 
0.8484429154953782 1:0.0 2:0.15827338129496402 3:0.0 4:0.0 5:0.13380281690140844 6:0.0 7:0.0 8:0.0 9:0.14184397163120568 10:0.0 11:0.0 12:0.0 13:0.0 14:0.0 15:0.0 16:0.0 17:0.0 18:0.0 19:0.0 20:0.14184397163120568 21:0.0 22:0.0 23:0.0 24:0.0 25:0.0 26:0.0 27:0.0 28:0.0 29:0.0 30:0.0 31:0.0 32:0.0 33:0.0 34:0.0 35:0.0 36:0.0 37:0.0 38:0.0 39:0.15 40:0.0 41:0.0 42:0.0 43:0.0 44:0.0 45:0.0 46:0.0 47:0.0 48:0.1159624772462522 49:0.15827338129496402 50:0.0 
0.1290069307289902 1:0.0 2:0.0 3:0.0 4:0.0 5:0.0 6:0.0 7:0.0 8:0.0 9:0.0 10:0.0 11:0.06714756533556696 12:0.0 13:0.13297233874117162 14:0.0 15:0.0 16:0.0 17:0.0 18:0.0 19:0.15827338129496402 20:0.0 21:0.0 22:0.0 23:0.0 24:0.0 25:0.0 26:0.0 27:0.0 28:0.0 29:0.0 30:0.0 31:0.0 32:0.0 33:0.0 34:0.0 35:0.0 36:0.0 37:0.0 38:0.0 39:0.16666666666666666 40:0.0 41:0.0 42:0.0 43:0.15827338129496402 44:0.0 45:0.0 46:0.0 47:0.0 48:0.0 49:0.16666666666666666 50:0.15 
0.7556284990748882 1:0.14184397163120568 2:0.0 3:0.0 4:0.0 5:0.0 6:0.0 7:0.0 8:0.0 9:0.0 10:0.0 11:0.0 12:0.0 13:0.0 14:0.14184397163120568 15:0.0 16:0.0 17:0.0 18:0.0 19:0.16666666666666666 20:0.0 21:0.0 22:0.0 23:0.0 24:0.15 25:0.0 26:0.047339224228424626 27:0.0 28:0.0 29:0.0 30:0.0 31:0.0 32:0.0 33:0.0 34:0.0 35:0.0 36:0.0 37:0.0 38:0.0 39:0.0 40:0.0 41:0.0 42:0.0 43:0.14403278454753327 44:0.0 45:0.0 46:0.0 47:0.0 48:0.15827338129496402 49:0.04999999999999999 50:0.0 
1.5908228236605582 1:0.0 2:0.0 3:0.0 4:0.0 5:0.0 6:0.0 7:0.0 8:0.0 9:0.14184397163120568 10:0.0 11:0.16666666666666666 12:0.0 13:0.0 14:0.0 15:0.0 16:0.0 17:0.0 18:0.16666666666666666 19:0.14132981597320535 20:0.0 21:0.0 22:0.15827338129496402 23:0.0 24:0.0 25:0.0 26:0.0 27:0.0 28:0.0 29:0.0 30:0.0 31:0.0 32:0.0 33:0.0 34:0.0 35:0.0 36:0.0 37:0.0 38:0.0 39:0.0 40:0.15827338129496402 41:0.0 42:0.0 43:0.0 44:0.0 45:0.0 46:0.0 47:0.0 48:0.0 49:0.0 50:0.0 
1.4120490661565173 1:0.0 2:0.0 3:0.0 4:0.0 5:0.0 6:0.0 7:0.0 8:0.0 9:0.0 10:0.0 11:0.0 12:0.0 13:0.0 14:0.0 15:0.14184397163120568 16:0.0 17:0.14184397163120568 18:0.0 19:0.0 20:0.0 21:0.0 22:0.0 23:0.0 24:0.0 25:0.0 26:0.0 27:0.0 28:0.0 29:0.0 30:0.15827338129496402 31:0.15827338129496402 32:0.0 33:0.0 34:0.0 35:0.0 36:0.0 37:0.0 38:0.0 39:0.0 40:0.0 41:0.0 42:0.12567879034755777 43:0.0 44:0.0 45:0.0 46:0.15827338129496402 47:0.0 48:0.0 49:0.0 50:0.0 
0.8182741504671118 1:0.0 2:0.0 3:0.15827338129496402 4:0.0 5:0.0 6:0.0 7:0.0 8:0.0 9:0.0 10:0.0 11:0.16666666666666666 12:0.16666666666666666 13:0.136111685489522 14:0.0 15:0.0 16:0.0 17:0.0 18:0.0 19:0.0 20:0.0 21:0.0 22:0.0 23:0.0 24:0.0 25:0.0 26:0.0 27:0.0 28:0.0 29:0.0 30:0.0 31:0.0 32:0.0 33:0.0 34:0.0 35:0.15827338129496402 36:0.0 37:0.0 38:0.0 39:0.0 40:0.0 41:0.0 42:0.0 43:0.16666666666666666 44:0.0 45:0.0 46:0.0 47:0.0 48:0.0 49:0.0 50:0.0 
0.9195264028311402 1:0.0 2:0.0 3:0.0 4:0.0 5:0.0 6:0.0 7:0.0 8:0.0 9:0.17518248175182483 10:0.0 11:0.0 12:0.0 13:0.0 14:0.0 15:0.0 16:0.0 17:0.16666666666666666 18:0.0 19:0.0 20:0.0 21:0.0 22:0.0 23:0.0 24:0.0 25:0.0 26:0.13247951702602337 27:0.0 28:0.0 29:0.0 30:0.0 31:0.0 32:0.0 33:0.0 34:0.0 35:0.0 36:0.0 37:0.0 38:0.0 39:0.0 40:0.0 41:0.0 42:0.0 43:0.0 44:0.0 45:0.15827338129496402 46:0.15827338129496402 47:0.0 48:0.15827338129496402 49:0.0 50:0.0 
0.33189578870438374 1:0.0 2:0.17518248175182483 3:0.0 4:0.0 5:0.0 6:0.0 7:0.0 8:0.0 9:0.0 10:0.0 11:0.0 12:0.0 13:0.0 14:0.0 15:0.0 16:0.0 17:0.1525332927292776 18:0.0 19:0.0 20:0.16666666666666666 21:0.0 22:0.0 23:0.0 24:0.0 25:0.0 26:0.0 27:0.0 28:0.0 29:0.0 30:0.0 31:0.0 32:0.0 33:0.0 34:0.0 35:0.0 36:0.0 37:0.0 38:0.0 39:0.0 40:0.0 41:0.0 42:0.15 43:0.0 44:0.0 45:0.0 46:0.0 47:0.0 48:0.0 49:0.33345586304678887 50:0.0 
0.11765358271174588 1:0.17518248175182483 2:0.0 3:0.0 4:0.0 5:0.0 6:0.0 7:0.0 8:0.0 9:0.0 10:0.0 11:0.0 12:0.0 13:0.0 14:0.0 15:0.0 16:0.0 17:0.12312670109582016 18:0.0 19:0.15827338129496402 20:0.0 21:0.0 22:0.0 23:0.0 24:0.0 25:0.0 26:0.0 27:0.0 28:0.0 29:0.0 30:0.0 31:0.0 32:0.0 33:0.0 34:0.0 35:0.0 36:0.0 37:0.0 38:0.0 39:0.15827338129496402 40:0.0 41:0.0 42:0.15827338129496402 43:0.0 44:0.0 45:0.0 46:0.0 47:0.0 48:0.16666666666666666 49:0.0 50:0.0 
2.168698619997085 1:0.0 2:0.0 3:0.0 4:0.0 5:0.0 6:0.0 7:0.0 8:0.0 9:0.15 10:0.0 11:0.0 12:0.15827338129496402 13:0.0 14:0.0 15:0.0 16:0.0 17:0.0 18:0.2838028169014084 19:0.0 20:0.0 21:0.0 22:0.0 23:0.0 24:0.0 25:0.0 26:0.0 27:0.0 28:0.0 29:0.0 30:0.0 31:0.0 32:0.15827338129496402 33:0.0 34:0.0 35:0.0 36:0.0 37:0.0 38:0.0 39:0.0 40:0.14184397163120568 41:0.0 42:0.0 43:0.0 44:0.0 45:0.0 46:0.0 47:0.0 48:0.0 49:0.0 50:0.0 
1.281238132778223 1:0.0 2:0.0 3:0.0 4:0.0 5:0.0 6:0.0 7:0.0 8:0.0 9:0.0 10:0.0 11:0.0 12:0.0 13:0.0 14:0.0 15:0.0 16:0.0 17:0.15 18:0.0 19:0.0 20:0.0 21:0.0 22:0.13380281690140844 23:0.0 24:0.15 25:0.0 26:0.0 27:0.0 28:0.0 29:0.0 30:0.0 31:0.15 32:0.0 33:0.0 34:0.0 35:0.0 36:0.0 37:0.0 38:0.0 39:0.0 40:0.0 41:0.0 42:0.0 43:0.0 44:0.0 45:0.0 46:0.15 47:0.0 48:0.15827338129496402 49:0.0 50:0.0 
0.7441026399855235 1:0.0 2:0.2726413121123965 3:0.0 4:0.0 5:0.0 6:0.0 7:0.0 8:0.0 9:0.0 10:0.0 11:0.0 12:0.0 13:0.16666666666666666 14:0.0 15:0.0 16:0.0 17:0.3249400479616307 18:0.0 19:0.18019641770375053 20:0.0 21:0.0 22:0.0 23:0.0 24:0.0 25:0.0 26:0.0 27:0.0 28:0.0 29:0.0 30:0.0 31:0.0 32:0.0 33:0.0 34:0.0 35:0.0 36:0.0 37:0.0 38:0.0 39:0.0 40:0.0 41:0.0 42:0.0 43:0.0 44:0.0 45:0.0 46:0.0 47:0.0 48:0.0 49:0.0 50:0.0 
1.8642438027787311 1:0.0 2:0.0 3:0.0 4:0.0 5:0.0 6:0.0 7:0.0 8:0.0 9:0.0 10:0.0 11:0.0 12:0.0 13:0.0 14:0.0 15:0.11150110313651684 16:0.0 17:0.0 18:0.0 19:0.0 20:0.0 21:0.0 22:0.0 23:0.0 24:0.14184397163120568 25:0.0 26:0.16666666666666666 27:0.0 28:0.0 29:0.15827338129496402 30:0.0 31:0.0 32:0.15 33:0.0 34:0.0 35:0.15 36:0.0 37:0.0 38:0.0 39:0.0 40:0.0 41:0.0 42:0.12171487727064681 43:0.0 44:0.0 45:0.0 46:0.0 47:0.0 48:0.0 49:0.0 50:0.0 
1.1775597530644115 1:0.0 2:0.0 3:0.14184397163120568 4:0.0 5:0.0 6:0.0 7:0.0 8:0.0 9:0.15 10:0.14184397163120568 11:0.0 12:0.0 13:0.15827338129496402 14:0.0 15:0.0 16:0.0 17:0.0 18:0.0 19:0.0 20:0.0 21:0.0 22:0.0 23:0.0 24:0.0 25:0.0 26:0.0 27:0.0 28:0.0 29:0.0 30:0.0 31:0.15 32:0.0 33:0.0 34:0.0 35:0.0 36:0.0 37:0.0 38:0.0 39:0.15 40:0.0 41:0.0 42:0.0 43:0.0 44:0.0 45:0.0 46:0.0 47:0.0 48:0.0 49:0.0 50:0.0 
0.2139938659507547 1:0.10169336830292408 2:0.0 3:0.16666666666666666 4:0.0 5:0.0 6:0.0 7:0.0 8:0.0 9:0.0 10:0.0 11:0.3333333333333333 12:0.0 13:0.16666666666666666 14:0.0 15:0.0 16:0.0 17:0.0 18:0.0 19:0.0 20:0.14184397163120568 21:0.0 22:0.0 23:0.0 24:0.08979599339920372 25:0.0 26:0.0 27:0.0 28:0.0 29:0.0 30:0.0 31:0.0 32:0.0 33:0.0 34:0.0 35:0.0 36:0.0 37:0.0 38:0.0 39:0.0 40:0.0 41:0.0 42:0.0 43:0.0 44:0.0 45:0.0 46:0.0 47:0.0 48:0.0 49:0.0 50:0.0 
1.6287952365909653 1:0.0 2:0.0 3:0.0 4:0.0 5:0.0 6:0.0 7:0.0 8:0.0 9:0.0 10:0.101019072219446 11:0.0 12:0.31654676258992803 13:0.0 14:0.0 15:0.0 16:0.0 17:0.0 18:0.0 19:0.0 20:0.0 21:0.0 22:0.0 23:0.0 24:0.0 25:0.0 26:0.15827338129496402 27:0.0 28:0.0 29:0.0 30:0.0 31:0.0 32:0.265887402600698 33:0.0 34:0.0 35:0.0 36:0.0 37:0.0 38:0.0 39:0.0 40:0.15827338129496402 41:0.0 42:0.0 43:0.0 44:0.0 45:0.0 46:0.0 47:0.0 48:0.0 49:0.0 50:0.0 
0.46978867611169406 1:0.0 2:0.0 3:0.0 4:0.0 5:0.0 6:0.0 7:0.0 8:0.0 9:0.16666666666666666 10:0.0 11:0.0 12:0.0 13:0.14714137727711243 14:0.0 15:0.0 16:0.0 17:0.3677750743444174 18:0.0 19:0.0 20:0.0 21:0.0 22:0.0 23:0.0 24:0.14323439995997866 25:0.0 26:0.0 27:0.0 28:0.0 29:0.0 30:0.0 31:0.0 32:0.0 33:0.0 34:0.0 35:0.0 36:0.0 37:0.0 38:0.0 39:0.0 40:0.0 41:0.0 42:0.0 43:0.17518248175182483 44:0.0 45:0.0 46:0.0 47:0.0 48:0.0 49:0.0 50:0.0 
0.5848117039830916 1:0.0 2:0.0 3:0.15 4:0.0 5:0.0 6:0.0 7:0.0 8:0.0 9:0.0 10:0.0 11:0.15827338129496402 12:0.0 13:0.0 14:0.0 15:0.0 16:0.0 17:0.16413337393738905 18:0.0 19:0.0 20:0.0 21:0.0 22:0.0 23:0.0 24:0.0 25:0.0 26:0.15 27:0.0 28:0.0 29:0.0 30:0.0 31:0.0 32:0.15827338129496402 33:0.0 34:0.0 35:0.0 36:0.0 37:0.0 38:0.0 39:0.15 40:0.0 41:0.0 42:0.06931986347268296 43:0.0 44:0.0 45:0.0 46:0.0 47:0.0 48:0.0 49:0.0 50:0.0 
2.3555352027086642 1:0.0 2:0.0 3:0.0 4:0.0 5:0.0 6:0.0 7:0.0 8:0.0 9:0.0 10:0.0 11:0.0 12:0.0 13:0.0 14:0.0 15:0.0 16:0.0 17:0.0 18:0.0 19:0.0 20:0.0 21:0.15827338129496402 22:0.0 23:0.0 24:0.0 25:0.0 26:0.0 27:0.0 28:0.0 29:0.0 30:0.0 31:0.0 32:0.0 33:0.0 34:0.0 35:0.1258741258741259 36:0.0 37:0.0 38:0.0 39:0.15827338129496402 40:0.15827338129496402 41:0.0 42:0.0 43:0.14184397163120568 44:0.0 45:0.15827338129496402 46:0.0 47:0.0 48:0.0 49:0.0 50:0.0 
1.1961895945723027 1:0.0 2:0.0 3:0.0 4:0.0 5:0.15 6:0.0 7:0.0 8:0.0 9:0.0 10:0.0 11:0.16666666666666666 12:0.0 13:0.0 14:0.0 15:0.0 16:0.0 17:0.0 18:0.0 19:0.0 20:0.1462057790053576 21:0.0 22:0.0 23:0.0 24:0.0 25:0.0 26:0.0 27:0.0 28:0.0 29:0.0 30:0.0 31:0.0 32:0.15827338129496402 33:0.0 34:0.0 35:0.0 36:0.0 37:0.0 38:0.0 39:0.0 40:0.0 41:0.0 42:0.0 43:0.0 44:0.0 45:0.0 46:0.0 47:0.0 48:0.0 49:0.15 50:0.16666666666666666 
1.2933227894974868 1:0.16666666666666666 2:0.0 3:0.0 4:0.0 5:0.0 6:0.0 7:0.0 8:0.0 9:0.0 10:0.0734185215541949 11:0.0 12:0.0 13:0.0 14:0.0 15:0.0 16:0.0 17:0.0 18:0.0 19:0.12658147844580517 20:0.0 21:0.0 22:0.0 23:0.0 24:0.0 25:0.0 26:0.0 27:0.0 28:0.0 29:0.16666666666666666 30:0.0 31:0.0 32:0.15 33:0.0 34:0.0 35:0.0 36:0.0 37:0.0 38:0.0 39:0.0 40:0.0 41:0.0 42:0.0 43:0.0 44:0.0 45:0.0 46:0.0 47:0.0 48:0.15 49:0.0 50:0.16666666666666666 
1.9197684011061984 1:0.0 2:0.0 3:0.0 4:0.0 5:0.0 6:0.0 7:0.0 8:0.0 9:0.0 10:0.0 11:0.0 12:0.0 13:0.0 14:0.0 15:0.0 16:0.0 17:0.15827338129496402 18:0.0 19:0.0 20:0.15 21:0.0 22:0.0 23:0.0 24:0.15 25:0.0 26:0.0 27:0.0 28:0.0 29:0.15 30:0.0 31:0.0 32:0.3 33:0.0 34:0.0 35:0.0 36:0.0 37:0.0 38:0.0 39:0.0 40:0.0 41:0.0 42:0.0 43:0.0 44:0.0 45:0.0 46:0.0 47:0.0 48:0.0 49:0.06978321332142579 50:0.0 
0.9609550414228101 1:0.0 2:0.0 3:0.14184397163120568 4:0.0 5:0.0 6:0.0 7:0.0 8:0.0 9:0.0 10:0.0 11:0.0 12:0.0 13:0.0 14:0.0 15:0.0 16:0.0 17:0.0 18:0.0 19:0.0 20:0.0 21:0.0 22:0.0 23:0.0 24:0.16666666666666666 25:0.0 26:0.0 27:0.0 28:0.0 29:0.0 30:0.14184397163120568 31:0.0 32:0.4749400479616307 33:0.0 34:0.0 35:0.0 36:0.0 37:0.0 38:0.0 39:0.0 40:0.0 41:0.0 42:0.0 43:0.0 44:0.0 45:0.0 46:0.0 47:0.0 48:0.0 49:0.0 50:0.0 
1.6111949121849682 1:0.0 2:0.0 3:0.0 4:0.0 5:0.0 6:0.0 7:0.0 8:0.0 9:0.0 10:0.0 11:0.0 12:0.0 13:0.0 14:0.0 15:0.0 16:0.15 17:0.0 18:0.0 19:0.28368794326241137 20:0.0 21:0.14184397163120568 22:0.0 23:0.0 24:0.07435073218021329 25:0.0 26:0.15 27:0.0 28:0.0 29:0.0 30:0.0 31:0.0 32:0.0 33:0.0 34:0.0 35:0.0 36:0.0 37:0.0 38:0.0 39:0.15827338129496402 40:0.0 41:0.0 42:0.0 43:0.0 44:0.0 45:0.0 46:0.0 47:0.0 48:0.0 49:0.0 50:0.0 
1.1714128714127594 1:0.0 2:0.15 3:0.0 4:0.0 5:0.1278207414624159 6:0.0 7:0.0 8:0.0 9:0.15827338129496402 10:0.0 11:0.0 12:0.14184397163120568 13:0.0 14:0.0 15:0.0 16:0.0 17:0.0 18:0.0 19:0.0 20:0.0 21:0.0 22:0.0 23:0.0 24:0.0 25:0.0 26:0.0 27:0.0 28:0.0 29:0.15 30:0.0 31:0.0 32:0.0 33:0.0 34:0.0 35:0.0 36:0.0 37:0.0 38:0.0 39:0.0 40:0.0 41:0.0 42:0.0 43:0.0 44:0.0 45:0.0 46:0.0 47:0.0 48:0.15827338129496402 49:0.11378852431645028 50:0.0 
0.0466309898839893 1:0.0 2:0.0 3:0.0 4:0.0 5:0.0 6:0.0 7:0.0 8:0.0 9:0.0 10:0.0 11:0.324073181060474 12:0.0 13:0.0 14:0.0 15:0.0 16:0.0 17:0.31692080777593645 18:0.0 19:0.0 20:0.0 21:0.0 22:0.0 23:0.0 24:0.0 25:0.0 26:0.0 27:0.0 28:0.0 29:0.0 30:0.0 31:0.0 32:0.17518248175182483 33:0.0 34:0.0 35:0.0 36:0.0 37:0.0 38:0.0 39:0.0 40:0.0 41:0.0 42:0.18382352941176472 43:0.0 44:0.0 45:0.0 46:0.0 47:0.0 48:0.0 49:0.0 50:0.0 
0.7665256614254569 1:0.0 2:0.11093182937441401 3:0.15827338129496402 4:0.0 5:0.0 6:0.0 7:0.0 8:0.0 9:0.0 10:0.0 11:0.0 12:0.0 13:0.0 14:0.0 15:0.0 16:0.0 17:0.0 18:0.0 19:0.2863503448861775 20:0.0 21:0.0 22:0.0 23:0.0 24:0.0 25:0.0 26:0.0 27:0.0 28:0.0 29:0.0 30:0.0 31:0.0 32:0.1111111111111111 33:0.0 34:0.0 35:0.0 36:0.0 37:0.0 38:0.0 39:0.16666666666666666 40:0.0 41:0.0 42:0.0 43:0.0 44:0.0 45:0.0 46:0.0 47:0.0 48:0.0 49:0.16666666666666666 50:0.0 
0.5449952287045949 1:0.0 2:0.0 3:0.0 4:0.0 5:0.0 6:0.0 7:0.0 8:0.0 9:0.0 10:0.0 11:0.0 12:0.0 13:0.3249400479616307 14:0.0 15:0.0 16:0.0 17:0.0 18:0.0 19:0.0 20:0.0 21:0.0 22:0.0 23:0.0 24:0.0 25:0.0 26:0.0 27:0.0 28:0.0 29:0.15 30:0.0 31:0.0 32:0.0 33:0.0 34:0.0 35:0.0 36:0.0 37:0.14184397163120568 38:0.0 39:0.0 40:0.0 41:0.0 42:0.0 43:0.18043522607270182 44:0.0 45:0.15827338129496402 46:0.0 47:0.0 48:0.0 49:0.0 50:0.0 
0.45760270496311894 1:0.0 2:0.0 3:0.15827338129496402 4:0.0 5:0.0 6:0.0 7:0.0 8:0.0 9:0.0 10:0.0 11:0.0 12:0.0 13:0.16666666666666666 14:0.0 15:0.0 16:0.17518248175182483 17:0.0 18:0.0 19:0.0 20:0.15827338129496402 21:0.0 22:0.0 23:0.0 24:0.0 25:0.0 26:0.0 27:0.0 28:0.0 29:0.0 30:0.0 31:0.0 32:0.0 33:0.0 34:0.0 35:0.0 36:0.0 37:0.0 38:0.0 39:0.0 40:0.0 41:0.0 42:0.0 43:0.0 44:0.0 45:0.0 46:0.0 47:0.0 48:0.0 49:0.3158102247226399 50:0.0 
2.2083066397445115 1:0.0 2:0.0 3:0.0 4:0.0 5:0.0 6:0.0 7:0.0 8:0.0 9:0.208273381294964 10:0.0 11:0.0 12:0.0 13:0.0 14:0.0 15:0.0 16:0.15 17:0.0 18:0.0 19:0.0 20:0.0 21:0.0 22:0.0 23:0.0 24:0.0 25:0.0 26:0.0 27:0.0 28:0.0 29:0.0 30:0.0 31:0.0 32:0.0 33:0.09187859646011459 34:0.0 35:0.14949596346641228 36:0.0 37:0.0 38:0.0 39:0.0 40:0.0 41:0.0 42:0.125531914893617 43:0.0 44:0.0 45:0.0 46:0.05827338129496401 47:0.0 48:0.0 49:0.0 50:0.0 
2.203531581013456 1:0.12998208082623472 2:0.15827338129496402 3:0.0 4:0.0 5:0.0 6:0.0 7:0.0 8:0.0 9:0.0 10:0.0 11:0.0 12:0.15 13:0.0 14:0.0 15:0.0 16:0.0 17:0.0 18:0.14184397163120568 19:0.0 20:0.0 21:0.0 22:0.0 23:0.0 24:0.0 25:0.0 26:0.12805659461638988 27:0.0 28:0.14184397163120568 29:0.0 30:0.0 31:0.0 32:0.0 33:0.0 34:0.0 35:0.0 36:0.0 37:0.0 38:0.0 39:0.0 40:0.0 41:0.0 42:0.0 43:0.0 44:0.0 45:0.15 46:0.0 47:0.0 48:0.0 49:0.0 50:0.0 
0.20304718373311756 1:0.0 2:0.0 3:0.0 4:0.0 5:0.0 6:0.0 7:0.0 8:0.0 9:0.0 10:0.0 11:0.0 12:0.0 13:0.18382352941176472 14:0.0 15:0.0 16:0.0 17:0.3333333333333333 18:0.0 19:0.05124994036544056 20:0.0 21:0.0 22:0.0 23:0.0 24:0.0 25:0.0 26:0.0 27:0.0 28:0.0 29:0.0 30:0.0 31:0.0 32:0.17518248175182483 33:0.0 34:0.0 35:0.0 36:0.0 37:0.0 38:0.0 39:0.0 40:0.0 41:0.0 42:0.0 43:0.2222222222222222 44:0.0 45:0.0 46:0.0 47:0.0 48:0.0 49:0.0 50:0.0 
0.015932381121156372 1:0.0 2:0.0 3:0.0 4:0.0 5:0.0 6:0.0 7:0.0 8:0.0 9:0.0 10:0.0 11:0.3 12:0.0 13:0.5 14:0.0 15:0.0 16:0.0 17:0.0 18:0.0 19:0.0 20:0.0 21:0.0 22:0.0 23:0.0 24:0.0 25:0.0 26:0.0 27:0.0 28:0.0 29:0.0 30:0.0 31:0.0 32:0.0 33:0.0 34:0.0 35:0.0 36:0.0 37:0.0 38:0.0 39:0.0 40:0.0 41:0.0 42:0.08284313725490189 43:0.0 44:0.0 45:0.0 46:0.0 47:0.0 48:0.0 49:0.11715686274509812 50:0.0 
0.7222504575534924 1:0.0 2:0.0 3:0.0 4:0.0 5:0.0 6:0.0 7:0.0 8:0.0 9:0.1 10:0.1 11:0.1 12:0.0 13:0.0 14:0.0 15:0.0 16:0.0 17:0.1 18:0.0 19:0.0 20:0.0 21:0.0 22:0.0 23:0.0 24:0.0 25:0.0 26:0.0 27:0.0 28:0.0 29:0.14184397163120568 30:0.0 31:0.0 32:0.0 33:0.0 34:0.0 35:0.1 36:0.0 37:0.0 38:0.0 39:0.0 40:0.0 41:0.0 42:0.016312056737588676 43:0.14184397163120568 44:0.0 45:0.0 46:0.1 47:0.0 48:0.1 49:0.0 50:0.0 
0.7642441610165686 1:0.0 2:0.0 3:0.0 4:0.0 5:0.0 6:0.0 7:0.0 8:0.0 9:0.308273381294964 10:0.0 11:0.0 12:0.0 13:0.0 14:0.0 15:0.0 16:0.0 17:0.0 18:0.0 19:0.0 20:0.0 21:0.0 22:0.0 23:0.0 24:0.0 25:0.0 26:0.0 27:0.0 28:0.0 29:0.0 30:0.2915265376816053 31:0.15827338129496402 32:0.0 33:0.0 34:0.0 35:0.0 36:0.0 37:0.0 38:0.0 39:0.0 40:0.0 41:0.0 42:0.24192669972846653 43:0.0 44:0.0 45:0.0 46:0.0 47:0.0 48:0.0 49:0.0 50:0.0 
1.7781408516129649 1:0.0 2:0.0 3:0.15 4:0.0 5:0.0 6:0.0 7:0.0 8:0.0 9:0.0 10:0.0 11:0.0 12:0.0 13:0.0 14:0.0 15:0.0 16:0.0 17:0.0 18:0.0 19:0.0 20:0.0 21:0.0 22:0.14184397163120568 23:0.0 24:0.0 25:0.0 26:0.15827338129496402 27:0.0 28:0.0 29:0.0 30:0.0 31:0.0 32:0.0 33:0.0 34:0.0 35:0.0 36:0.0 37:0.0 38:0.0 39:0.0 40:0.0 41:0.0 42:0.0 43:0.15827338129496402 44:0.0 45:0.0 46:0.16666666666666666 47:0.0 48:0.18189805497869854 49:0.0 50:0.0 
1.708006203135095 1:0.0 2:0.15 3:0.14184397163120568 4:0.0 5:0.0 6:0.0 7:0.0 8:0.0 9:0.0 10:0.0 11:0.0 12:0.0 13:0.0 14:0.0 15:0.0 16:0.0 17:0.0 18:0.0 19:0.14184397163120568 20:0.0 21:0.0 22:0.15827338129496402 23:0.0 24:0.0 25:0.0 26:0.0 27:0.0 28:0.0 29:0.0 30:0.0 31:0.0 32:0.0 33:0.0 34:0.0 35:0.0 36:0.0 37:0.0 38:0.0 39:0.0 40:0.0 41:0.0 42:0.21068961904266395 43:0.0 44:0.0 45:0.15827338129496402 46:0.0 47:0.0 48:0.0 49:0.0 50:0.0 
1.3714645858380554 1:0.15827338129496402 2:0.0 3:0.0 4:0.0 5:0.0 6:0.0 7:0.0 8:0.0 9:0.15827338129496402 10:0.0 11:0.0 12:0.0 13:0.0 14:0.0 15:0.0 16:0.0 17:0.0 18:0.0 19:0.0 20:0.0 21:0.0 22:0.0 23:0.0 24:0.0 25:0.0 26:0.0 27:0.0 28:0.0 29:0.0 30:0.0 31:0.0 32:0.0 33:0.0 34:0.10470883571491932 35:0.0 36:0.0 37:0.15 38:0.0 39:0.0 40:0.0 41:0.0 42:0.15827338129496402 43:0.0 44:0.0 45:0.0 46:0.0 47:0.0 48:0.15 49:0.12047102040018867 50:0.0 
-0.4020654809304133 1:0.0 2:0.0 3:0.0 4:0.08932407737886161 5:0.0 6:0.0 7:0.0 8:0.0 9:0.0 10:0.0 11:0.0 12:0.2918439716312057 13:0.0 14:0.0 15:0.0 16:0.0 17:0.0 18:0.15 19:0.0 20:0.0 21:0.0 22:0.0 23:0.0 24:0.0 25:0.0 26:0.0 27:0.0 28:0.14184397163120568 29:0.15 30:0.0 31:0.0 32:0.0 33:0.0 34:0.0 35:0.0 36:0.0 37:0.14184397163120568 38:0.0 39:0.0 40:0.0 41:0.0 42:0.0 43:0.0 44:0.0 45:0.0 46:0.0 47:0.0 48:0.0 49:0.0 50:0.0 
-0.7093936156577784 1:0.0 2:0.0 3:0.0 4:0.0 5:0.0 6:0.0 7:0.0 8:0.12929262493122454 9:0.15827338129496402 10:0.0 11:0.0 12:0.0 13:0.0 14:0.0 15:0.12047266921643604 16:0.15827338129496402 17:0.0 18:0.0 19:0.0 20:0.0 21:0.0 22:0.0 23:0.0 24:0.0 25:0.0 26:0.0 27:0.15 28:0.0 29:0.0 30:0.0 31:0.0 32:0.0 33:0.0 34:0.0 35:0.0 36:0.0 37:0.0 38:0.0 39:0.14184397163120568 40:0.0 41:0.0 42:0.0 43:0.0 44:0.0 45:0.14184397163120568 46:0.0 47:0.0 48:0.0 49:0.0 50:0.0 
-0.41256213422116983 1:0.0 2:0.0 3:0.0 4:0.0 5:0.1258741258741259 6:0.14184397163120568 7:0.0 8:0.0 9:0.0 10:0.0 11:0.0 12:0.0 13:0.0 14:0.0 15:0.0 16:0.14184397163120568 17:0.0 18:0.0 19:0.0 20:0.0 21:0.0 22:0.0 23:0.0 24:0.0 25:0.0 26:0.0 27:0.0 28:0.0 29:0.0 30:0.0 31:0.14184397163120568 32:0.0 33:0.0 34:0.0 35:0.13380281690140844 36:0.0 37:0.0 38:0.0 39:0.0 40:0.0 41:0.14184397163120568 42:0.0 43:0.0 44:0.0 45:0.0 46:0.0 47:0.0 48:0.0 49:0.0 50:0.14184397163120568 
-1.9907929971182756 1:0.0 2:0.0 3:0.0 4:0.0 5:0.0 6:0.0 7:0.0 8:0.0 9:0.14889642899002692 10:0.0 11:0.0 12:0.15 13:0.0 14:0.0 15:0.0 16:0.0 17:0.15 18:0.13380281690140844 19:0.14184397163120568 20:0.0 21:0.0 22:0.0 23:0.0 24:0.0 25:0.0 26:0.0 27:0.0 28:0.0 29:0.0 30:0.0 31:0.0 32:0.1336128108461533 33:0.0 34:0.0 35:0.0 36:0.0 37:0.0 38:0.0 39:0.0 40:0.0 41:0.0 42:0.0 43:0.0 44:0.0 45:0.14184397163120568 46:0.0 47:0.0 48:0.0 49:0.0 50:0.0 
-0.5266743498872052 1:0.0 2:0.0 3:0.0 4:0.15 5:0.15 6:0.0 7:0.0 8:0.0 9:0.0 10:0.15 11:0.0 12:0.0 13:0.0 14:0.0 15:0.0 16:0.0 17:0.15 18:0.0 19:0.0 20:0.0 21:0.0 22:0.0 23:0.0 24:0.15 25:0.0 26:0.0 27:0.0 28:0.0 29:0.0 30:0.0 31:0.0 32:0.0 33:0.0 34:0.0 35:0.0 36:0.0 37:0.24055022321018601 38:0.0 39:0.0 40:0.0 41:0.0 42:0.0 43:0.0 44:0.0 45:0.0 46:0.0 47:0.0 48:0.0 49:0.0 50:0.0 
-2.597406465937651 1:0.0 2:0.0 3:0.0 4:0.0 5:0.0 6:0.0 7:0.0 8:0.0 9:0.0 10:0.0 11:0.0 12:0.15 13:0.0 14:0.0 15:0.0 16:0.0 17:0.15827338129496402 18:0.0 19:0.0 20:0.0 21:0.0 22:0.0 23:0.0 24:0.14184397163120568 25:0.0 26:0.0 27:0.0 28:0.0 29:0.15827338129496402 30:0.0 31:0.0 32:0.15827338129496402 33:0.0 34:0.0 35:0.0 36:0.0 37:0.0 38:0.0 39:0.0 40:0.0 41:0.0 42:0.0 43:0.0 44:0.0 45:0.0 46:0.0 47:0.0 48:0.0 49:0.15 50:0.0 
-1.4455566101922195 1:0.0 2:0.0 3:0.0 4:0.0 5:0.0 6:0.0 7:0.0 8:0.0 9:0.0 10:0.0 11:0.0 12:0.0 13:0.0 14:0.0 15:0.0 16:0.0 17:0.28368794326241137 18:0.13380281690140844 19:0.0 20:0.0 21:0.0 22:0.0 23:0.0 24:0.0 25:0.0 26:0.0 27:0.0 28:0.14184397163120568 29:0.0 30:0.0 31:0.0 32:0.0 33:0.0 34:0.0 35:0.0 36:0.0 37:0.0 38:0.0 39:0.09943567585613489 40:0.1258741258741259 41:0.0 42:0.0 43:0.14184397163120568 44:0.0 45:0.0 46:0.0 47:0.07351149484350814 48:0.0 49:0.0 50:0.0 
-1.13999977516763 1:0.0 2:0.0 3:0.15 4:0.0 5:0.0 6:0.0 7:0.0 8:0.0 9:0.0 10:0.0 11:0.0 12:0.0 13:0.0 14:0.0 15:0.0 16:0.0 17:0.0 18:0.12097110531924771 19:0.2636126562429312 20:0.0 21:0.0 22:0.0 23:0.0 24:0.15 25:0.0 26:0.0 27:0.0 28:0.0 29:0.0 30:0.0 31:0.0 32:0.0 33:0.0 34:0.0 35:0.0 36:0.0 37:0.15 38:0.0 39:0.0 40:0.0 41:0.0 42:0.0 43:0.0 44:0.0 45:0.0 46:0.0 47:0.0 48:0.0 49:0.0 50:0.15 
-0.15656576580835954 1:0.0 2:0.0 3:0.0 4:0.0 5:0.0 6:0.0 7:0.0 8:0.17070737506877545 9:0.0 10:0.0 11:0.0 12:0.0 13:0.0 14:0.0 15:0.14184397163120568 16:0.0 17:0.15827338129496402 18:0.0 19:0.0 20:0.0 21:0.0 22:0.0 23:0.0 24:0.0 25:0.0 26:0.0 27:0.0 28:0.0 29:0.0 30:0.0 31:0.0 32:0.0 33:0.11168451184123515 34:0.0 35:0.0 36:0.0 37:0.14184397163120568 38:0.0 39:0.0 40:0.0 41:0.0 42:0.0 43:0.0 44:0.0 45:0.0 46:0.0 47:0.14184397163120568 48:0.0 49:0.0 50:0.13380281690140844 
-0.8394243899197498 1:0.0 2:0.0 3:0.0 4:0.0 5:0.0 6:0.0 7:0.0 8:0.0 9:0.0 10:0.0 11:0.0 12:0.0 13:0.0 14:0.0 15:0.0 16:0.0 17:0.15 18:0.0 19:0.0 20:0.0 21:0.0 22:0.14184397163120568 23:0.24179394793383854 24:0.0 25:0.0 26:0.14184397163120568 27:0.0 28:0.0 29:0.0 30:0.0 31:0.0 32:0.0 33:0.0 34:0.0 35:0.0 36:0.0 37:0.0 38:0.0 39:0.14184397163120568 40:0.14184397163120568 41:0.0 42:0.0 43:0.0 44:0.0 45:0.0 46:0.0 47:0.0 48:0.0 49:0.0 50:0.0 
-0.9737759671401224 1:0.0 2:0.0 3:0.15 4:0.0 5:0.0 6:0.0 7:0.0 8:0.0 9:0.0 10:0.07261496201745365 11:0.0 12:0.0 13:0.0 14:0.0 15:0.0 16:0.15 17:0.0 18:0.13380281690140844 19:0.0 20:0.14184397163120568 21:0.0 22:0.0 23:0.0 24:0.0 25:0.0 26:0.0 27:0.0 28:0.0 29:0.0 30:0.0 31:0.0 32:0.0 33:0.0 34:0.0 35:0.0 36:0.0 37:0.0 38:0.0 39:0.28368794326241137 40:0.0 41:0.0 42:0.0 43:0.0 44:0.0 45:0.0 46:0.0 47:0.0 48:0.0 49:0.0 50:0.0 
-1.556973251087018 1:0.0 2:0.0 3:0.0 4:0.0 5:0.0 6:0.0 7:0.0 8:0.0 9:0.14184397163120568 10:0.0 11:0.0 12:0.14184397163120568 13:0.0 14:0.0 15:0.0 16:0.0 17:0.0 18:0.14184397163120568 19:0.0 20:0.0 21:0.0 22:0.13380281690140844 23:0.0 24:0.0 25:0.0 26:0.0 27:0.0 28:0.0 29:0.0 30:0.0 31:0.0 32:0.2480813550825813 33:0.0 34:0.0 35:0.0 36:0.0 37:0.0 38:0.0 39:0.0 40:0.0 41:0.0 42:0.0 43:0.0 44:0.0 45:0.14184397163120568 46:0.0 47:0.0 48:0.0 49:0.0 50:0.0 
-1.3596714709851074 1:0.14184397163120568 2:0.0 3:0.0 4:0.15 5:0.0 6:0.0 7:0.0 8:0.0 9:0.0 10:0.0 11:0.0 12:0.0 13:0.0 14:0.0 15:0.28250923983618015 16:0.0 17:0.2918439716312057 18:0.0 19:0.0 20:0.0 21:0.0 22:0.0 23:0.0 24:0.0 25:0.0 26:0.0 27:0.0 28:0.0 29:0.0 30:0.0 31:0.0 32:0.13380281690140844 33:0.0 34:0.0 35:0.0 36:0.0 37:0.0 38:0.0 39:0.0 40:0.0 41:0.0 42:0.0 43:0.0 44:0.0 45:0.0 46:0.0 47:0.0 48:0.0 49:0.0 50:0.0 
-1.6815081294016614 1:0.0 2:0.0 3:0.0 4:0.0 5:0.0 6:0.0 7:0.15 8:0.0 9:0.0 10:0.0 11:0.0 12:0.0 13:0.0 14:0.0 15:0.0 16:0.0 17:0.0 18:0.0 19:0.11861450971191773 20:0.0 21:0.0 22:0.0 23:0.0 24:0.0 25:0.0 26:0.15 27:0.0 28:0.0 29:0.0 30:0.0 31:0.0 32:0.0 33:0.0 34:0.0 35:0.0 36:0.0 37:0.0 38:0.0 39:0.0 40:0.0 41:0.0 42:0.0 43:0.27564678853261415 44:0.13380281690140844 45:0.0 46:0.0 47:0.0 48:0.0 49:0.15 50:0.0 
-0.9228023524560999 1:0.0 2:0.0 3:0.15 4:0.0 5:0.0 6:0.0 7:0.0 8:0.0 9:0.0 10:0.0 11:0.15 12:0.0 13:0.0 14:0.0 15:0.0 16:0.0 17:0.0 18:0.0 19:0.0 20:0.0 21:0.0 22:0.13380281690140844 23:0.0 24:0.0 25:0.1258741258741259 26:0.0 27:0.1258741258741259 28:0.0 29:0.0 30:0.0 31:0.0 32:0.0 33:0.0 34:0.0 35:0.0 36:0.0 37:0.0 38:0.0 39:0.0 40:0.0 41:0.0 42:0.0 43:0.0 44:0.0 45:0.1263433662230135 46:0.0 47:0.0 48:0.0 49:0.0 50:0.15 
-0.9423397667376475 1:0.0 2:0.0 3:0.14184397163120568 4:0.0 5:0.0 6:0.0 7:0.14184397163120568 8:0.0 9:0.0 10:0.0 11:0.0 12:0.0 13:0.0 14:0.0 15:0.0 16:0.27564678853261415 17:0.0 18:0.0 19:0.0 20:0.0 21:0.0 22:0.0 23:0.0 24:0.0 25:0.0 26:0.0 27:0.0 28:0.0 29:0.0 30:0.13380281690140844 31:0.0 32:0.15 33:0.0 34:0.0 35:0.0 36:0.0 37:0.14184397163120568 38:0.0 39:0.0 40:0.0 41:0.0 42:0.0 43:0.0 44:0.0 45:0.0 46:0.0 47:0.0 48:0.0 49:0.0 50:0.0 
-0.9237116020325044 1:0.0 2:0.0 3:0.0 4:0.14184397163120568 5:0.0 6:0.0 7:0.0 8:0.0 9:0.0 10:0.0 11:0.0 12:0.0 13:0.0 14:0.24764635093071694 15:0.0 16:0.0 17:0.0 18:0.0 19:0.0 20:0.13380281690140844 21:0.14184397163120568 22:0.051174945643052056 23:0.0 24:0.0 25:0.0 26:0.0 27:0.0 28:0.0 29:0.0 30:0.0 31:0.0 32:0.0 33:0.0 34:0.0 35:0.0 36:0.0 37:0.0 38:0.0 39:0.0 40:0.0 41:0.0 42:0.0 43:0.0 44:0.0 45:0.14184397163120568 46:0.0 47:0.0 48:0.14184397163120568 49:0.0 50:0.0 
-1.1174141580573391 1:0.0 2:0.15 3:0.0 4:0.0 5:0.14184397163120568 6:0.0 7:0.0 8:0.0 9:0.0 10:0.10669996390368433 11:0.0 12:0.0 13:0.0 14:0.0 15:0.0 16:0.0 17:0.0 18:0.0 19:0.0 20:0.0 21:0.15 22:0.0 23:0.0 24:0.0 25:0.0 26:0.0 27:0.0 28:0.0 29:0.0 30:0.14184397163120568 31:0.0 32:0.0 33:0.0 34:0.0 35:0.0 36:0.0 37:0.0 38:0.0 39:0.0 40:0.14184397163120568 41:0.0 42:0.0 43:0.0 44:0.0 45:0.0 46:0.0 47:0.0 48:0.14184397163120568 49:0.0 50:0.0 
-0.9971167890327239 1:0.15 2:0.0 3:0.0 4:0.0 5:0.0 6:0.0 7:0.14184397163120568 8:0.0 9:0.16666666666666666 10:0.0 11:0.0 12:0.0 13:0.0 14:0.0 15:0.14184397163120568 16:0.0 17:0.0 18:0.0 19:0.0 20:0.0 21:0.0 22:0.0 23:0.0 24:0.0 25:0.0 26:0.0 27:0.0 28:0.0 29:0.0 30:0.14184397163120568 31:0.0 32:0.0 33:0.0 34:0.0 35:0.0 36:0.0 37:0.0 38:0.0 39:0.0 40:0.0 41:0.0 42:0.0 43:0.0 44:0.0 45:0.0 46:0.0 47:0.0 48:0.0 49:0.0 50:0.2578014184397164 
-1.2537263288613698 1:0.0 2:0.14184397163120568 3:0.0 4:0.0 5:0.0 6:0.0 7:0.0 8:0.0 9:0.0 10:0.0 11:0.0 12:0.0 13:0.0 14:0.0 15:0.15827338129496402 16:0.0 17:0.0 18:0.0 19:0.0 20:0.0 21:0.0 22:0.15827338129496402 23:0.0 24:0.0 25:0.0 26:0.0 27:0.0 28:0.0 29:0.0 30:0.0 31:0.1357982035922736 32:0.0 33:0.0 34:0.0 35:0.0 36:0.0 37:0.0 38:0.0 39:0.0 40:0.0 41:0.0 42:0.0 43:0.15 44:0.0 45:0.0 46:0.0 47:0.0 48:0.0 49:0.15 50:0.10581106218659259 
-0.5666130551587091 1:0.0 2:0.25059663907430296 3:0.0 4:0.0 5:0.0 6:0.0 7:0.0 8:0.15827338129496402 9:0.0 10:0.0 11:0.0 12:0.0 13:0.0 14:0.0 15:0.0 16:0.0 17:0.0 18:0.0 19:0.13380281690140844 20:0.0 21:0.0 22:0.0 23:0.0 24:0.0 25:0.0 26:0.0 27:0.0 28:0.0 29:0.0 30:0.0 31:0.0 32:0.0 33:0.0 34:0.0 35:0.14184397163120568 36:0.15 37:0.13380281690140844 38:0.0 39:0.0 40:0.0 41:0.0 42:0.0 43:0.0 44:0.0 45:0.0 46:0.0 47:0.0 48:0.0 49:0.0 50:0.0 
-1.1297775306166433 1:0.0 2:0.15 3:0.0 4:0.15827338129496402 5:0.0 6:0.0 7:0.0 8:0.0 9:0.0 10:0.0 11:0.0 12:0.15827338129496402 13:0.0 14:0.0 15:0.0 16:0.0 17:0.0 18:0.13380281690140844 19:0.15 20:0.0 21:0.0 22:0.0 23:0.0 24:0.14184397163120568 25:0.0 26:0.0 27:0.0 28:0.0 29:0.0 30:0.0 31:0.0 32:0.0 33:0.0 34:0.0 35:0.0 36:0.0 37:0.0 38:0.0 39:0.0 40:0.0 41:0.0 42:0.0 43:0.0 44:0.0 45:0.0 46:0.0 47:0.0 48:0.0 49:0.0 50:0.0 
-0.474030341997627 1:0.13380281690140844 2:0.0 3:0.0 4:0.0 5:0.15 6:0.0 7:0.0 8:0.0 9:0.0 10:0.0 11:0.0 12:0.0 13:0.0 14:0.0 15:0.0 16:0.0 17:0.0 18:0.0 19:0.0 20:0.0 21:0.0 22:0.28368794326241137 23:0.0 24:0.0 25:0.0 26:0.0 27:0.0 28:0.15 29:0.0 30:0.0 31:0.0 32:0.0 33:0.0 34:0.0 35:0.0 36:0.0 37:0.0 38:0.0 39:0.14184397163120568 40:0.0 41:0.0 42:0.0 43:0.0 44:0.0 45:0.0 46:0.0 47:0.0 48:0.0 49:0.0 50:0.0 
-0.7323596868680851 1:0.0 2:0.0 3:0.0 4:0.0 5:0.0 6:0.0 7:0.0 8:0.0 9:0.0 10:0.10759106922220277 11:0.0 12:0.0 13:0.0 14:0.27564678853261415 15:0.0 16:0.14184397163120568 17:0.0 18:0.0 19:0.0 20:0.0 21:0.0 22:0.0 23:0.0 24:0.0 25:0.0 26:0.0 27:0.0 28:0.0 29:0.0 30:0.0 31:0.0 32:0.0 33:0.0 34:0.0 35:0.0 36:0.0 37:0.0 38:0.0 39:0.0 40:0.2838028169014084 41:0.0 42:0.0 43:0.0 44:0.0 45:0.0 46:0.0 47:0.0 48:0.0 49:0.15 50:0.0 
-0.4817205605447259 1:0.18189549555654058 2:0.15 3:0.14184397163120568 4:0.0 5:0.0 6:0.0 7:0.0 8:0.0 9:0.0 10:0.0 11:0.0 12:0.0 13:0.0 14:0.14184397163120568 15:0.0 16:0.0 17:0.0 18:0.0 19:0.0 20:0.0 21:0.0 22:0.0 23:0.0 24:0.0 25:0.0 26:0.0 27:0.0 28:0.0 29:0.0 30:0.0 31:0.0 32:0.0 33:0.10072861791863669 34:0.0 35:0.0 36:0.0 37:0.0 38:0.0 39:0.0 40:0.14184397163120568 41:0.14184397163120568 42:0.0 43:0.0 44:0.0 45:0.0 46:0.0 47:0.0 48:0.0 49:0.0 50:0.0 
-0.29554194062679784 1:0.0 2:0.0 3:0.0 4:0.0 5:0.0 6:0.0 7:0.14184397163120568 8:0.0 9:0.0 10:0.0 11:0.0 12:0.0 13:0.0 14:0.0 15:0.0 16:0.0 17:0.0 18:0.0 19:0.0 20:0.0 21:0.0 22:0.0 23:0.15 24:0.0 25:0.0 26:0.0 27:0.1258741258741259 28:0.13380281690140844 29:0.0 30:0.12918455415101873 31:0.0 32:0.0 33:0.0 34:0.0 35:0.0 36:0.0 37:0.0 38:0.0 39:0.0 40:0.0 41:0.0 42:0.0 43:0.0 44:0.0 45:0.0 46:0.28368794326241137 47:0.0 48:0.0 49:0.0 50:0.0 
-1.022869451299148 1:0.0 2:0.0 3:0.0 4:0.0 5:0.0 6:0.0 7:0.2918439716312057 8:0.0 9:0.0 10:0.0 11:0.0 12:0.0 13:0.15827338129496402 14:0.0 15:0.15 16:0.0 17:0.0 18:0.0 19:0.0 20:0.0 21:0.0 22:0.0 23:0.0 24:0.0 25:0.0 26:0.0 27:0.0 28:0.0 29:0.0 30:0.0 31:0.0 32:0.0 33:0.12435304011159451 34:0.0 35:0.12552960696223583 36:0.0 37:0.0 38:0.0 39:0.15 40:0.0 41:0.0 42:0.0 43:0.0 44:0.0 45:0.0 46:0.0 47:0.0 48:0.0 49:0.0 50:0.0 
-0.9060632262571099 1:0.0 2:0.15827338129496402 3:0.0 4:0.0 5:0.0 6:0.0 7:0.0 8:0.0 9:0.0 10:0.0 11:0.0 12:0.11850456625368674 13:0.0 14:0.0 15:0.0 16:0.0 17:0.0 18:0.0 19:0.14184397163120568 20:0.0 21:0.0 22:0.0 23:0.0 24:0.0 25:0.0 26:0.0 27:0.0 28:0.0 29:0.13380281690140844 30:0.0 31:0.0 32:0.14745791099256536 33:0.0 34:0.0 35:0.15827338129496402 36:0.0 37:0.0 38:0.0 39:0.0 40:0.0 41:0.0 42:0.0 43:0.0 44:0.0 45:0.14184397163120568 46:0.0 47:0.0 48:0.0 49:0.0 50:0.0 
-0.6101910273716389 1:0.0 2:0.0 3:0.0 4:0.14184397163120568 5:0.3399331497731601 6:0.0 7:0.0 8:0.0 9:0.0 10:0.0 11:0.0 12:0.0 13:0.0 14:0.0 15:0.0 16:0.0 17:0.0 18:0.0 19:0.0 20:0.0 21:0.0 22:0.0 23:0.0 24:0.14184397163120568 25:0.0 26:0.0 27:0.14184397163120568 28:0.0 29:0.0 30:0.0 31:0.0 32:0.0 33:0.0 34:0.0 35:0.0 36:0.0 37:0.0 38:0.0 39:0.0 40:0.0 41:0.0 42:0.0 43:0.0 44:0.13380281690140844 45:0.0 46:0.0 47:0.0 48:0.0 49:0.0 50:0.0 
-0.5497911991532958 1:0.0 2:0.14184397163120568 3:0.0 4:0.0 5:0.0 6:0.0 7:0.14184397163120568 8:0.0 9:0.0 10:0.0 11:0.0 12:0.14184397163120568 13:0.0 14:0.0 15:0.0 16:0.0 17:0.0 18:0.0 19:0.0 20:0.0 21:0.0 22:0.0 23:0.0 24:0.0 25:0.0 26:0.0 27:0.0 28:0.0 29:0.0 30:0.0 31:0.13380281690140844 32:0.0 33:0.0 34:0.0 35:0.0 36:0.0 37:0.0 38:0.0 39:0.14184397163120568 40:0.0 41:0.0 42:0.0 43:0.0 44:0.0 45:0.0 46:0.14184397163120568 47:0.0 48:0.0 49:0.0 50:0.0 
-0.2156583628218088 1:0.0 2:0.0 3:0.19858637338311563 4:0.0 5:0.0 6:0.14184397163120568 7:0.0 8:0.0 9:0.0 10:0.0 11:0.0 12:0.08392286645306457 13:0.0 14:0.0 15:0.0 16:0.0 17:0.0 18:0.0 19:0.0 20:0.0 21:0.0 22:0.0 23:0.0 24:0.0 25:0.0 26:0.0 27:0.0 28:0.0 29:0.15 30:0.0 31:0.14184397163120568 32:0.0 33:0.0 34:0.0 35:0.15 36:0.0 37:0.0 38:0.0 39:0.0 40:0.0 41:0.0 42:0.0 43:0.0 44:0.0 45:0.0 46:0.13380281690140844 47:0.0 48:0.0 49:0.0 50:0.0 
-0.25027589934956007 1:0.0 2:0.0 3:0.0 4:0.0 5:0.14184397163120568 6:0.0 7:0.13380281690140844 8:0.0 9:0.0 10:0.0 11:0.0 12:0.0 13:0.0 14:0.0 15:0.0 16:0.0 17:0.0 18:0.14184397163120568 19:0.0 20:0.0 21:0.0 22:0.0 23:0.0 24:0.0 25:0.0 26:0.0 27:0.0 28:0.0 29:0.0 30:0.0 31:0.0 32:0.0 33:0.0 34:0.0 35:0.0 36:0.0 37:0.0 38:0.0 39:0.0 40:0.0 41:0.0 42:0.0 43:0.0 44:0.0 45:0.0 46:0.3004694835680751 47:0.0 48:0.0 49:0.0 50:0.15 
-1.4541432467427973 1:0.2410974614439037 2:0.0 3:0.14184397163120568 4:0.0 5:0.0 6:0.0 7:0.0 8:0.0 9:0.0 10:0.0 11:0.0 12:0.3001173529261697 13:0.0 14:0.0 15:0.0 16:0.0 17:0.0 18:0.0 19:0.0 20:0.0 21:0.0 22:0.0 23:0.0 24:0.0 25:0.0 26:0.14184397163120568 27:0.0 28:0.0 29:0.0 30:0.0 31:0.0 32:0.0 33:0.0 34:0.0 35:0.0 36:0.0 37:0.0 38:0.0 39:0.0 40:0.0 41:0.0 42:0.14184397163120568 43:0.0 44:0.0 45:0.0 46:0.0 47:0.0 48:0.0 49:0.0 50:0.0 
-0.7862486829986396 1:0.0 2:0.0 3:0.0 4:0.0 5:0.0 6:0.0 7:0.0 8:0.0 9:0.0 10:0.27564678853261415 11:0.0 12:0.0 13:0.0 14:0.0 15:0.0 16:0.0 17:0.0 18:0.0 19:0.0 20:0.0 21:0.0 22:0.0 23:0.0 24:0.0 25:0.0 26:0.2 27:0.0 28:0.0 29:0.0 30:0.0 31:0.15 32:0.0 33:0.0 34:0.0 35:0.0 36:0.0 37:0.0 38:0.0 39:0.0 40:0.14184397163120568 41:0.03250923983618023 42:0.0 43:0.0 44:0.0 45:0.2 46:0.0 47:0.0 48:0.0 49:0.0 50:0.0 
-0.28670012603044387 1:0.0 2:0.0 3:0.0 4:0.0 5:0.0 6:0.0 7:0.0 8:0.0 9:0.0 10:0.15 11:0.0 12:0.0 13:0.0 14:0.0 15:0.0 16:0.0 17:0.0 18:0.0 19:0.0 20:0.0 21:0.0 22:0.0 23:0.0 24:0.0 25:0.0 26:0.0 27:0.14184397163120568 28:0.0 29:0.11805555555555555 30:0.14184397163120568 31:0.0 32:0.0 33:0.0 34:0.0 35:0.14095171910497897 36:0.0 37:0.0 38:0.0 39:0.1258741258741259 40:0.0 41:0.0 42:0.0 43:0.0 44:0.0 45:0.0 46:0.0 47:0.15 48:0.0 49:0.0 50:0.0 
-0.4242070682558701 1:0.0 2:0.0 3:0.0 4:0.0 5:0.0 6:0.0 7:0.14184397163120568 8:0.0 9:0.0 10:0.0 11:0.0 12:0.0 13:0.0 14:0.0 15:0.0 16:0.0 17:0.0 18:0.13380281690140844 19:0.0 20:0.0 21:0.14184397163120568 22:0.0 23:0.0 24:0.0 25:0.0 26:0.0 27:0.0 28:0.14184397163120568 29:0.0 30:0.0 31:0.0 32:0.0 33:0.0 34:0.0 35:0.0 36:0.0 37:0.0 38:0.0 39:0.13380281690140844 40:0.14184397163120568 41:0.0 42:0.0 43:0.0 44:0.0 45:0.0 46:0.0 47:0.0 48:0.0 49:0.0 50:0.0 
-1.9334256040317388 1:0.14184397163120568 2:0.15 3:0.0 4:0.0 5:0.0 6:0.0 7:0.0 8:0.0 9:0.0 10:0.0 11:0.0 12:0.0 13:0.0 14:0.0 15:0.0 16:0.15 17:0.0 18:0.0 19:0.0 20:0.0 21:0.0 22:0.0 23:0.0 24:0.0 25:0.0 26:0.0 27:0.0 28:0.14184397163120568 29:0.0 30:0.0 31:0.0 32:0.0 33:0.0 34:0.0 35:0.0 36:0.0 37:0.0 38:0.0 39:0.0 40:0.0 41:0.0 42:0.0 43:0.15 44:0.0 45:0.0 46:0.08541619285374125 47:0.0 48:0.14184397163120568 49:0.0 50:0.0 
-1.026265813486504 1:0.0 2:0.0 3:0.0 4:0.0 5:0.0 6:0.0 7:0.0 8:0.0 9:0.15 10:0.0 11:0.0 12:0.0 13:0.0 14:0.0 15:0.0 16:0.0 17:0.0 18:0.0 19:0.0 20:0.0 21:0.0 22:0.0 23:0.0 24:0.0 25:0.0 26:0.0 27:0.0 28:0.0 29:0.0 30:0.0 31:0.1254769610154838 32:0.0 33:0.0 34:0.13380281690140844 35:0.15 36:0.0 37:0.0 38:0.0 39:0.0 40:0.0 41:0.0 42:0.0 43:0.14184397163120568 44:0.0 45:0.0 46:0.0 47:0.0 48:0.0 49:0.0 50:0.27564678853261415 
-1.0742225505190057 1:0.0 2:0.0 3:0.0 4:0.0 5:0.0 6:0.0 7:0.0 8:0.0 9:0.0 10:0.0 11:0.0 12:0.0 13:0.0 14:0.14184397163120568 15:0.0 16:0.0 17:0.0 18:0.0 19:0.0 20:0.1104133154282774 21:0.0 22:0.0 23:0.0 24:0.0 25:0.0 26:0.0 27:0.0 28:0.0 29:0.14184397163120568 30:0.0 31:0.0 32:0.0 33:0.0 34:0.0 35:0.17221079804689993 36:0.0 37:0.0 38:0.0 39:0.0 40:0.0 41:0.0 42:0.0 43:0.15 44:0.0 45:0.14184397163120568 46:0.14184397163120568 47:0.0 48:0.0 49:0.0 50:0.0 
-0.7312781505052055 1:0.0 2:0.0 3:0.0 4:0.0 5:0.0 6:0.0 7:0.0 8:0.0 9:0.0 10:0.0 11:0.0 12:0.0 13:0.0 14:0.0 15:0.0 16:0.14184397163120568 17:0.0 18:0.14184397163120568 19:0.0 20:0.0 21:0.0 22:0.1291279449331744 23:0.0 24:0.0 25:0.0 26:0.15827338129496402 27:0.0 28:0.0 29:0.14184397163120568 30:0.0 31:0.14184397163120568 32:0.14184397163120568 33:0.0 34:0.0 35:0.0 36:0.0 37:0.0 38:0.0 39:0.0 40:0.0 41:0.0 42:0.0 43:0.0 44:0.0 45:0.0 46:0.0 47:0.0 48:0.0 49:0.0 50:0.0 
-1.421394564110249 1:0.0 2:0.0 3:0.0 4:0.0 5:0.0 6:0.0 7:0.0 8:0.0 9:0.0 10:0.0 11:0.0 12:0.0 13:0.0 14:0.0 15:0.0 16:0.0 17:0.0 18:0.0 19:0.0 20:0.0 21:0.0 22:0.0 23:0.0 24:0.0 25:0.0 26:0.10172076825999524 27:0.0 28:0.0 29:0.0 30:0.0 31:0.0 32:0.0 33:0.0 34:0.15827338129496402 35:0.15 36:0.0 37:0.0 38:0.0 39:0.15 40:0.0 41:0.0 42:0.0 43:0.0 44:0.0 45:0.13380281690140844 46:0.0 47:0.0 48:0.14184397163120568 49:0.0 50:0.16435906191242658 
-0.3775425572948205 1:0.0 2:0.15827338129496402 3:0.0 4:0.13711185646782417 5:0.0 6:0.0 7:0.0 8:0.0 9:0.0 10:0.0 11:0.0 12:0.0 13:0.0 14:0.0 15:0.14184397163120568 16:0.0 17:0.0 18:0.0 19:0.0 20:0.0 21:0.0 22:0.0 23:0.0 24:0.0 25:0.0 26:0.0 27:0.0 28:0.0 29:0.0 30:0.0 31:0.0 32:0.0 33:0.0 34:0.0 35:0.13380281690140844 36:0.0 37:0.0 38:0.0 39:0.0 40:0.0 41:0.0 42:0.0 43:0.13380281690140844 44:0.0 45:0.0 46:0.13380281690140844 47:0.0 48:0.0 49:0.0 50:0.13380281690140844 
-0.5241591521695003 1:0.0 2:0.0 3:0.0 4:0.15 5:0.0 6:0.0 7:0.15827338129496402 8:0.0 9:0.0 10:0.0 11:0.0 12:0.0 13:0.0 14:0.0 15:0.0 16:0.0 17:0.0 18:0.0 19:0.14184397163120568 20:0.0 21:0.0 22:0.0 23:0.0 24:0.0 25:0.0 26:0.0 27:0.10057922476422962 28:0.0 29:0.0 30:0.0 31:0.15 32:0.0 33:0.0 34:0.0 35:0.0 36:0.0 37:0.0 38:0.0 39:0.0 40:0.13380281690140844 41:0.0 42:0.0 43:0.0 44:0.0 45:0.16550060540819217 46:0.0 47:0.0 48:0.0 49:0.0 50:0.0 
-0.23373613939463636 1:0.0 2:0.14184397163120568 3:0.0 4:0.0 5:0.0 6:0.0 7:0.0 8:0.0 9:0.0 10:0.0 11:0.0 12:0.13032153915867875 13:0.0 14:0.0 15:0.0 16:0.0 17:0.0 18:0.0 19:0.0 20:0.0 21:0.0 22:0.0 23:0.0 24:0.0 25:0.0 26:0.0 27:0.15827338129496402 28:0.0 29:0.0 30:0.13380281690140844 31:0.14184397163120568 32:0.0 33:0.0 34:0.0 35:0.0 36:0.0 37:0.0 38:0.0 39:0.0 40:0.0 41:0.0 42:0.0 43:0.0 44:0.0 45:0.0 46:0.0 47:0.15827338129496402 48:0.0 49:0.0 50:0.1356409380875734 
-0.5373497292960431 1:0.0 2:0.0 3:0.0 4:0.0 5:0.0 6:0.0 7:0.15 8:0.0 9:0.0 10:0.0 11:0.0 12:0.0 13:0.0 14:0.0 15:0.0 16:0.0 17:0.0 18:0.14184397163120568 19:0.09628401640493092 20:0.0 21:0.0 22:0.0 23:0.0 24:0.0 25:0.0 26:0.0 27:0.0 28:0.0 29:0.15827338129496402 30:0.0 31:0.0 32:0.0 33:0.13380281690140844 34:0.0 35:0.0 36:0.0 37:0.0 38:0.0 39:0.0 40:0.0 41:0.0 42:0.0 43:0.0 44:0.0 45:0.0 46:0.0 47:0.14184397163120568 48:0.0 49:0.15827338129496402 50:0.0 
-0.597773708391109 1:0.0 2:0.0 3:0.0 4:0.0 5:0.0 6:0.0 7:0.0 8:0.0 9:0.0 10:0.0 11:0.0 12:0.0 13:0.0 14:0.0 15:0.0 16:0.0 17:0.0 18:0.1249259936733502 19:0.0 20:0.0 21:0.14184397163120568 22:0.0 23:0.0 24:0.14184397163120568 25:0.0 26:0.0 27:0.0 28:0.0 29:0.0 30:0.13380281690140844 31:0.0 32:0.0 33:0.13380281690140844 34:0.0 35:0.13380281690140844 36:0.0 37:0.0 38:0.0 39:0.0 40:0.0 41:0.15 42:0.0 43:0.0 44:0.0 45:0.0 46:0.0 47:0.0 48:0.0 49:0.0 50:0.0 
-2.4452357493633627 1:0.0 2:0.0 3:0.0 4:0.0 5:0.0 6:0.0 7:0.0 8:0.0 9:0.0 10:0.0 11:0.15827338129496402 12:0.0 13:0.0 14:0.0 15:0.0 16:0.0 17:0.0 18:0.0 19:0.2446360510097696 20:0.0 21:0.13380281690140844 22:0.0 23:0.0 24:0.0 25:0.0 26:0.0 27:0.0 28:0.0 29:0.0 30:0.0 31:0.0 32:0.0 33:0.0 34:0.0 35:0.0 36:0.0 37:0.0 38:0.0 39:0.0 40:0.0 41:0.0 42:0.2918439716312057 43:0.0 44:0.0 45:0.0 46:0.0 47:0.0 48:0.13380281690140844 49:0.0 50:0.0 
-1.0388043994859044 1:0.0 2:0.0 3:0.0 4:0.0 5:0.0 6:0.0 7:0.0 8:0.0 9:0.0 10:0.0 11:0.0 12:0.0 13:0.0 14:0.0 15:0.15 16:0.15827338129496402 17:0.0 18:0.0 19:0.0 20:0.0 21:0.1258741258741259 22:0.0 23:0.0 24:0.0 25:0.0 26:0.2740085211997043 27:0.0 28:0.0 29:0.0 30:0.0 31:0.0 32:0.0 33:0.0 34:0.0 35:0.0 36:0.0 37:0.0 38:0.0 39:0.14184397163120568 40:0.0 41:0.0 42:0.0 43:0.0 44:0.0 45:0.0 46:0.15 47:0.0 48:0.0 49:0.0 50:0.0 
-0.7632751824719856 1:0.23559526460727923 2:0.0 3:0.0 4:0.0 5:0.0 6:0.14184397163120568 7:0.0 8:0.2838028169014084 9:0.0 10:0.0 11:0.0 12:0.0 13:0.0 14:0.0 15:0.0 16:0.0 17:0.0 18:0.0 19:0.0 20:0.0 21:0.0 22:0.0 23:0.0 24:0.0 25:0.0 26:0.0 27:0.0 28:0.0 29:0.0 30:0.14184397163120568 31:0.0 32:0.0 33:0.0 34:0.0 35:0.0 36:0.0 37:0.0 38:0.0 39:0.0 40:0.0 41:0.13380281690140844 42:0.0 43:0.0 44:0.0 45:0.0 46:0.0 47:0.0 48:0.0 49:0.0 50:0.0 
-1.0047941797887965 1:0.0760814610587158 2:0.0 3:0.0 4:0.0 5:0.0 6:0.0 7:0.0 8:0.0 9:0.0 10:0.0 11:0.0 12:0.14184397163120568 13:0.0 14:0.0 15:0.0 16:0.0 17:0.0 18:0.0 19:0.0 20:0.0 21:0.0 22:0.0 23:0.0 24:0.0 25:0.0 26:0.0 27:0.0 28:0.0 29:0.15 30:0.0 31:0.0 32:0.0 33:0.0 34:0.0 35:0.0 36:0.0 37:0.0 38:0.0 39:0.0 40:0.0 41:0.0 42:0.0 43:0.15 44:0.0 45:0.0 46:0.0 47:0.2838028169014084 48:0.14184397163120568 49:0.0 50:0.0 
-0.5563633158927037 1:0.0 2:0.0 3:0.0 4:0.11990808677714607 5:0.0 6:0.0 7:0.0 8:0.0 9:0.0 10:0.14184397163120568 11:0.0 12:0.0 13:0.0 14:0.0 15:0.0 16:0.0 17:0.0 18:0.0 19:0.0 20:0.0 21:0.0 22:0.0 23:0.0 24:0.0 25:0.0 26:0.15 27:0.0 28:0.0 29:0.0 30:0.14184397163120568 31:0.0 32:0.0 33:0.0 34:0.2918439716312057 35:0.0 36:0.0 37:0.0 38:0.0 39:0.0 40:0.14184397163120568 41:0.0 42:0.0 43:0.0 44:0.0 45:0.0 46:0.0 47:0.0 48:0.0 49:0.0 50:0.0 
-0.7031337896368091 1:0.0 2:0.0 3:0.0 4:0.0 5:0.0 6:0.0 7:0.0 8:0.0 9:0.20680851031762876 10:0.0 11:0.0 12:0.0 13:0.0 14:0.0 15:0.0 16:0.14184397163120568 17:0.0 18:0.0 19:0.0 20:0.0 21:0.10005394098593728 22:0.0 23:0.13380281690140844 24:0.0 25:0.0 26:0.14184397163120568 27:0.0 28:0.13380281690140844 29:0.0 30:0.0 31:0.0 32:0.0 33:0.0 34:0.0 35:0.0 36:0.0 37:0.0 38:0.0 39:0.0 40:0.0 41:0.0 42:0.0 43:0.0 44:0.0 45:0.0 46:0.0 47:0.0 48:0.0 49:0.0 50:0.14184397163120568 
-1.2751225185340143 1:0.0 2:0.0 3:0.0 4:0.0 5:0.0 6:0.0 7:0.0 8:0.0 9:0.0 10:0.14184397163120568 11:0.0 12:0.0 13:0.15 14:0.0 15:0.13380281690140844 16:0.0 17:0.0 18:0.13380281690140844 19:0.27564678853261415 20:0.0 21:0.0 22:0.0 23:0.0 24:0.0 25:0.0 26:0.0 27:0.0 28:0.1258741258741259 29:0.0 30:0.0 31:0.0 32:0.0 33:0.0 34:0.0 35:0.0 36:0.0 37:0.0 38:0.0 39:0.0 40:0.0 41:0.0 42:0.0 43:0.0 44:0.0 45:0.0 46:0.0 47:0.0 48:0.0 49:0.0 50:0.0 
-0.06845215372208213 1:0.0 2:0.0 3:0.14184397163120568 4:0.0 5:0.0 6:0.0 7:0.0 8:0.0 9:0.0 10:0.0 11:0.0 12:0.0 13:0.0 14:0.0 15:0.0 16:0.0 17:0.15827338129496402 18:0.13380281690140844 19:0.0 20:0.0 21:0.0 22:0.15 23:0.0 24:0.0 25:0.0 26:0.0 27:0.13380281690140844 28:0.0 29:0.0 30:0.0 31:0.0 32:0.0 33:0.11290813240286476 34:0.0 35:0.0 36:0.0 37:0.14184397163120568 38:0.0 39:0.0 40:0.0 41:0.0 42:0.0 43:0.0 44:0.0 45:0.0 46:0.0 47:0.0 48:0.0 49:0.0 50:0.0 
-0.5043767176397341 1:0.0 2:0.15 3:0.0 4:0.0 5:0.0 6:0.0 7:0.0 8:0.0 9:0.0 10:0.0 11:0.0 12:0.0 13:0.0 14:0.0 15:0.0 16:0.0 17:0.0 18:0.0 19:0.14184397163120568 20:0.0 21:0.0 22:0.15 23:0.0 24:0.0 25:0.0 26:0.0 27:0.2076941565307344 28:0.0 29:0.0 30:0.0 31:0.0 32:0.0 33:0.1258741258741259 34:0.0 35:0.0 36:0.0 37:0.0 38:0.0 39:0.0 40:0.0 41:0.0 42:0.0 43:0.15 44:0.0 45:0.0 46:0.0 47:0.0 48:0.0 49:0.0 50:0.0 
-0.35775090475257776 1:0.0 2:0.0 3:0.14184397163120568 4:0.0 5:0.0 6:0.0 7:0.0 8:0.0 9:0.0 10:0.0 11:0.0 12:0.0 13:0.0 14:0.0 15:0.0 16:0.0 17:0.0 18:0.14184397163120568 19:0.14184397163120568 20:0.14184397163120568 21:0.0 22:0.11438684312405559 23:0.0 24:0.0 25:0.0 26:0.0 27:0.0 28:0.0 29:0.0 30:0.0 31:0.0 32:0.0 33:0.0 34:0.0 35:0.0 36:0.0 37:0.0 38:0.0 39:0.14184397163120568 40:0.0 41:0.0 42:0.0 43:0.0 44:0.0 45:0.0 46:0.0 47:0.13380281690140844 48:0.0 49:0.0 50:0.0 
-0.06462075110077835 1:0.0 2:0.0 3:0.1258741258741259 4:0.0 5:0.0 6:0.0 7:0.0 8:0.0 9:0.0 10:0.15 11:0.0 12:0.0 13:0.0 14:0.0 15:0.092077476692379 16:0.14184397163120568 17:0.0 18:0.0 19:0.0 20:0.0 21:0.0 22:0.0 23:0.0 24:0.14184397163120568 25:0.0 26:0.0 27:0.0 28:0.0 29:0.0 30:0.0 31:0.0 32:0.0 33:0.0 34:0.13380281690140844 35:0.0 36:0.08075482036826692 37:0.0 38:0.0 39:0.0 40:0.13380281690140844 41:0.0 42:0.0 43:0.0 44:0.0 45:0.0 46:0.0 47:0.0 48:0.0 49:0.0 50:0.0 
-1.0245388535360973 1:0.0 2:0.0 3:0.0 4:0.0 5:0.0 6:0.0 7:0.0 8:0.0 9:0.0 10:0.0 11:0.0 12:0.0 13:0.0 14:0.0 15:0.07233279141727694 16:0.0 17:0.0 18:0.0 19:0.0 20:0.0 21:0.0 22:0.0 23:0.0 24:0.0 25:0.0 26:0.14184397163120568 27:0.0 28:0.0 29:0.0 30:0.0 31:0.0 32:0.0 33:0.0 34:0.0 35:0.13380281690140844 36:0.0 37:0.0 38:0.0 39:0.0 40:0.0 41:0.0 42:0.0 43:0.0 44:0.0 45:0.0 46:0.43368794326241134 47:0.0 48:0.0 49:0.14184397163120568 50:0.0 
-0.4103840091394447 1:0.0 2:0.15 3:0.0 4:0.0 5:0.14184397163120568 6:0.0 7:0.0 8:0.15827338129496402 9:0.0 10:0.0 11:0.0 12:0.0 13:0.0 14:0.10549658643519003 15:0.0 16:0.0 17:0.14184397163120568 18:0.0 19:0.0 20:0.0 21:0.0 22:0.0 23:0.0 24:0.0 25:0.0 26:0.0 27:0.0 28:0.0 29:0.0 30:0.0 31:0.0 32:0.0 33:0.0 34:0.0 35:0.0 36:0.0 37:0.15 38:0.0 39:0.0 40:0.0 41:0.0 42:0.0 43:0.0 44:0.0 45:0.0 46:0.15 47:0.0 48:0.0 49:0.0 50:0.0 
-2.5833300808388846 1:0.0 2:0.0 3:0.0 4:0.0 5:0.0 6:0.0 7:0.0 8:0.0 9:0.0 10:0.0 11:0.15827338129496402 12:0.15 13:0.0 14:0.0 15:0.0 16:0.0 17:0.0 18:0.0 19:0.0 20:0.0 21:0.0 22:0.0 23:0.0 24:0.0 25:0.0 26:0.0 27:0.0 28:0.0 29:0.0 30:0.0 31:0.13380281690140844 32:0.15 33:0.0 34:0.0 35:0.0 36:0.0 37:0.0 38:0.0 39:0.0 40:0.1258741258741259 41:0.0 42:0.14184397163120568 43:0.10417279485368292 44:0.0 45:0.0 46:0.0 47:0.0 48:0.0 49:0.0 50:0.0 
-0.4531482058564585 1:0.0 2:0.15 3:0.0 4:0.0 5:0.0 6:0.15 7:0.0 8:0.0 9:0.0 10:0.0 11:0.0 12:0.0 13:0.0 14:0.0 15:0.0 16:0.26831962580328944 17:0.0 18:0.0 19:0.0 20:0.0 21:0.0 22:0.0 23:0.0 24:0.0 25:0.0 26:0.0 27:0.0 28:0.0 29:0.14184397163120568 30:0.0 31:0.0 32:0.0 33:0.0 34:0.0 35:0.13380281690140844 36:0.0 37:0.0 38:0.0 39:0.0 40:0.0 41:0.0 42:0.0 43:0.0 44:0.0 45:0.1258741258741259 46:0.0 47:0.0 48:0.0 49:0.0 50:0.0 
-0.4764914258738164 1:0.0 2:0.0 3:0.0 4:0.0 5:0.0 6:0.2677180975053316 7:0.0 8:0.0 9:0.0 10:0.0 11:0.0 12:0.0 13:0.0 14:0.0 15:0.0 16:0.0 17:0.0 18:0.0 19:0.0 20:0.0 21:0.0 22:0.0 23:0.0 24:0.14184397163120568 25:0.0 26:0.0 27:0.28368794326241137 28:0.0 29:0.15 30:0.0 31:0.0 32:0.0 33:0.0 34:0.0 35:0.0 36:0.0 37:0.0 38:0.0 39:0.0 40:0.0 41:0.0 42:0.0 43:0.0 44:0.0 45:0.13380281690140844 46:0.0 47:0.0 48:0.0 49:0.0 50:0.0 
-1.0609465951673167 1:0.14184397163120568 2:0.1447134453748862 3:0.0 4:0.0 5:0.0 6:0.0 7:0.0 8:0.0 9:0.0 10:0.0 11:0.0 12:0.0 13:0.0 14:0.13380281690140844 15:0.0 16:0.0 17:0.0 18:0.0 19:0.0 20:0.0 21:0.0 22:0.15 23:0.0 24:0.0 25:0.0 26:0.0 27:0.0 28:0.0 29:0.0 30:0.0 31:0.0 32:0.0 33:0.0 34:0.13380281690140844 35:0.0 36:0.0 37:0.0 38:0.0 39:0.13380281690140844 40:0.0 41:0.0 42:0.14184397163120568 43:0.0 44:0.0 45:0.0 46:0.0 47:0.0 48:0.0 49:0.0 50:0.0 
-0.3381770363414548 1:0.0 2:0.0 3:0.0 4:0.0 5:0.0 6:0.0 7:0.0 8:0.15 9:0.0 10:0.0 11:0.0 12:0.0 13:0.0 14:0.0 15:0.0 16:0.0 17:0.15 18:0.0 19:0.13380281690140844 20:0.0 21:0.0 22:0.15827338129496402 23:0.0 24:0.0 25:0.0 26:0.0 27:0.14184397163120568 28:0.0 29:0.0 30:0.0 31:0.0 32:0.0 33:0.0 34:0.0 35:0.0 36:0.0 37:0.11535903531315797 38:0.0 39:0.0 40:0.0 41:0.0 42:0.0 43:0.0 44:0.0 45:0.0 46:0.0 47:0.14184397163120568 48:0.0 49:0.0 50:0.0 
-0.7683193536002199 1:0.0 2:0.0 3:0.14184397163120568 4:0.0 5:0.0 6:0.0 7:0.0 8:0.0 9:0.14184397163120568 10:0.0 11:0.0 12:0.0 13:0.0 14:0.0 15:0.0 16:0.0 17:0.0 18:0.0 19:0.0 20:0.1258741258741259 21:0.13380281690140844 22:0.0 23:0.0 24:0.0 25:0.0 26:0.0 27:0.0 28:0.0 29:0.0 30:0.0 31:0.0 32:0.0 33:0.0 34:0.0 35:0.13380281690140844 36:0.0 37:0.0 38:0.0 39:0.0 40:0.14184397163120568 41:0.0 42:0.0 43:0.0 44:0.1466211843841667 45:0.0 46:0.0 47:0.0 48:0.0 49:0.0 50:0.0 
-1.3537303565270895 1:0.15 2:0.0 3:0.0 4:0.0 5:0.0 6:0.0 7:0.0 8:0.0 9:0.0 10:0.0 11:0.0 12:0.0 13:0.0 14:0.0 15:0.0 16:0.0 17:0.0 18:0.14184397163120568 19:0.0 20:0.25808089595253636 21:0.0 22:0.0 23:0.0 24:0.0 25:0.0 26:0.0 27:0.0 28:0.0 29:0.0 30:0.0 31:0.0 32:0.15823116078505237 33:0.0 34:0.0 35:0.0 36:0.0 37:0.0 38:0.0 39:0.0 40:0.0 41:0.0 42:0.2918439716312057 43:0.0 44:0.0 45:0.0 46:0.0 47:0.0 48:0.0 49:0.0 50:0.0 
-0.9021522147050984 1:0.0 2:0.0 3:0.14184397163120568 4:0.0 5:0.0 6:0.15 7:0.0 8:0.0 9:0.0 10:0.0 11:0.0 12:0.0 13:0.0 14:0.0 15:0.0 16:0.0 17:0.0 18:0.0 19:0.0 20:0.0 21:0.0 22:0.1258741258741259 23:0.0 24:0.0 25:0.0 26:0.0 27:0.0 28:0.0 29:0.0 30:0.13380281690140844 31:0.0 32:0.0 33:0.13380281690140844 34:0.0 35:0.0 36:0.0 37:0.0 38:0.0 39:0.0 40:0.0 41:0.0 42:0.0 43:0.0 44:0.0 45:0.0 46:0.0 47:0.0 48:0.13380281690140844 49:0.14184397163120568 50:0.0 
-1.8162076381388657 1:0.0 2:0.0 3:0.0 4:0.0 5:0.0 6:0.0 7:0.0 8:0.0 9:0.10388838639551648 10:0.0 11:0.0 12:0.0 13:0.0 14:0.0 15:0.15 16:0.0 17:0.0 18:0.0 19:0.0 20:0.0 21:0.0 22:0.0 23:0.0 24:0.15 25:0.0 26:0.0 27:0.0 28:0.0 29:0.0 30:0.0 31:0.0 32:0.0 33:0.0 34:0.0 35:0.15 36:0.0 37:0.13380281690140844 38:0.0 39:0.0 40:0.0 41:0.0 42:0.15 43:0.15 44:0.0 45:0.0 46:0.0 47:0.0 48:0.0 49:0.0 50:0.0 
-0.6428397968244197 1:0.0 2:0.0 3:0.0 4:0.0 5:0.0 6:0.0 7:0.0 8:0.0 9:0.0 10:0.0 11:0.0 12:0.0 13:0.0 14:0.0 15:0.0 16:0.0 17:0.0 18:0.0 19:0.0 20:0.0 21:0.0 22:0.10186635927119264 23:0.0 24:0.0 25:0.0 26:0.0 27:0.14184397163120568 28:0.0 29:0.0 30:0.0 31:0.28368794326241137 32:0.0 33:0.0 34:0.0 35:0.0 36:0.0 37:0.14184397163120568 38:0.0 39:0.0 40:0.0 41:0.0 42:0.0 43:0.0 44:0.0 45:0.14184397163120568 46:0.14184397163120568 47:0.0 48:0.0 49:0.0 50:0.0 
-0.7879910703810673 1:0.0 2:0.0 3:0.14184397163120568 4:0.0 5:0.0 6:0.0 7:0.0 8:0.0 9:0.0 10:0.0 11:0.0 12:0.14184397163120568 13:0.0 14:0.0 15:0.0 16:0.0 17:0.0 18:0.0 19:0.0 20:0.27564678853261415 21:0.0 22:0.0 23:0.0 24:0.15827338129496402 25:0.0 26:0.0 27:0.0 28:0.0 29:0.0 30:0.14184397163120568 31:0.1025923300431156 32:0.0 33:0.0 34:0.0 35:0.0 36:0.0 37:0.0 38:0.0 39:0.0 40:0.0 41:0.0 42:0.0 43:0.0 44:0.0 45:0.0 46:0.0 47:0.0 48:0.0 49:0.0 50:0.0 
-1.6475713676009889 1:0.15 2:0.0 3:0.0 4:0.0 5:0.0 6:0.0 7:0.0 8:0.0 9:0.308273381294964 10:0.0 11:0.0 12:0.0 13:0.0 14:0.0 15:0.14184397163120568 16:0.0 17:0.0 18:0.0 19:0.15 20:0.0 21:0.0 22:0.0 23:0.0 24:0.0 25:0.0 26:0.0 27:0.0 28:0.0 29:0.0 30:0.0 31:0.0 32:0.0 33:0.0 34:0.0 35:0.0 36:0.0 37:0.0 38:0.0 39:0.0 40:0.0 41:0.0 42:0.0 43:0.15 44:0.0 45:0.0 46:0.0 47:0.0 48:0.0 49:0.0 50:0.0 
-1.1804452959737752 1:0.0 2:0.0 3:0.09325759824809005 4:0.0 5:0.0 6:0.0 7:0.0 8:0.0 9:0.0 10:0.0 11:0.0 12:0.0 13:0.0 14:0.0 15:0.0 16:0.0 17:0.0 18:0.0 19:0.0 20:0.0 21:0.0 22:0.14184397163120568 23:0.0 24:0.0 25:0.0 26:0.15 27:0.0 28:0.0 29:0.0 30:0.15 31:0.03925164158809008 32:0.0 33:0.0 34:0.0 35:0.0 36:0.0 37:0.0 38:0.0 39:0.0 40:0.0 41:0.0 42:0.0 43:0.0 44:0.13380281690140844 45:0.14184397163120568 46:0.0 47:0.0 48:0.15 49:0.0 50:0.0 
-0.9484037595921746 1:0.0 2:0.0 3:0.0 4:0.0 5:0.15 6:0.0 7:0.0 8:0.0 9:0.0 10:0.15827338129496402 11:0.0 12:0.0 13:0.0 14:0.0 15:0.0 16:0.0 17:0.0 18:0.0 19:0.061989364890033094 20:0.0 21:0.0 22:0.15 23:0.0 24:0.15 25:0.0 26:0.0 27:0.0 28:0.0 29:0.15 30:0.0 31:0.0 32:0.0 33:0.0 34:0.0 35:0.0 36:0.0 37:0.0 38:0.0 39:0.0 40:0.0 41:0.0 42:0.14184397163120568 43:0.0 44:0.0 45:0.0 46:0.0 47:0.0 48:0.0 49:0.0 50:0.0 
-0.7513042097120761 1:0.0 2:0.0 3:0.0 4:0.0 5:0.0 6:0.0 7:0.0 8:0.0 9:0.0 10:0.0 11:0.0 12:0.0 13:0.0 14:0.0 15:0.0 16:0.0 17:0.0 18:0.14184397163120568 19:0.0 20:0.0 21:0.0 22:0.0 23:0.0 24:0.0 25:0.0 26:0.28368794326241137 27:0.0 28:0.0 29:0.14184397163120568 30:0.14184397163120568 31:0.0 32:0.0 33:0.0 34:0.0 35:0.0 36:0.2206482865637582 37:0.0 38:0.0 39:0.0 40:0.0 41:0.0 42:0.0 43:0.0 44:0.0 45:0.0 46:0.0 47:0.0 48:0.0 49:0.0 50:0.0 
-0.8288128177153582 1:0.0 2:0.15827338129496402 3:0.0 4:0.0 5:0.0 6:0.0 7:0.0 8:0.0 9:0.0 10:0.0 11:0.0 12:0.15 13:0.0 14:0.10395068944740851 15:0.0 16:0.0 17:0.0 18:0.0 19:0.0 20:0.0 21:0.0 22:0.0 23:0.0 24:0.14184397163120568 25:0.0 26:0.0 27:0.0 28:0.0 29:0.0 30:0.0 31:0.0 32:0.15 33:0.14184397163120568 34:0.0 35:0.0 36:0.0 37:0.0 38:0.0 39:0.0 40:0.0 41:0.0 42:0.0 43:0.15 44:0.0 45:0.0 46:0.0 47:0.0 48:0.0 49:0.0 50:0.0 
-0.28663610434686504 1:0.0 2:0.0 3:0.13380281690140844 4:0.0 5:0.0 6:0.0 7:0.0 8:0.0 9:0.0 10:0.0 11:0.0 12:0.0 13:0.0 14:0.0 15:0.0 16:0.0 17:0.0 18:0.0 19:0.0 20:0.0 21:0.0 22:0.0 23:0.0 24:0.0 25:0.0 26:0.15 27:0.0 28:0.0 29:0.0 30:0.13065070362436038 31:0.0 32:0.13380281690140844 33:0.14184397163120568 34:0.0 35:0.0 36:0.0 37:0.13380281690140844 38:0.0 39:0.0 40:0.0 41:0.0 42:0.0 43:0.0 44:0.14184397163120568 45:0.0 46:0.0 47:0.0 48:0.0 49:0.0 50:0.0 
-2.13463326055887 1:0.0 2:0.0 3:0.0 4:0.0 5:0.0 6:0.0 7:0.0 8:0.0 9:0.3 10:0.0 11:0.0 12:0.0 13:0.0 14:0.0 15:0.0 16:0.0 17:0.0 18:0.0 19:0.0 20:0.15 21:0.0 22:0.0 23:0.0 24:0.09459609244871653 25:0.0 26:0.0 27:0.0 28:0.0 29:0.0 30:0.0 31:0.0 32:0.0 33:0.0 34:0.0 35:0.0 36:0.0 37:0.14184397163120568 38:0.0 39:0.0 40:0.0 41:0.0 42:0.0 43:0.0 44:0.0 45:0.0 46:0.0 47:0.0 48:0.15 49:0.15 50:0.0 
-0.604814015528245 1:0.0 2:0.07171211635099217 3:0.14184397163120568 4:0.0 5:0.0 6:0.15 7:0.0 8:0.0 9:0.09319148968237123 10:0.0 11:0.0 12:0.0 13:0.0 14:0.0 15:0.0 16:0.0 17:0.0 18:0.0 19:0.0 20:0.0 21:0.0 22:0.0 23:0.0 24:0.0 25:0.0 26:0.0 27:0.14184397163120568 28:0.0 29:0.0 30:0.13380281690140844 31:0.0 32:0.0 33:0.0 34:0.0 35:0.0 36:0.0 37:0.13380281690140844 38:0.0 39:0.0 40:0.0 41:0.0 42:0.0 43:0.0 44:0.0 45:0.0 46:0.0 47:0.0 48:0.13380281690140844 49:0.0 50:0.0 
-0.7940088500368778 1:0.0 2:0.0 3:0.15 4:0.13380281690140844 5:0.0 6:0.0 7:0.0 8:0.0 9:0.14294754264117876 10:0.0 11:0.0 12:0.13380281690140844 13:0.0 14:0.0 15:0.0 16:0.0 17:0.0 18:0.0 19:0.0 20:0.0 21:0.0 22:0.0 23:0.0 24:0.0 25:0.0 26:0.0 27:0.0 28:0.13380281690140844 29:0.15 30:0.14184397163120568 31:0.0 32:0.0 33:0.0 34:0.0 35:0.0 36:0.0 37:0.0 38:0.0 39:0.0 40:0.0 41:0.0 42:0.0 43:0.0 44:0.0 45:0.0 46:0.0 47:0.0 48:0.0 49:0.0 50:0.0 
-1.7377328100648872 1:0.0 2:0.0 3:0.0 4:0.0 5:0.0 6:0.0 7:0.0 8:0.0 9:0.0 10:0.0 11:0.15 12:0.0 13:0.0 14:0.0 15:0.0 16:0.0 17:0.0 18:0.0 19:0.0 20:0.0 21:0.14285714285714285 22:0.0 23:0.0 24:0.0 25:0.0 26:0.10246717392949062 27:0.0 28:0.0 29:0.0 30:0.0 31:0.14184397163120568 32:0.0 33:0.0 34:0.0 35:0.0 36:0.0 37:0.0 38:0.0 39:0.0 40:0.0 41:0.0 42:0.0 43:0.0 44:0.0 45:0.0 46:0.15 47:0.0 48:0.13380281690140844 49:0.0 50:0.15 
-1.550542296639341 1:0.0 2:0.15827338129496402 3:0.0 4:0.0 5:0.0 6:0.0 7:0.0 8:0.0 9:0.0 10:0.0 11:0.0 12:0.0 13:0.0 14:0.0 15:0.0 16:0.0 17:0.0 18:0.0 19:0.0 20:0.10176068083852594 21:0.0 22:0.15 23:0.0 24:0.0 25:0.0 26:0.0 27:0.0 28:0.0 29:0.0 30:0.0 31:0.0 32:0.0 33:0.14184397163120568 34:0.0 35:0.13380281690140844 36:0.0 37:0.0 38:0.0 39:0.0 40:0.0 41:0.0 42:0.0 43:0.0 44:0.0 45:0.0 46:0.0 47:0.0 48:0.15 49:0.14184397163120568 50:0.0 
-0.2845870448459714 1:0.0 2:0.0 3:0.0 4:0.0 5:0.14184397163120568 6:0.0 7:0.0 8:0.0 9:0.0 10:0.0 11:0.0 12:0.0 13:0.0 14:0.0 15:0.0 16:0.0 17:0.0 18:0.0 19:0.0 20:0.0 21:0.0 22:0.0 23:0.15 24:0.0 25:0.0 26:0.0 27:0.0 28:0.0 29:0.0 30:0.1258741258741259 31:0.0 32:0.0 33:0.0 34:0.0 35:0.13081492907386555 36:0.0 37:0.1258741258741259 38:0.0 39:0.0 40:0.0 41:0.0 42:0.0 43:0.0 44:0.0 45:0.13380281690140844 46:0.0 47:0.0 48:0.0 49:0.0 50:0.15 
-0.8738775207245055 1:0.0 2:0.0 3:0.0 4:0.0 5:0.06962891936337717 6:0.0 7:0.0 8:0.0 9:0.0 10:0.0 11:0.0 12:0.0 13:0.0 14:0.0 15:0.0 16:0.08688884167250749 17:0.0 18:0.0 19:0.0 20:0.0 21:0.0 22:0.0 23:0.0 24:0.14184397163120568 25:0.0 26:0.0 27:0.0 28:0.0 29:0.14184397163120568 30:0.0 31:0.0 32:0.0 33:0.0 34:0.0 35:0.0 36:0.0 37:0.0 38:0.0 39:0.14184397163120568 40:0.13380281690140844 41:0.0 42:0.0 43:0.15827338129496402 44:0.1258741258741259 45:0.0 46:0.0 47:0.0 48:0.0 49:0.0 50:0.0 
-0.3045901679119343 1:0.0 2:0.0 3:0.0 4:0.0 5:0.0 6:0.0 7:0.0 8:0.0 9:0.15 10:0.0 11:0.0 12:0.0 13:0.0 14:0.0 15:0.0 16:0.0 17:0.0 18:0.0 19:0.0 20:0.0 21:0.0 22:0.0 23:0.0 24:0.0 25:0.0 26:0.15 27:0.0 28:0.0 29:0.0 30:0.0 31:0.14184397163120568 32:0.0 33:0.0 34:0.0 35:0.0 36:0.0 37:0.21600221846899129 38:0.0 39:0.0 40:0.0 41:0.0 42:0.0 43:0.0 44:0.0 45:0.0 46:0.15827338129496402 47:0.0 48:0.0 49:0.0 50:0.15827338129496402 
-1.761902445399316 1:0.0 2:0.0 3:0.0 4:0.0 5:0.0 6:0.0 7:0.0 8:0.0 9:0.0 10:0.0 11:0.0 12:0.0 13:0.0 14:0.0 15:0.0 16:0.0 17:0.0 18:0.0 19:0.0 20:0.0 21:0.0 22:0.0 23:0.0 24:0.0 25:0.0 26:0.0 27:0.13380281690140844 28:0.0 29:0.0 30:0.24285777772107253 31:0.0 32:0.0 33:0.0 34:0.0 35:0.0 36:0.0 37:0.0 38:0.0 39:0.14184397163120568 40:0.0 41:0.0 42:0.0 43:0.0 44:0.0 45:0.0 46:0.0 47:0.0 48:0.0 49:0.3 50:0.15 
-0.6798644594771336 1:0.0 2:0.0 3:0.14184397163120568 4:0.0 5:0.0 6:0.0 7:0.0 8:0.0 9:0.0 10:0.0 11:0.0 12:0.21607713354693542 13:0.0 14:0.0 15:0.0 16:0.0 17:0.0 18:0.0 19:0.0 20:0.0 21:0.0 22:0.0 23:0.0 24:0.0 25:0.0 26:0.15 27:0.0 28:0.0 29:0.0 30:0.0 31:0.15 32:0.0 33:0.0 34:0.0 35:0.15 36:0.0 37:0.0 38:0.0 39:0.0 40:0.0 41:0.0 42:0.0 43:0.0 44:0.1258741258741259 45:0.06620476894773292 46:0.0 47:0.0 48:0.0 49:0.0 50:0.0 
-0.4697436710485842 1:0.0 2:0.0 3:0.0 4:0.0 5:0.0 6:0.0 7:0.0 8:0.0 9:0.0 10:0.0 11:0.0 12:0.0 13:0.0 14:0.0 15:0.0 16:0.0 17:0.0 18:0.0 19:0.0 20:0.0 21:0.0 22:0.0 23:0.0 24:0.0 25:0.0 26:0.14184397163120568 27:0.0 28:0.0 29:0.0 30:0.0 31:0.15 32:0.14184397163120568 33:0.0 34:0.0 35:0.0 36:0.0 37:0.0 38:0.0 39:0.0 40:0.0 41:0.0 42:0.0 43:0.0 44:0.0 45:0.07563920268347277 46:0.15827338129496402 47:0.2918439716312057 48:0.0 49:0.0 50:0.0 
-1.2187045487057462 1:0.0 2:0.0 3:0.0 4:0.0 5:0.0 6:0.0 7:0.0 8:0.0 9:0.0 10:0.15 11:0.0 12:0.0 13:0.0 14:0.0 15:0.0 16:0.0 17:0.0 18:0.0 19:0.0 20:0.0 21:0.0 22:0.0 23:0.0 24:0.15827338129496402 25:0.0 26:0.0 27:0.0 28:0.0 29:0.0 30:0.0 31:0.0 32:0.2838028169014084 33:0.0 34:0.0 35:0.0 36:0.14184397163120568 37:0.06780059843241715 38:0.0 39:0.0 40:0.0 41:0.0 42:0.0 43:0.0 44:0.0 45:0.0 46:0.0 47:0.15 48:0.0 49:0.0 50:0.0 
-1.137618222908756 1:0.0 2:0.0 3:0.0 4:0.0 5:0.0 6:0.15 7:0.0 8:0.0 9:0.0 10:0.0 11:0.0 12:0.0 13:0.0 14:0.0 15:0.20792252330762098 16:0.15 17:0.0 18:0.0 19:0.13380281690140844 20:0.0 21:0.0 22:0.09066902598815363 23:0.0 24:0.0 25:0.0 26:0.0 27:0.0 28:0.0 29:0.0 30:0.0 31:0.0 32:0.0 33:0.0 34:0.0 35:0.0 36:0.0 37:0.0 38:0.0 39:0.0 40:0.0 41:0.0 42:0.13380281690140844 43:0.0 44:0.0 45:0.0 46:0.0 47:0.0 48:0.13380281690140844 49:0.0 50:0.0 
-1.6924026909289336 1:0.0 2:0.0 3:0.0 4:0.0 5:0.0 6:0.0 7:0.0 8:0.0 9:0.2394963673588017 10:0.0 11:0.0 12:0.0 13:0.0 14:0.0 15:0.0 16:0.0 17:0.0 18:0.0 19:0.0 20:0.0 21:0.0 22:0.0 23:0.0 24:0.15827338129496402 25:0.0 26:0.14184397163120568 27:0.0 28:0.0 29:0.0 30:0.0 31:0.0 32:0.0 33:0.0 34:0.0 35:0.0 36:0.13380281690140844 37:0.0 38:0.0 39:0.0 40:0.0 41:0.10129357706522821 42:0.14184397163120568 43:0.0 44:0.0 45:0.0 46:0.0 47:0.0 48:0.0 49:0.0 50:0.0 
-0.38997577624276614 1:0.15 2:0.0 3:0.24313244213446522 4:0.0 5:0.0 6:0.0 7:0.0 8:0.0 9:0.0 10:0.0 11:0.0 12:0.14184397163120568 13:0.0 14:0.0 15:0.0 16:0.0 17:0.0 18:0.0 19:0.0 20:0.14184397163120568 21:0.14184397163120568 22:0.15 23:0.0 24:0.0 25:0.0 26:0.0 27:0.0 28:0.0 29:0.0 30:0.0 31:0.0 32:0.0 33:0.0 34:0.0 35:0.0 36:0.0 37:0.0 38:0.0 39:0.0 40:0.0 41:0.0 42:0.0 43:0.0 44:0.0 45:0.0 46:0.0 47:0.0 48:0.0 49:0.0 50:0.0 
-0.8276904618848796 1:0.10624329390103601 2:0.0 3:0.0 4:0.0 5:0.0 6:0.0 7:0.0 8:0.0 9:0.0 10:0.0 11:0.0 12:0.0 13:0.0 14:0.0 15:0.0 16:0.14184397163120568 17:0.0 18:0.0 19:0.0 20:0.0 21:0.14184397163120568 22:0.13380281690140844 23:0.0 24:0.0 25:0.0 26:0.0 27:0.0 28:0.0 29:0.0 30:0.0 31:0.0 32:0.0 33:0.0 34:0.0 35:0.0 36:0.0 37:0.0 38:0.0 39:0.0 40:0.0 41:0.0 42:0.0 43:0.0 44:0.0 45:0.2838028169014084 46:0.14184397163120568 47:0.0 48:0.0 49:0.0 50:0.0 
-0.8391955359539103 1:0.0 2:0.0 3:0.2918439716312057 4:0.0 5:0.0 6:0.0 7:0.0 8:0.0 9:0.0 10:0.0 11:0.15 12:0.0 13:0.0 14:0.0 15:0.0 16:0.0 17:0.0 18:0.0 19:0.0 20:0.0 21:0.0 22:0.0 23:0.0 24:0.0 25:0.0 26:0.0 27:0.15827338129496402 28:0.0 29:0.0 30:0.0 31:0.0 32:0.0 33:0.0 34:0.0 35:0.0 36:0.0 37:0.0 38:0.0 39:0.0 40:0.0 41:0.0 42:0.0 43:0.0 44:0.0 45:0.0 46:0.15 47:0.0 48:0.0 49:0.0 50:0.15 
-0.19230134288248235 1:0.0 2:0.0 3:0.0 4:0.0 5:0.13380281690140844 6:0.0 7:0.0 8:0.0 9:0.14184397163120568 10:0.0 11:0.0 12:0.0 13:0.0 14:0.2695617161162776 15:0.0 16:0.0 17:0.0 18:0.0 19:0.0 20:0.0 21:0.0 22:0.0 23:0.0 24:0.0 25:0.0 26:0.0 27:0.0 28:0.0 29:0.0 30:0.0 31:0.0 32:0.0 33:0.0 34:0.0 35:0.0 36:0.0 37:0.14184397163120568 38:0.0 39:0.0 40:0.13380281690140844 41:0.0 42:0.0 43:0.0 44:0.0 45:0.0 46:0.0 47:0.14184397163120568 48:0.0 49:0.0 50:0.0 
-2.158847619959277 1:0.0 2:0.0 3:0.15 4:0.0 5:0.15 6:0.0 7:0.0 8:0.0 9:0.0 10:0.0 11:0.0 12:0.0 13:0.0 14:0.0 15:0.0 16:0.0 17:0.0 18:0.0 19:0.14184397163120568 20:0.14184397163120568 21:0.0 22:0.0 23:0.0 24:0.0 25:0.0 26:0.09999999999999998 27:0.0 28:0.0 29:0.0 30:0.0 31:0.0 32:0.258590700894896 33:0.0 34:0.0 35:0.0 36:0.0 37:0.0 38:0.0 39:0.0 40:0.0 41:0.0 42:0.0 43:0.0 44:0.0 45:0.0 46:0.0 47:0.0 48:0.0 49:0.0 50:0.0 
-0.6056998719291576 1:0.0 2:0.0 3:0.0 4:0.0 5:0.10596660474901634 6:0.0 7:0.0 8:0.0 9:0.0 10:0.0 11:0.0 12:0.13380281690140844 13:0.0 14:0.0 15:0.0 16:0.0 17:0.0 18:0.0 19:0.0 20:0.13380281690140844 21:0.0 22:0.0 23:0.0 24:0.0 25:0.0 26:0.0 27:0.0 28:0.0 29:0.13380281690140844 30:0.0 31:0.2677180975053316 32:0.0 33:0.0 34:0.0 35:0.0 36:0.0 37:0.0 38:0.0 39:0.13380281690140844 40:0.0 41:0.0 42:0.0 43:0.0 44:0.0 45:0.0 46:0.0 47:0.0 48:0.0 49:0.0 50:0.0 
-0.11945244252530164 1:0.0 2:0.0 3:0.14591201400478396 4:0.0 5:0.13380281690140844 6:0.0 7:0.0 8:0.0 9:0.0 10:0.0 11:0.0 12:0.0 13:0.0 14:0.15827338129496402 15:0.0 16:0.0 17:0.0 18:0.0 19:0.0 20:0.0 21:0.0 22:0.0 23:0.0 24:0.0 25:0.0 26:0.15 27:0.15 28:0.0 29:0.0 30:0.0 31:0.0 32:0.0 33:0.0 34:0.0 35:0.0 36:0.0 37:0.0 38:0.0 39:0.0 40:0.0 41:0.0 42:0.0 43:0.0 44:0.0 45:0.14184397163120568 46:0.12016781616763783 47:0.0 48:0.0 49:0.0 50:0.0 
